//Numpy array shape [256]
//Min -0.181248754263
//Max 0.274845004082
//Number of zeros 0

#ifndef B14_H_
#define B14_H_

#ifndef __SYNTHESIS__
model_default_t b14[256];
#else
model_default_t b14[256] = {0.0196750183, -0.0013752913, 0.0924313217, 0.1274146140, 0.1929122508, 0.0904280916, 0.0680206418, -0.0109257409, -0.0511011407, 0.0373470113, -0.0146845924, 0.0361276455, 0.0447974689, 0.1142331883, 0.0396334603, 0.0330968201, -0.0414270945, 0.1261725575, 0.0916754156, 0.1184646264, -0.0131671187, 0.0750441104, 0.1283353120, 0.0080044018, -0.1075731963, 0.0013213310, -0.0340635329, 0.1169405207, 0.0287493374, 0.0308547784, 0.0387796462, -0.0680996701, -0.0071317619, 0.0105054155, 0.0206267424, 0.0334174782, 0.0045766579, -0.0527579226, 0.0483131185, -0.0547899045, 0.1683600396, 0.0115788290, 0.0201778896, 0.0168149248, 0.0708065927, 0.2172235399, 0.0015384305, 0.1641129106, 0.0030619660, 0.0116954986, -0.0058612446, 0.0519056506, -0.0561557151, 0.0873392746, 0.0158808101, 0.0877240673, 0.1323182285, 0.0381806754, -0.0187280662, -0.0692762062, 0.0570531711, 0.0092672985, 0.0484045595, 0.0023799483, 0.0035083767, 0.2038003653, 0.1200569272, 0.1708838791, 0.2257896364, 0.0083412919, 0.0415678285, 0.0881546885, -0.0230569169, 0.0550335534, 0.0048640980, -0.0040311981, 0.0239200722, 0.0744936839, -0.0164328683, -0.0147285322, 0.2356763929, 0.1224088669, 0.0146704437, -0.1778734922, -0.1293458790, -0.0314137377, 0.0227468424, 0.0096539818, -0.0320120193, -0.0252930503, -0.0879025236, 0.1340768188, 0.1593706608, 0.0877960846, -0.0343334638, 0.0545805022, -0.0489804074, 0.0354287066, -0.0197445303, 0.0443372093, 0.1452515274, 0.0777085498, 0.0102961650, -0.0259530023, -0.0004750135, -0.0874524266, -0.0751014277, 0.0591358207, 0.0615935996, 0.0937355682, -0.0149535025, 0.0178817362, 0.2748450041, 0.1530175209, 0.0727292001, -0.1041697860, 0.0442982130, 0.1731910408, -0.0608791672, 0.1772038490, 0.0840698332, 0.0069889282, -0.0318103135, 0.0210375153, 0.0422864854, 0.0635605901, 0.0404434502, 0.0376647301, 0.0359471031, 0.1020839438, 0.0000873470, 0.0938471332, 0.0468499288, 0.0632981807, -0.0378860421, 0.0793554038, 0.1131280214, -0.0396006666, -0.0583097935, -0.0802249536, -0.0465227999, -0.0261594597, -0.0332310535, 0.0031742735, -0.0752109811, 0.0236260928, -0.0763228387, 0.0711988732, 0.0662565529, 0.1735719740, 0.2457621098, -0.0800079331, 0.0199536737, 0.1060318798, 0.0598321632, 0.0333041959, 0.0950865969, 0.0049825730, 0.0889858678, 0.0247590989, 0.1481246501, 0.1985561103, 0.0735398382, 0.1086855158, 0.2044200152, 0.0204963032, 0.0457405373, 0.0420015566, 0.0185964089, -0.0258497410, -0.0626892224, 0.1170595959, -0.0229490604, 0.0340300016, 0.0502955355, 0.1620970517, -0.0002054969, 0.1186548024, 0.0964896977, 0.0690344572, -0.1411593556, 0.0003720174, -0.0738080963, -0.0261590891, 0.0757541806, -0.0075953435, 0.0793360546, 0.0125323590, 0.1252496243, 0.0040175435, 0.0297375340, 0.0278345328, -0.0280193053, -0.0024037401, 0.0114893205, 0.0383159034, 0.0355407484, -0.0624656267, 0.1689750701, 0.0655031577, -0.0711620823, 0.1108395532, 0.0048798178, 0.0338754095, 0.1014951319, 0.0348226465, 0.0501782522, 0.0426199585, 0.0060749617, -0.0144697577, 0.0688180104, -0.0236204937, -0.0050982349, -0.0354031064, -0.0015382710, -0.0158810578, 0.0425821505, -0.0058002095, 0.1184612066, -0.0001957975, 0.0266481228, 0.0676563978, -0.1812487543, -0.0580569245, 0.0294329431, 0.0582340583, 0.0374395847, 0.0162397213, 0.0210489873, 0.0841620490, -0.0036339639, 0.0131090730, -0.0261265058, 0.0201664791, 0.0385067798, -0.1502812505, 0.0660450682, -0.0715182498, -0.0400999747, -0.0208548680, 0.1322436482, -0.0170564819, 0.1423556954, 0.1687735021, -0.0145762125, 0.0176661983, 0.1470601261, 0.0311568659, -0.0882530883, 0.2043082267, 0.0466664173, 0.0281380210, -0.0088334680, 0.0788244158, 0.0981942266, 0.1631168723};
#endif

#endif
