//Numpy array shape [512]
//Min -0.145482346416
//Max 0.314845085144
//Number of zeros 0

#ifndef B19_H_
#define B19_H_

#ifndef __SYNTHESIS__
model_default_t b19[512];
#else
model_default_t b19[512] = {0.0134856692, 0.0075611440, 0.0670189485, 0.0417790525, 0.0013112448, 0.1943113506, -0.0423714295, 0.0275478587, 0.0719563439, 0.0540045016, 0.0548112728, 0.0004533932, 0.0117047364, 0.0733304396, 0.0647175610, -0.0172770396, 0.0117172003, -0.0091495905, 0.0593539327, 0.0077898717, 0.1947352141, -0.0316075496, 0.0823036358, 0.0081241364, -0.0109362509, 0.1183184832, -0.0016298565, -0.0310496688, 0.1052463204, 0.0891134366, -0.0175339449, 0.0111401053, 0.0273301005, 0.0362811424, 0.1165416166, 0.0065665990, 0.0531449541, -0.0711448714, 0.0240342263, 0.0546743758, 0.0186716486, -0.0150724212, 0.0687921718, 0.0196921695, -0.0144522768, 0.1044203341, 0.0295261983, 0.0107514430, 0.1245728284, 0.0035120484, -0.0739502981, -0.0101699345, 0.0136745740, 0.0572200231, -0.0105383117, 0.0622920655, 0.0447351746, 0.0586416647, 0.0429532826, 0.0325870886, -0.0470646508, 0.0134688132, -0.0043271608, 0.0153139178, -0.0114186071, 0.0793765113, 0.0745934471, 0.0431759618, 0.0418528020, -0.0083052116, 0.1241380870, 0.0263493061, 0.0149985682, -0.0156251937, 0.1354933828, -0.0236196592, 0.1010924280, 0.0221582185, 0.0467987098, -0.0230542272, -0.0003575207, 0.0088686775, 0.0174463820, 0.0071796249, -0.0093283774, 0.0146772526, 0.0377383567, -0.0180458818, -0.0137989707, 0.0370495059, -0.0514304265, 0.0244689938, 0.0246941149, 0.0490982234, 0.0519951209, 0.1023118049, 0.0564134754, -0.0158333182, -0.0332014598, -0.0558437295, 0.0047041071, -0.1454823464, -0.0338013396, 0.0340506695, 0.0541915260, -0.0034240922, 0.0266584642, -0.0114773437, 0.0072381548, 0.0260639619, 0.0534340255, 0.0609440729, 0.1014570221, 0.0228503682, 0.0050242953, 0.0064340704, 0.0747289732, -0.0283974521, -0.0286096726, -0.0528822690, -0.0445150286, -0.0236949921, -0.0421548858, 0.0918429866, -0.0378889516, -0.0126391677, 0.0166811477, 0.0747307241, -0.0333992690, 0.0906306133, 0.0898601934, 0.0187007170, 0.0342745855, 0.0188256428, 0.0362141989, 0.0237214360, -0.0147097819, 0.0208744705, 0.0305715743, 0.1424921602, 0.0381392427, -0.0616364889, -0.0136105977, 0.0126859136, 0.0237574000, 0.0018892731, -0.0302101634, -0.0296266209, -0.0113964435, 0.0738783628, -0.0234750230, 0.0444346145, -0.0061993995, 0.0215586387, -0.0640725344, -0.0251491051, -0.0618346855, 0.0956991538, -0.0098066721, -0.0113183632, 0.0888747200, 0.0659288391, 0.0111429412, -0.0315010250, 0.0284125116, 0.0112966420, 0.0299655348, -0.0722193867, 0.0072533945, 0.0059467289, -0.0145975444, 0.0520423390, -0.0214287192, 0.1504253000, -0.0199996829, 0.1213419512, 0.0461261347, -0.0118888309, -0.0052925912, -0.0220322367, 0.0408356376, 0.0093979612, -0.0374934636, 0.1364914328, 0.0641688034, -0.0070183561, 0.0090292897, -0.0085815089, 0.1147846580, 0.0199696161, 0.0155045800, -0.0101002650, 0.0047025513, -0.0036482455, 0.0844864324, 0.0163641032, 0.0659942552, -0.0189006217, -0.0096923821, -0.0540504567, 0.0445856489, 0.0657630563, -0.0238677282, -0.0361041166, 0.0098001920, -0.0945509523, 0.0029119311, 0.0237150956, 0.0185776707, -0.0296500605, -0.0115511660, 0.1120624840, -0.0129821338, 0.0098351231, -0.0407908969, 0.0306317937, 0.1488031894, 0.0312154833, -0.0341295898, 0.0054129441, 0.0390884317, -0.0460783690, 0.0521941409, 0.0506019145, -0.0569398142, 0.0274091512, -0.0162835866, 0.1828128695, 0.0364030674, 0.0637542084, -0.0087594120, -0.0144028021, 0.0118060289, -0.0078048203, 0.1249693707, 0.0320476070, -0.0419833921, 0.0074283667, 0.0018824933, -0.0122802956, -0.0517452396, 0.0389159843, 0.0940120369, 0.0209558848, 0.0536454394, 0.0215712171, -0.0223824009, -0.0573538616, -0.0390081406, 0.0450024977, -0.0018383004, 0.0124261547, -0.0093896119, 0.0003243652, 0.0658256561, 0.0212326907, -0.0141316345, -0.0354444273, -0.0012660322, 0.0008091651, 0.0952033177, 0.0186431147, -0.0118538551, -0.0468190573, 0.0499329120, -0.0165777802, -0.0460738689, 0.0366688892, 0.0805559903, 0.1407983005, -0.0521439537, -0.0046141944, 0.0141078075, -0.0242717080, 0.0015409212, 0.1263339967, 0.0197144132, 0.0130272536, 0.0393291339, 0.0335872211, 0.0009098808, -0.0231861584, 0.0212261043, -0.0188354030, 0.0389622524, 0.0403394215, 0.0043107565, -0.0532583296, 0.0345412195, -0.0082469443, -0.0218364559, -0.0488552377, 0.0934401006, 0.0143189942, -0.0137395067, -0.0186405536, 0.0171415415, 0.0285794251, -0.0093438858, 0.1143511087, 0.1684751511, 0.1486549228, 0.0603681915, 0.1096641421, -0.0087642753, -0.0018235050, -0.0097525045, 0.1060731411, 0.0585444905, -0.0509036370, 0.0382650495, 0.0153179169, 0.1413483024, 0.1375193000, 0.1381913126, -0.0339093730, 0.0312284511, 0.0724469796, 0.0132912276, 0.0786964968, -0.0134277400, -0.0106712207, 0.0497582518, 0.0606029965, -0.0413837731, 0.2900992036, 0.0921009108, 0.0486785099, -0.0245616976, 0.0439487696, -0.0157015696, -0.0172070730, 0.0199988317, -0.0626260117, 0.0484993346, 0.1729047149, -0.0139600793, 0.0131699722, -0.0159758702, 0.2017592043, -0.0190462861, 0.0341623537, 0.0256702956, -0.0211753808, 0.0817907527, 0.0200919546, 0.0104330592, 0.0362919420, -0.0555842221, -0.0144582288, 0.0167907123, 0.0154485926, 0.3148450851, -0.0124908937, -0.0304320287, -0.0211711805, 0.0031488808, 0.0147300186, 0.0594975203, -0.0103931976, 0.0545508340, -0.0398823135, 0.0183207598, -0.0760776326, -0.0634841099, 0.0424936153, 0.0135161895, 0.1040218696, -0.0021564174, 0.0104275793, -0.0637196302, 0.1312504858, -0.0041384622, -0.0162714664, -0.0098168114, -0.0411002338, 0.0010231243, -0.0267435722, -0.0109324604, -0.0208308809, 0.0233004950, 0.0630559847, -0.0287059695, -0.0672038868, 0.0593779124, -0.0222566687, 0.0769380555, 0.0154043920, 0.0303863473, 0.0050583901, -0.0234303828, -0.0399397127, 0.0633660331, 0.0037460933, -0.0087512052, 0.0451509543, -0.0107133072, 0.0269633643, 0.0318308957, -0.0476739183, 0.0177827906, -0.0170455985, 0.1230546534, -0.0684634894, -0.0381464399, 0.0726952478, 0.0623315051, 0.1408274770, 0.0355799422, 0.0474497825, 0.0592914522, -0.0007688703, 0.0829051659, 0.0196988136, -0.0004053712, -0.0390990488, 0.0134401247, -0.0103885997, -0.0168990400, -0.0568255857, -0.0122408336, 0.0378667265, -0.0409045964, 0.0113357157, 0.0251155403, -0.0161016304, -0.0108334133, 0.0827537104, -0.0232265815, -0.0200127568, -0.0293211620, 0.1160470620, -0.0164375454, -0.0523825064, 0.0298382286, 0.0045195362, 0.0471658297, 0.0182961375, 0.0393724181, 0.0603150986, 0.0292003807, -0.0262740795, -0.0141928466, 0.1442448348, -0.0211580601, -0.0398170762, 0.0878182054, 0.0035760903, 0.0118966140, -0.0053624455, 0.0042198771, 0.0171201546, -0.0355656743, 0.0054658633, 0.0413718037, 0.0216033291, 0.0064885677, 0.0895513445, -0.0183667783, -0.0567885712, 0.0637646541, 0.0706610084, 0.0047975886, 0.0490693152, 0.0049641426, 0.0022455589, 0.0118973693, -0.0076223216, 0.0349016935, 0.0604028739, 0.0413994305, -0.0025185249, 0.0087186135, -0.0425144695, -0.0028927892, 0.0094458824, -0.0164314937, 0.0148197245, 0.0826082528, 0.0698677227, 0.0169168990, 0.0831174254, 0.0042061186, 0.1357077509, -0.0125219207, -0.0481341034, -0.0010327672, 0.0588400513, 0.0185641441, 0.0359413028, 0.0546699390, 0.0661198869, -0.0317001157, -0.0067359167, -0.0722980648, 0.0754175186, -0.0642900392, 0.0827963129, -0.0380822793, 0.0337748528, -0.0260465778, -0.0657771602, 0.0729462877, 0.0425881520, 0.0173469335, 0.0364230759, 0.0507578403, -0.0087543689, 0.0613575876, 0.0397936217, -0.0041302722, 0.0101658003};
#endif

#endif
