//Numpy array shape [512]
//Min -0.350802809000
//Max 0.639748513699
//Number of zeros 0

#ifndef B26_H_
#define B26_H_

#ifndef __SYNTHESIS__
model_default_t b26[512];
#else
model_default_t b26[512] = {0.0972232521, -0.0732301399, 0.1515041590, 0.1073683798, -0.0787555948, -0.0241246987, 0.0848031044, 0.0624934174, 0.2888720036, 0.1558303386, 0.1340042949, 0.0698199943, -0.2171933353, 0.1058696806, 0.2222565562, -0.0287815742, 0.0647584051, -0.1388271302, 0.2053090930, 0.1192783192, -0.0418131426, -0.0111328689, -0.0871208981, 0.0755662546, 0.2640690506, 0.0973907709, -0.0656019151, -0.1395844668, -0.1626466960, -0.0087746680, 0.2097528875, 0.1206256673, 0.2330271155, 0.0142718498, 0.1270246655, 0.0433076657, 0.1075628474, 0.0256101247, -0.0722438991, 0.0570154898, 0.0350982435, -0.0441192165, -0.0765857995, 0.1815328747, 0.1803263277, 0.1687475741, 0.0978041515, 0.0180262048, -0.0143519500, 0.0741873607, 0.0939584598, 0.1194595173, -0.1260940731, 0.3074645102, -0.0978475213, 0.1508381516, 0.0111390026, -0.1342273802, -0.0133490497, 0.1451827437, 0.0495087057, 0.2925216854, 0.0136722494, -0.0993172526, 0.0022462506, 0.1124650463, 0.0166944731, 0.0158153400, -0.2616905570, -0.0542517416, 0.0832710341, -0.0874206871, -0.1080938131, -0.1342226416, 0.0893189833, 0.1589000970, 0.0723217875, 0.0535155870, -0.0978990793, -0.0222737305, 0.1660573184, 0.0146783590, 0.0488309897, -0.0618785433, -0.0024268848, -0.0350905024, -0.0570284128, 0.2117761672, -0.0587092265, -0.0417218693, 0.1873969585, -0.0878316686, 0.1815724224, 0.0031036022, -0.1064223200, 0.2611893415, 0.0773651451, 0.2530471981, 0.0677449033, 0.0699037164, -0.1214466169, 0.0327433422, -0.0732980669, -0.1297181696, -0.1933388412, -0.1478596628, -0.0792617872, 0.0876382142, 0.0083966088, 0.0394587256, 0.0621666610, -0.0045317058, 0.1293869168, -0.0055611446, 0.1522129327, 0.0117498152, 0.1940935552, 0.0018704212, 0.1205739677, -0.0669639334, 0.0979068875, -0.0442622863, -0.0139063355, 0.0804094896, 0.0047672070, -0.0197302345, 0.0630021691, 0.1965137571, 0.2647767961, -0.2854239047, 0.0521171093, 0.1596600562, 0.1385200918, 0.1698520333, -0.0798163265, 0.1816707850, 0.1282560229, 0.0419358723, 0.0004150719, -0.0813728198, 0.2454108894, 0.0602891929, -0.0957015157, 0.0209470391, 0.0038057598, 0.0927622095, 0.2495102584, 0.1265632212, -0.0385253169, 0.3050336242, -0.0589955784, -0.0025187384, 0.1398333609, 0.0025302861, 0.2353465259, 0.0809649676, -0.0555666983, 0.0254182275, 0.0357310995, 0.0415629782, 0.1825996637, 0.1362190098, 0.0586013608, -0.0121335210, 0.0189356357, -0.0034044336, -0.0908635929, 0.0312733389, 0.2387158275, -0.0642500892, 0.1459691674, 0.0276238956, -0.0874618143, 0.0740503967, -0.0039377548, 0.2251051217, -0.0439890362, 0.0422569476, -0.1671232730, 0.1049554348, 0.0078638773, 0.2394736558, 0.0834665895, 0.0621325858, 0.1678946465, 0.1111963242, 0.1740669906, 0.1511546522, 0.1203488931, -0.0075829364, 0.1007686555, -0.0746568590, 0.0741088763, 0.0729339570, -0.0733533353, -0.0300517529, 0.1035258695, -0.1107958630, -0.0780599564, 0.1277776510, -0.0417723134, 0.1307074577, 0.0509697646, -0.0998334959, 0.2530530691, -0.0656349882, 0.2104357481, 0.0995820090, -0.0878535807, 0.2115306854, 0.0059050461, 0.1753860265, 0.1165412888, 0.0641804785, 0.2316690087, 0.0077823629, -0.1329837441, 0.0026381291, 0.2080727220, 0.0076712877, -0.0503700264, 0.0254232138, 0.0941740945, 0.0843535885, -0.0245006084, 0.3120138049, 0.0490255244, 0.2034154385, -0.0184839759, 0.1439992785, 0.0625193343, 0.0450861268, -0.2163021117, 0.5038293004, 0.0739305988, -0.0163852684, 0.0560812131, -0.0662712678, -0.0229798537, -0.1237082928, 0.3378008306, 0.1378425360, 0.0920393169, -0.0344086215, -0.1370663792, 0.4821123779, 0.1316464543, 0.0909326151, -0.1062403172, 0.1959677786, -0.1061156020, -0.0198599119, -0.1664432734, -0.1149219722, 0.0888420790, 0.0668230057, 0.2219235897, -0.0426545478, 0.0801347718, 0.1999606043, -0.1435576379, -0.0383671336, 0.1820519716, 0.1259572804, 0.2932195365, -0.0574299358, -0.1573548317, 0.0585990511, 0.2975624502, 0.0289446954, 0.0440704599, -0.0135887312, 0.0970638841, -0.0805276707, -0.2610949874, 0.2565225363, -0.2070099562, -0.0821785703, 0.4495098591, -0.0042543346, 0.0478458256, 0.0933266059, 0.2195085585, 0.1067648306, -0.0511930324, 0.0728791952, -0.0917416811, 0.0522106476, -0.0528104231, 0.1626695246, 0.0591234155, 0.1962728053, -0.0736410916, -0.0818443149, 0.1542319953, 0.0345540904, 0.0777417421, 0.0394710861, -0.1874918044, 0.0931138769, 0.0836969912, 0.0533706583, 0.0567062795, 0.2171904296, -0.1051874161, 0.2084982544, 0.1042232588, -0.1859863847, -0.0921867788, 0.0670548007, -0.0555852577, 0.1850561798, 0.0837340429, 0.0481872410, 0.1027617380, -0.1278366596, -0.1252238452, -0.0784098506, 0.0393300280, -0.1706100255, 0.0439143926, 0.1453994513, 0.1837933660, -0.0463268310, -0.0910706446, 0.1304705590, 0.0034573544, -0.0939716399, 0.2151760608, -0.2005024999, -0.0655688122, -0.1827793121, 0.0754564404, 0.2459268719, 0.0901386812, 0.0441717096, 0.0095951064, 0.0299080610, -0.3508028090, 0.1491089016, -0.0689550117, 0.0292768590, -0.2597705126, -0.0768297017, -0.1776410490, 0.4574922621, 0.1858592927, -0.1144640371, -0.0351907238, 0.1691052318, -0.0192702394, -0.0500965156, 0.0006370993, 0.0293955747, 0.0219126306, -0.1088650003, 0.0313707888, -0.1318747848, 0.0134321097, 0.0125567932, 0.1077217534, -0.1533082575, -0.0710092187, -0.0727935582, 0.2856410742, 0.0447935127, -0.0552070104, -0.0130422609, 0.1238171607, -0.0174044929, -0.1991303116, 0.0732331499, 0.0754711181, -0.1735743433, 0.0066441228, 0.0379290991, -0.0163129531, -0.1055563465, 0.0555862300, -0.0177324861, 0.0348688327, 0.0544465706, -0.0710303709, -0.0702253059, -0.0571787693, 0.0469734930, -0.0838443041, 0.0436032638, 0.1344687641, 0.1428021044, -0.0968526676, -0.0362464488, -0.0352542698, -0.0172721241, -0.0906758308, -0.0979517773, 0.0756007954, 0.1200846359, -0.1155408695, -0.1404185295, 0.1225609481, 0.0240212176, 0.0904814005, -0.1917120963, -0.0355947725, -0.0278878361, -0.1066247374, -0.0856165662, -0.1234287769, 0.1166163534, 0.2843494713, 0.0060512004, 0.1659835428, -0.0934971347, 0.1196394563, -0.0185345355, -0.0661099553, -0.0079996316, 0.0471975878, -0.0714084134, 0.0071102674, 0.2669529319, 0.1454304159, 0.0856207535, 0.3387257457, 0.0396331958, -0.1458006799, 0.1669759303, -0.1080744341, 0.1590306610, 0.2250470817, 0.1422876269, -0.0136478236, 0.0706764534, 0.2607052624, 0.1155247241, 0.2218332887, 0.0580034144, -0.1568206102, 0.3022311926, 0.2717238963, -0.0050471378, 0.0728831291, 0.0891094729, 0.1822687387, 0.0879880041, 0.0389606878, -0.0172649994, 0.1501222551, 0.0428993702, 0.0588023104, -0.0918406695, 0.0747657269, 0.4444944859, 0.1494637579, -0.0435398147, -0.0231067967, 0.0325366631, 0.2959953845, 0.1080013439, 0.1262052953, 0.3688910306, 0.1215687171, 0.1122357771, 0.1886502951, -0.0362094343, -0.0528821200, 0.1800332218, 0.0766739175, 0.1702293605, 0.1441374123, 0.0978369042, -0.1485686898, 0.0730241612, 0.2605372369, 0.0817443207, 0.0907354206, -0.1462762356, 0.0393006764, 0.0001464900, -0.1170847118, -0.0583123378, -0.0544318892, 0.0757218078, 0.2115174979, 0.1149968505, 0.1538951844, -0.0445573479, -0.1307073534, 0.0569508709, 0.3548490107, 0.0048780562, 0.0344373435, 0.1652103364, 0.0233957656, 0.1495315433, 0.0707088113, 0.0292125288, 0.2496734709, 0.0926863849, 0.0601426139, 0.0850257501, 0.0429810844, 0.3525936604, -0.1155431867, 0.2043259442, 0.1296474785, -0.0882687271, -0.0420641303, 0.0308955684, 0.1209314093, 0.6397485137};
#endif

#endif
