//Numpy array shape [512]
//Min -0.917105674744
//Max 0.759766817093
//Number of zeros 0

#ifndef B28_H_
#define B28_H_

#ifndef __SYNTHESIS__
model_default_t b28[512];
#else
model_default_t b28[512] = {0.2132787257, 0.2323298007, 0.0157151520, -0.0067014717, 0.2540977597, -0.1001496539, -0.0836583301, 0.2024811506, -0.1428487003, 0.0177087430, -0.2127442658, -0.0257271100, -0.1415372044, 0.1144693345, 0.0601538382, 0.3761039376, -0.3725195527, 0.1400263757, -0.0437423550, -0.1545622200, 0.1702935249, 0.0488189682, -0.2266340107, 0.0206878632, -0.1390440017, 0.2943465114, 0.0069717793, -0.0919279605, 0.1695446521, -0.3452432752, 0.2246399522, 0.2493773997, 0.0109288786, 0.2592937648, 0.3072765172, -0.0785489976, -0.0198504012, 0.3290282786, -0.1720076948, -0.0832872316, 0.4122830331, 0.4270570278, -0.0006696400, -0.0190807786, 0.0199608058, 0.1339820325, 0.0611348823, -0.1534673423, -0.4025073946, -0.0518702641, 0.2819497883, -0.0098101459, 0.0308913160, 0.0616866648, -0.1525349766, 0.3534460366, 0.2127232552, -0.5659623742, 0.2133220583, 0.0333331265, 0.2184988707, -0.0364092626, 0.0626419559, 0.2639427185, 0.0676808506, 0.1760651469, 0.1324559599, 0.0809534490, 0.4209709764, 0.2454470098, 0.0940517634, 0.2620302737, 0.2078590393, -0.1268955469, -0.0772396773, 0.0601348840, -0.0477694571, 0.0682831630, 0.0012195653, 0.1366796046, 0.2720980048, 0.0363185108, 0.3453171253, 0.1091044545, 0.1365388483, 0.1743708104, -0.5806891918, -0.1291611940, -0.2647342682, 0.7228230238, 0.0551068932, 0.0682976171, -0.0205691177, 0.0675572380, -0.1181066111, 0.1661485285, 0.2650657892, -0.1408385783, -0.1139260530, -0.7647716999, 0.2434440851, -0.0557120815, -0.2556246519, 0.3856100738, -0.0144879567, 0.1633640528, 0.0100237662, 0.3973233402, -0.7045567036, -0.2195560336, 0.2096205652, 0.2835767865, 0.0642748699, 0.0393527038, 0.0081322398, -0.1379960477, 0.0931574106, 0.0641047806, 0.0902974159, -0.4223952293, -0.0466141850, 0.2099216282, 0.2698647678, 0.1753646135, 0.3928059340, 0.0261148997, 0.3431842625, -0.1366809756, 0.0766678825, -0.0767129511, 0.1390004009, -0.0638619214, 0.0751705691, 0.1813277900, -0.0702414438, -0.0187789407, -0.0380455293, 0.1475794762, 0.0184434429, -0.0512089878, 0.2016632110, -0.0726428106, 0.1550124288, 0.1106630340, -0.1656159014, 0.0240110960, 0.4799170494, 0.2099586725, 0.0497291982, 0.2681398690, 0.1828507334, 0.3034641743, -0.0491772629, 0.0132150194, 0.2091240734, 0.1076727584, 0.2453961819, 0.0834394395, 0.0805274025, 0.0764415264, 0.0856247693, 0.0049643936, 0.1253983229, 0.2490678281, 0.1947239637, 0.0458731391, -0.0888940915, 0.4207439721, -0.0821111277, -0.1454996914, 0.2785974443, -0.0363252424, 0.2062349617, 0.2286930978, 0.0099588679, -0.1102019250, -0.0974908993, -0.3035044372, 0.0926612690, -0.0210227557, 0.2595728636, 0.0711193904, 0.2110679746, 0.1629747748, 0.1627646536, -0.0478741825, 0.0458417088, 0.0380256511, 0.1258227080, 0.3203094006, -0.0358499885, 0.2673192620, -0.6529184580, 0.2481017411, 0.1163098738, 0.0564715303, 0.2231807560, -0.0833447203, 0.1395517737, 0.0574671514, 0.1918904632, -0.0039931368, 0.3110733032, -0.0277877524, 0.2168522328, -0.1263955235, 0.3492848277, 0.0758803263, 0.4140466750, -0.0306704771, 0.0285062250, 0.1910490096, 0.1579772234, 0.0005552826, -0.1606414467, 0.1957944930, 0.2219989449, -0.0828020796, -0.0321320929, 0.0723793432, -0.1766883880, 0.2451789081, 0.0043202117, -0.1537206471, 0.0639710426, -0.3812820911, 0.7597668171, 0.0965218022, 0.0392138250, 0.0085756667, 0.1830553710, 0.0334058814, -0.2647582889, 0.2184915394, -0.0121293664, 0.1674650460, 0.2706986964, -0.1490334272, 0.0186509117, -0.0334587023, -0.0718312711, 0.0357771628, -0.1692878753, 0.2230124027, -0.1974492818, -0.1289488673, -0.0315834507, 0.0638716891, 0.1088701040, 0.1733444333, 0.1987100989, 0.0436336957, 0.2620336711, -0.1008031219, 0.5246107578, 0.1701465547, 0.1071290001, -0.3672834635, 0.0268015917, -0.6595641375, 0.1461052597, 0.0275709815, -0.1885189265, 0.1208015010, -0.1324010491, 0.4117849469, 0.0212306082, 0.0702527463, -0.2837874591, 0.0773022547, 0.0201812275, 0.1665174961, 0.4793137014, 0.3429176807, -0.0334198438, -0.3415617645, 0.1758156121, -0.3590874672, 0.0610887222, -0.0492576547, 0.1544418782, -0.0728115290, 0.3675737381, 0.0898908004, -0.2224844545, 0.0581515320, 0.1306732148, -0.2242789716, -0.0572047308, -0.1621130109, 0.1302462518, 0.1027661711, 0.1650477052, 0.3651906848, 0.1187291145, 0.0738752782, -0.0202514175, -0.0572904348, -0.2320237011, -0.3109605908, -0.1282028109, 0.2237970233, 0.0558057018, 0.1120053604, -0.0344750062, -0.3899805844, 0.3460000753, -0.3053519428, 0.0916355625, -0.1462306678, -0.0639387146, -0.1097595468, -0.0487965085, -0.1367957592, 0.0192397572, 0.2093458176, 0.2119680941, 0.3745135665, -0.0497587882, 0.1394239515, -0.0247978363, -0.0722238719, 0.1842891425, 0.1368963122, -0.1909478158, 0.1068124473, -0.0078253094, -0.0660004541, 0.3470460474, 0.0981120840, 0.4307945967, 0.0101599535, -0.1265422106, 0.1182086840, -0.5225699544, 0.0763861686, 0.0494845808, 0.4333817959, 0.0663721487, 0.2667920887, -0.0535082147, -0.3333286941, 0.1384702623, 0.4623557627, 0.2120026052, 0.0470723026, 0.1553680003, 0.1089183614, 0.0687757283, 0.2725343704, 0.1449020803, -0.0168686491, 0.0786768943, 0.0282390267, 0.3115065396, -0.4586743116, -0.0039836923, 0.1146714389, 0.0340675823, 0.0954895765, -0.3786788285, 0.0772286505, 0.1184626147, -0.0306991097, -0.1630622745, 0.0627826527, 0.1626922786, 0.1101489589, 0.2500428259, 0.1925646365, -0.0329279825, 0.0873595774, 0.0585996322, 0.0435281582, -0.0502812490, -0.1855234951, -0.0836205706, -0.0067740977, 0.1485944986, 0.1302106231, 0.2623260319, -0.0287208073, 0.0324752778, -0.0098707974, 0.0752181709, 0.1085912660, 0.0458415896, 0.0627836958, 0.1521847099, -0.0074337637, 0.1084955931, 0.2776324451, 0.0119359670, 0.0136060016, 0.2087177485, 0.0405857526, 0.2607128620, 0.4024747908, 0.2105429471, 0.4151318967, 0.0740829855, 0.0992712453, -0.1698651165, -0.0831194893, -0.7565994263, 0.2823422849, -0.0054506920, 0.3203604817, -0.1061961204, -0.0531354211, 0.0509625748, -0.0374190547, 0.0899988338, 0.2252241671, -0.4027668536, -0.0426091775, 0.2099279165, 0.1288055480, -0.2684435248, -0.0069153327, 0.3419326544, 0.1399366409, 0.3620539308, 0.0915973783, 0.2090247720, -0.1564702690, 0.1466547996, -0.2164158672, -0.0132667748, 0.1498639435, -0.0107473610, -0.0658824146, -0.1972336471, -0.2014059424, -0.0277925264, -0.1500601470, 0.0942247361, 0.2048532665, 0.0435391963, 0.1783990413, 0.1833437830, -0.1226969585, 0.2044140399, 0.2908468544, 0.1216193587, -0.1946429908, 0.0286005214, 0.5319515467, -0.2703896463, -0.1513904035, -0.0047924034, 0.2290932387, -0.2532388270, -0.0402558781, 0.1504394561, -0.0431613736, 0.0937732160, 0.4891191721, 0.0358660631, -0.0456337705, -0.0063374904, 0.0882187635, 0.2080252916, 0.4158551395, 0.1725317091, 0.1023348421, 0.3624235690, 0.0970884785, -0.4275293946, -0.7444543839, -0.2867564857, 0.2415792644, 0.2557216883, 0.2333421111, 0.3723181486, -0.0591950044, -0.9171056747, 0.2302801162, -0.1024542227, -0.1574116796, 0.0025790301, 0.0325026102, 0.1922523379, -0.0996460691, 0.1064428911, 0.1075843945, -0.0443986133, -0.4052579999, -0.1852247268, 0.1793049723, -0.3319594562, -0.0142133012, 0.1395636350, 0.2798285186, 0.1242861077, 0.1886255890, 0.3030913770, 0.2973134220, 0.0322930291, 0.0605367683, 0.1703704149, 0.2860714197, 0.1005136147, 0.0652797073, 0.3569455147, 0.0058571887, -0.1530818194, -0.0108499629, -0.4603464007, 0.1643612087, 0.2351722568, -0.1767248809};
#endif

#endif
