//Numpy array shape [512]
//Min -0.500367462635
//Max 9.431552886963
//Number of zeros 0

#ifndef B30_H_
#define B30_H_

#ifndef __SYNTHESIS__
model_default_t b30[512];
#else
model_default_t b30[512] = {0.1883785725, -0.5003674626, 0.5422233939, 0.2464609593, 0.1540703028, -0.2360671759, -0.0117649809, 0.0357512347, 0.0758338273, 0.1634763777, -0.1347781122, -0.0840371996, 0.2509660423, -0.1674752533, -0.0282782689, 0.4049356282, 0.0492739901, 0.3430145681, -0.2482260168, -0.0852851495, 0.1148719341, -0.0083420454, -0.0797333941, 0.2089467943, 0.2292554528, -0.3571152091, 0.3545692563, 0.0494823381, 0.2677643895, 0.1167721599, 0.2480771095, 0.1907698512, 0.2271980792, 0.2073268741, 0.4333896637, -0.2141672820, 0.4275820255, 0.0285164490, -0.1011032686, -0.1165915057, 0.0157484300, -0.1924461871, 0.5093837380, -0.1011409387, -0.1705030203, 0.1821097583, 0.0656641722, 0.1489480436, -0.0334800705, 0.2342676967, 0.1175216809, -0.1116475612, 0.1672745347, -0.2182295024, -0.0126343705, 0.6511940360, 0.4338283837, 0.0546606928, 0.2515516877, 0.2219854891, 0.0207218826, -0.2589662969, 0.1325071305, 0.1474518925, -0.1494919956, -0.0245121513, -0.0019305148, 0.0355903581, -0.2870728970, 0.2041538656, 0.0573086739, 0.1294631809, 0.1232480034, -0.1903782040, -0.0525708608, -0.0820820853, 0.7679992318, 0.2170651108, 0.0436754115, -0.0661685169, 0.1552273482, 0.6226187944, 0.1981745511, 0.1351265311, 0.1287622005, -0.0485090315, 0.4696578979, 0.0486439429, 0.3532578349, 0.5425479412, -0.2094461769, 0.1353472471, 0.1246331036, 0.2245113254, -0.1939877570, -0.0169384852, 0.0060134633, 0.2046494931, -0.0349047594, 0.3082541823, 0.2749991715, 0.6064084172, 0.1308858246, -0.0784191936, 0.2307020128, 0.0621092655, 0.1070520803, -0.2470264882, 0.3119568229, 0.2791064978, 0.2183708847, 0.1030571088, 0.0574263111, 1.9489978552, -0.0907675177, 0.0079969820, 0.1577249318, 0.6456137896, 0.1954349279, 0.6700317264, -0.1178976670, 0.2085166276, 0.1355486661, 0.5054791570, 0.2277264297, -0.0285992660, 0.0731752664, 0.2163176984, 0.1047560498, 0.0073447269, -0.0985700116, -0.0209823661, -0.1195560619, 0.4822134078, 0.0229107309, 0.0789495856, 0.1669050753, 0.2032517195, 0.2191205621, 0.3176760077, 0.0023841569, 0.0004653173, 0.0553632751, 0.2638435960, -0.2688679993, -0.0639354065, 0.3141086996, -0.1044660881, 0.2155315876, 0.2692922652, 0.0063108550, 0.0211812276, 0.0303376783, 0.1342547685, 0.1787785590, 9.4315528870, 0.2756868601, 0.1317388862, 0.1869767308, 0.0858496577, 0.1495598555, -0.2001361847, -0.3027537763, 0.6990551949, 0.1032921746, 0.0593839027, 0.6860808134, -0.1759990156, 0.1970021278, 0.2174210846, 0.1002372950, 0.2004532218, 0.5194023252, 0.3032520115, 0.1087593883, 0.2520964742, 0.0980204344, 0.0067929979, 0.0411590002, 0.3559825122, 0.0982239395, -0.1271339655, 0.0589193106, -0.0211274922, -0.0946500301, 0.3234391809, 0.5331900120, 0.2812052667, -0.0700195059, 0.0450011939, 0.0585235953, -0.0272989403, 0.1233304292, 0.1570470482, 0.0630159453, -0.1797391772, 0.1682117432, -0.0227243900, 0.1421327144, 0.2762794495, 0.0404965654, -0.1990547776, 0.3658436835, 0.0273112729, -0.1313768774, 0.0932270288, -0.0760697424, 0.0193399116, 0.0018501543, 0.0415253565, 0.0256592147, -0.0657611638, 0.0376626439, 0.2722113431, 0.1402915865, 0.3341242075, -0.0418526232, -0.0958744287, 0.2747069895, -0.1555968225, 0.0364604779, -0.1320141107, 0.0134014981, -0.0487616658, 0.1061567217, 0.5363265276, 0.3729831874, 0.0338566378, -0.0860288590, 0.7987880111, -0.1823367774, 0.1640085429, 0.1881490052, 0.1576511264, 0.0860020444, 0.0055389507, 0.0204019845, 0.3665509522, 0.1500181109, 0.0682196319, 0.1263013482, 0.2674378455, 0.1322302073, 0.0647044480, 0.2426511347, 0.0722966492, 0.1256698072, -0.0693451017, 0.4697048068, 0.1468407959, 0.1520753950, 0.0108058611, 0.0078973491, -0.0183315612, 1.0296751261, 0.2864640355, 0.2720898390, 0.0299726725, 0.1122745275, 0.3488369584, -0.0620776117, 0.2179912031, 0.4287388325, -0.0416037142, 0.3663771451, 0.1080468819, -0.0255869627, -0.4002242684, -0.2407792211, 0.7191399932, -0.0051583503, 0.4654805660, 0.1192879155, -0.1209543347, 0.2404794991, 0.4274168015, 0.5599323511, 0.1261390299, -0.1148259118, 0.1221760884, 0.0295618027, -0.0713887066, 0.2867940068, 0.2460851222, 0.1813278943, 0.3129490912, -0.0933331028, 0.0011692635, -0.2633166015, 0.3583263159, 0.1627276242, 0.3764398992, 0.3910906911, 0.1100056767, 0.1112924665, 0.0207414851, 0.1149946228, 0.0628707856, 0.5341258645, -0.2116111666, 0.0591500774, -0.1586474925, -0.0037855317, 0.0352953747, -0.0205919351, 0.1538264751, 0.1204510704, 0.1262418181, -0.0620619431, -0.0144232456, -0.1476473659, -0.1829205751, 0.2087171078, 0.3319470882, -0.0880439430, 1.5585657358, 0.2220049798, 0.2324469537, 0.0567621551, 0.3974739909, 0.5033890009, -0.1440247595, 0.1919210255, -0.1383109689, -0.0064408015, 0.3397450149, 0.4690984488, 0.0228332952, 0.6560733318, 0.2451106608, -0.1681418419, 0.0719269738, -0.1225201264, -0.2348326147, 0.1966096610, 0.0865012854, 0.1280998737, -0.0901192203, 0.4890995920, -0.1348103285, 0.1065687835, 0.1270981431, 0.4385801554, 0.4559010565, 0.0461729169, 0.1653774977, 0.3574215472, 0.0974082127, -0.2312823385, 0.0846065506, 0.2897602320, -0.0988961682, 0.9013789296, 0.2524021268, -0.2156888098, -0.0559736192, -0.1138187423, -0.0061341166, -0.1340014935, 0.1611428857, -0.0480620004, 0.1386472434, -0.0301776342, 0.1839778125, -0.1180165932, 0.3891790807, 0.0613915585, 0.1588849425, 0.0589057468, 0.5196121931, 0.1239538491, 0.5555816293, 0.5013902187, -0.0379978642, -0.1412572861, 0.0703621209, -0.1731307656, 0.3503975272, -0.1346286386, -0.0230107084, 0.0594515465, 0.3114396632, 0.4392456710, -0.0834068432, 0.0080546830, 0.0824325830, -0.0642216429, 0.1734511107, 0.0977575108, -0.0948499516, 0.6003302932, -0.2856979370, 0.6630276442, 0.2289008349, -0.0550854504, 0.1968109310, 0.1310784817, 0.1166777387, 0.2734585106, -0.1608943194, 0.0154009443, 0.1656773984, 0.4017373621, 0.1946776062, -0.3404343724, 0.4657046199, -0.0272638332, 0.0978857726, 0.3008657396, 0.0831336603, 0.0652762055, 0.1934043318, 0.0439618938, 0.1978531778, 0.6203033328, -0.0247850232, 0.0316133723, 0.4272232056, -0.1786437631, 0.0227603521, 0.1018794626, -0.1771664023, -0.0912419409, 0.0685135424, 0.2091634125, 0.2126875818, 0.2601867914, -0.0192657262, 0.1862713844, 0.0868155286, -0.1649359167, -0.0673513263, 0.3510103226, 0.0794189423, 0.3475674987, -0.3273533881, 0.2284388989, 0.0191672705, 0.4349331856, 0.0234846137, 0.5020538568, 2.8719811440, 0.0034560901, -0.0342143588, 0.3523403108, 0.4583148658, -0.1965091377, -0.1235678717, 0.1771328300, 0.0633585453, -0.0021554632, 0.3330199420, -0.0546362288, 0.1946589351, 0.2319575548, -0.1942478865, 0.0714528114, 0.0419912785, 0.3277153373, -0.1105572060, -0.1079558805, 0.1316381246, 0.2468993068, 0.0072107683, 0.2776551545, -0.1571949273, 0.0624649376, -0.0013286081, -0.0157012362, 0.2074369937, -0.0096160732, -0.0407151505, 0.3305492401, -0.0571658760, 0.5704873204, -0.1035811007, -0.1792806983, 0.3290451169, 0.0574648529, -0.0848884210, 0.1713126600, -0.0571665429, 0.3827792704, 0.2491971999, -0.1675882638, -0.0542712435, 0.4650589228, -0.3148515821, 0.3387735486, -0.1197729185, 0.0756180510, 0.2710762918, 0.1290125251, 0.1419967860, 0.3303769827, 0.2096724659, 0.2746945024, 0.1873275042, 0.2140841484, 0.1219776943, 0.5930843949, 0.0213688929, 0.8090279698, 0.3094041944, 0.3441525400, 0.1662184149, 0.1361551285, 0.2333735824, 0.0080040582, 0.1033283845, 0.6381871104, -0.0265396535};
#endif

#endif
