//Numpy array shape [3, 3, 64, 64]
//Min -0.215612933040
//Max 0.289170950651
//Number of zeros 0

#ifndef W4_H_
#define W4_H_

#ifndef __SYNTHESIS__
model_default_t w4[36864];
#else
model_default_t w4[36864] = {0.1662192792, 0.0094694523, 0.0632681847, 0.0563914515, 0.0254130159, -0.0070635728, -0.0101104053, -0.0339640863, -0.0129090454, -0.0404661298, 0.1823504418, 0.0212063137, 0.0025230080, 0.0116676372, -0.1077232957, -0.0079549942, 0.0084115891, 0.0755173266, -0.0141225271, -0.0147386650, 0.0884431228, 0.1349517554, 0.0014737332, -0.0847873315, 0.0147278272, 0.0266093463, -0.0803122595, 0.0044439752, -0.0981148630, 0.0244757123, -0.0379478112, 0.0488558821, 0.0062689544, 0.0348057300, -0.0078068664, -0.0561772287, 0.0024802389, -0.0621497668, 0.0369076766, -0.0069153928, 0.0128197419, -0.0167176221, -0.0132067641, 0.0161321983, 0.0406617261, -0.0809782743, 0.0275355354, -0.0881441757, 0.0378868952, -0.0581339449, -0.0058024218, 0.1186823249, -0.0372750908, -0.0838046670, -0.0310610104, -0.0378969796, -0.0482330099, 0.0275184587, -0.0504607521, 0.0117233004, -0.0664120466, 0.0034749098, 0.0597234145, 0.1334596723, 0.2120079994, -0.0026217522, 0.0227197763, 0.1545028389, -0.0594327040, -0.0017517639, 0.0236774050, 0.0159239378, -0.0084789926, -0.0187774058, 0.0486643203, -0.0264090914, -0.0094545912, -0.0089175245, -0.0079349922, 0.0252727047, 0.0094344458, 0.0501108579, 0.0126245739, -0.0007364132, 0.0840035230, 0.1311528981, 0.0042368323, -0.0542405136, 0.0116940150, 0.0120204845, -0.0054174131, -0.0237677377, -0.0103005162, 0.0103042526, -0.0520161279, 0.0454428978, -0.0011171608, -0.0258496702, -0.0971928462, -0.0690776259, 0.0087243617, -0.1145729721, 0.0549717136, 0.0210173316, -0.0187854338, 0.0914302617, -0.0378762223, 0.0993276164, 0.0048651677, 0.0019881106, -0.0390312597, -0.0664546192, 0.0594635010, -0.0203592069, -0.0088807382, 0.1799259931, 0.0026398604, -0.0692973807, 0.0243143775, -0.0359122939, -0.0132428436, 0.0997987464, -0.0984229445, 0.0017915092, -0.0680851042, -0.0027030432, -0.0320506282, 0.0168114193, -0.0059169871, -0.0039376756, -0.0307008922, -0.0067608785, -0.0329515263, -0.0010912853, -0.0006978560, 0.0287518390, 0.0012091753, 0.0155240232, -0.0893492103, -0.0270572565, -0.0041528037, -0.0247033667, 0.0893534422, 0.0115247294, 0.0057433951, -0.0241462756, 0.0023754318, 0.0067702672, -0.0342454650, -0.0263538212, 0.0020009039, 0.0695271567, -0.0123921139, 0.0081325732, 0.0223397594, -0.0141141117, 0.1121348143, -0.0160945076, 0.0477616712, 0.0295409579, 0.0033408026, -0.0306098387, -0.0200577863, 0.0792779550, 0.0089114690, 0.0599590987, -0.0149150146, 0.0127692427, -0.0186319184, 0.0088842520, -0.0021511924, -0.0112657314, -0.0341023579, 0.0661024526, -0.0413655676, 0.1147349179, -0.0150512997, 0.0536645949, -0.0074752523, 0.0028474482, 0.0259229094, 0.0487647802, 0.0029523245, 0.0229036827, 0.0444674119, 0.0150401862, 0.0474884398, 0.0014391732, 0.0802358314, 0.0058333259, -0.0780934095, -0.0782641992, 0.1992025226, -0.0013865662, 0.0214257818, 0.1229711995, -0.0547303595, -0.0060738586, 0.0282450113, 0.0178720001, -0.0100529762, -0.0302565731, 0.0466411076, -0.0269221216, -0.0120244622, -0.0078237224, -0.0338842608, 0.0223868247, 0.0085597048, 0.0468115136, 0.0050380882, -0.0010073986, 0.0717797056, 0.1291317493, 0.0021025231, -0.0831768662, 0.0130814258, 0.0132817021, -0.0319572948, -0.0247496087, -0.0128852008, 0.0081093842, -0.0723885074, 0.0430925637, -0.0058137439, -0.0200666897, -0.0977355912, -0.0916656032, 0.0045415494, -0.1255275905, 0.0510434657, 0.0101044374, -0.0177241769, 0.0681223273, -0.0367740355, 0.0804873034, 0.0080835782, 0.0118773533, -0.0350835025, -0.1099594831, 0.0755565166, -0.0212888680, -0.0106983567, 0.2025337517, -0.0023077605, -0.0984196663, 0.0203786399, -0.0417265110, -0.0098530296, 0.1089843735, -0.1130688041, 0.0033198686, -0.0918991491, -0.0147800148, -0.0139283072, 0.0255671684, -0.0259410664, -0.0047829030, -0.0381173752, -0.0087917857, -0.0650863945, -0.0003269317, 0.0173421111, 0.0272264834, 0.0034484649, 0.0335844755, -0.1286769956, -0.0495324433, -0.0112463804, -0.0198512282, 0.1521241069, 0.0145693943, 0.0111241536, -0.0337055139, 0.0165890250, 0.0125645567, -0.0413954183, -0.0436861627, 0.0028092898, 0.0824999809, -0.0134082129, 0.0097495774, 0.0709455311, -0.0275048818, 0.1449114531, -0.0273050219, 0.0267151836, 0.0435195491, -0.0076942611, -0.0422385186, -0.0554354414, 0.0674584582, 0.0073527386, 0.0094677219, -0.0253958758, 0.0192871615, -0.0271763094, 0.0236759186, -0.0181293692, -0.0126472022, -0.0419585146, 0.0697175860, -0.0589910485, 0.1200387403, -0.0177702978, 0.0451281294, -0.0096991109, -0.0127883367, 0.0317849331, 0.0610251799, 0.0416579582, 0.0221514106, 0.0519282185, 0.0231493488, 0.0153502850, 0.0022929567, 0.0764830485, -0.0179932006, -0.0891536921, -0.1000210792, -0.0984916389, 0.0047053350, -0.0228894763, -0.1127581075, 0.0092149908, -0.0061961762, -0.0186090749, -0.0445592068, -0.0036873179, 0.0391145982, -0.0777616873, -0.0094793504, 0.0071882010, 0.0059654661, 0.0637119189, -0.0296429321, 0.0001657658, -0.0332454331, -0.0163497254, 0.0024703292, -0.0860042572, -0.0923553407, -0.0051471703, 0.1270656586, -0.0169869568, 0.0142849153, 0.0328736119, 0.0071952520, 0.0198531989, -0.0254687890, 0.1257199347, 0.0202142783, 0.0072260895, 0.0211209878, 0.1243585199, 0.1805232614, 0.0045839250, 0.2206364721, -0.0588074811, -0.0120615317, 0.0127964243, -0.1125081107, -0.0015822211, -0.1194840819, -0.0168351177, -0.0665751174, 0.0194373503, 0.2218881100, -0.0518086627, -0.0031424779, -0.0029052200, -0.1070882082, -0.0151007753, 0.1208284050, -0.0092300642, 0.0450746454, 0.0051714922, -0.0715686530, 0.1271898896, 0.0090982858, 0.1553791463, 0.0000293276, -0.0045611868, -0.0379626676, -0.0111585744, -0.0061458382, -0.0100106997, 0.0032520646, -0.0641968772, -0.0144096669, 0.0181711521, -0.0055530518, -0.0058453414, 0.0255451631, -0.1056400910, -0.0470808595, -0.0050151758, -0.0046286532, 0.0689989775, 0.0002937574, 0.0072955219, -0.0220441800, 0.0065379464, 0.0121908141, -0.0365156084, -0.0327255800, -0.0068678861, 0.0296593625, -0.0089398138, 0.0097672110, 0.0645317286, -0.0175678097, 0.0524813421, -0.0146478368, 0.0227510873, 0.0340144522, -0.0030285786, -0.0104916766, -0.0048342301, 0.0495224334, 0.0015603915, 0.0197998658, -0.0264833756, 0.0137918601, -0.0109142596, -0.0019389779, -0.0317076109, -0.0072510927, -0.0153128123, 0.0020139578, -0.0228229277, 0.0653849617, -0.0037886021, -0.0176748354, -0.0097302934, -0.0095025012, 0.0020577081, 0.0348670967, 0.0371480472, 0.0046332609, 0.0093026282, 0.0084067686, 0.0070154360, 0.0073999399, 0.0514970943, -0.0168860350, -0.0134146223, -0.0288858525, -0.1021142825, 0.0026534977, -0.0150703192, -0.0877562910, 0.0527812541, -0.0109761320, -0.0388991870, -0.0053581079, -0.0028496496, 0.0215596408, -0.0605341680, 0.0172577035, 0.0085413242, -0.0151491910, 0.0109426305, -0.0307953656, 0.0079260161, -0.0348978154, -0.0111564361, 0.0031979242, -0.0840908214, -0.0912144631, -0.0075397454, 0.1086457223, -0.0222434029, 0.0169102233, -0.0154880388, 0.0094055180, 0.0605588295, -0.0209440775, 0.1047427058, 0.0166188944, 0.0068834964, 0.0096027181, 0.0696921200, 0.1951613128, 0.0017534477, 0.1286561340, -0.0514400601, -0.0095532155, 0.0030580135, -0.0574736744, 0.0432897694, -0.0774297193, -0.0223846380, 0.0208922420, 0.0005694438, 0.1762173325, -0.0860093683, 0.0390609093, -0.0032578204, -0.1360416710, -0.0040976815, 0.1262193620, -0.0425370298, 0.0473510511, 0.0262455493, -0.0923290700, 0.1954865009, 0.0112779001, 0.1818148941, -0.0054378924, -0.0221891310, -0.0261166841, 0.0273401570, 0.0094838180, 0.0373495184, -0.0364448838, 0.0562404543, -0.0212488566, -0.0342819355, -0.0322817005, -0.0158958528, -0.0092455931, 0.1186949462, 0.0385480784, 0.0214374457, 0.0016366892, -0.0792797953, -0.0341188833, 0.0051054661, 0.0315182991, -0.0227446780, -0.0108429054, -0.0175047461, 0.0099211605, -0.0081763957, -0.0017721654, -0.0017316110, 0.0231371652, -0.0674109310, 0.0226277970, -0.0648998395, 0.0027139937, 0.0220223479, 0.0216437411, -0.0013238470, 0.0286881737, 0.0450843051, 0.0401065759, -0.0026393707, 0.0418661796, -0.0045359922, -0.0307272822, 0.0182526652, -0.0682011545, 0.0084367013, -0.0496008135, 0.0176732987, -0.0723038092, 0.0279048625, 0.0084248949, -0.0301994085, -0.0254092161, -0.0010332869, -0.0382277966, -0.0329723954, 0.0004995522, -0.0530544370, 0.0005914961, -0.0313606374, -0.0662954003, 0.0503152572, 0.0193058904, 0.0219668914, -0.0260413792, 0.0267488584, 0.0798859298, 0.1427018195, 0.0038747732, 0.0212877709, 0.1674534976, 0.0081728203, 0.0412618779, 0.0406195708, 0.0384410471, -0.0022790404, 0.0094128521, 0.0682290196, 0.0175412986, -0.0062490092, 0.0123933870, 0.0557420217, 0.0330141485, -0.0081578456, 0.0348920859, 0.0222636387, 0.0068242960, 0.0932201073, 0.1076818258, 0.0201524589, 0.0067721861, 0.0133328643, 0.0082843490, 0.0556161292, -0.0101282774, 0.0607726686, 0.0014608842, -0.0064441958, 0.0291096345, 0.0272670463, 0.0034166689, -0.0064592375, -0.0023225800, 0.0310971234, -0.0163801759, 0.0528468862, 0.0647598207, -0.0035767716, 0.1059118584, 0.0171017740, 0.1223487556, 0.0173608530, 0.0853703395, -0.0050815940, 0.0070309457, 0.0549263358, 0.0423429161, 0.0059353253, 0.1618194133, 0.0149816852, -0.0102731055, 0.0559146591, -0.0075295330, 0.0187676121, 0.1033501029, -0.0221863277, -0.0017683677, -0.0172606390, 0.0847019628, 0.0497663505, 0.0495484173, 0.0210127644, 0.0074209417, -0.0107841045, 0.0429641865, -0.0000390433, 0.0372995287, -0.0119972378, 0.0468101688, 0.0010288639, 0.0058919806, 0.0036478881, 0.0120226108, 0.0020477099, -0.0153082721, 0.0324416459, 0.0215021111, -0.0036810287, -0.0077913958, 0.0144879445, 0.0067460588, 0.0009596443, 0.0017507672, 0.0182719938, 0.0258245487, -0.0088061169, 0.0092291599, -0.0046764361, -0.0028691634, 0.0884160995, -0.0062774816, 0.0044812891, 0.0212516356, 0.0245874096, -0.0120497197, -0.0107146362, 0.0244095419, 0.0302010458, -0.0128592486, 0.0169742927, 0.0415671840, -0.0097197723, 0.0764138252, 0.0199842881, 0.0586355440, -0.0213297587, 0.1034513712, -0.0238719471, 0.0320385806, -0.0318350755, 0.0656457469, 0.0088629406, -0.0203612018, 0.0256724283, 0.0126800351, -0.0103785219, 0.0042974027, 0.0323248021, -0.0008252669, -0.0152952010, 0.0033286016, -0.0075225476, 0.0741161704, -0.0240584910, -0.0233167298, -0.0226223674, 0.0090739764, -0.0109781921, -0.0148047665, -0.0047226902, 0.0205700547, -0.0167915504, 0.0237497669, -0.0003810276, 0.0070460723, -0.0237178113, 0.0076989164, 0.0153917558, -0.0067876368, 0.0148902507, 0.0046850592, 0.0020671526, -0.0157587565, 0.0059246719, 0.0023355323, -0.0272207148, -0.0295143127, 0.0128367990, 0.0235389564, -0.0087467553, 0.0110305184, -0.0102681760, 0.0093127266, 0.0588172600, -0.0048661567, 0.0123239467, 0.0171074886, 0.0088820178, -0.0033199259, 0.0006806205, 0.0312964618, 0.0189135019, -0.0017586586, -0.0018690800, 0.0118065784, 0.0009578410, 0.0235050097, 0.0109662395, 0.0023943076, -0.0175939184, 0.0565126725, -0.0085378867, 0.0392655395, -0.0420331880, 0.0445549674, 0.0092931259, -0.0648193359, 0.0163574163, 0.0216177683, -0.0165607128, 0.0074017821, 0.0224416833, -0.0260545425, -0.0167796817, 0.0129983490, -0.0086854352, 0.0296198055, -0.0195693132, -0.0247034207, 0.0503257252, 0.0045229774, 0.0017978279, 0.0492895097, -0.0219810028, 0.0409558006, 0.0374616161, 0.0036592388, 0.0011297137, 0.0276511777, -0.0257899798, -0.0155213578, -0.0026558538, 0.0109981345, 0.1007695124, 0.0204357635, -0.0035542094, -0.0027645279, 0.0228341855, 0.0157089029, 0.0183157027, 0.0068085394, 0.0182127636, 0.0362029597, 0.0059693907, 0.0075403410, 0.0790071338, -0.0090102870, 0.0582204387, -0.0134287914, 0.0073744315, 0.0230433159, 0.0266965032, -0.0076175407, -0.0163967144, 0.0313361585, 0.0320399553, -0.0181825534, -0.0032581075, 0.0644686818, -0.0053564771, 0.0218637213, -0.0117463134, 0.0266131535, 0.0004655572, 0.0168315507, -0.0151096769, 0.0512977764, 0.0317285024, 0.0128983269, 0.0076795178, 0.0708455145, 0.0071720220, 0.0237022284, 0.0601019114, 0.0062519764, 0.0092909522, 0.0735643283, -0.0146384416, 0.0019820745, -0.0010561113, 0.0777616128, 0.0169547591, 0.0070222933, -0.0497468375, 0.0104173329, -0.0185197107, -0.0864603668, -0.0234154146, 0.0350711495, -0.0308626611, -0.0149009433, 0.0015511564, 0.0152670266, -0.0532421879, -0.0124665471, 0.0099515775, -0.0121942917, 0.0345420726, -0.0035727054, -0.0004844781, -0.0270723682, 0.0080087632, 0.0101999575, -0.0604808778, -0.0802467987, 0.0150426384, 0.0513857044, -0.0139682302, 0.0099187233, -0.0217364635, 0.0070107030, 0.0398327820, -0.0142478896, 0.0277406685, 0.0136882737, 0.0281250719, -0.0129269073, -0.0107226633, 0.0688143075, 0.0297414195, -0.0016127907, -0.0362269245, 0.0318327285, -0.0023727461, -0.0435089692, -0.0147530735, -0.0636363626, -0.0270239990, -0.0208906382, -0.0191582963, 0.0817931443, -0.0628609434, 0.0105413795, 0.0124161188, -0.1139948368, 0.0011734023, 0.0445780903, -0.0299598221, 0.0183920320, 0.0044763191, -0.0532690957, -0.0054863561, 0.0088551324, 0.0144500928, 0.0717700496, -0.0469055325, -0.0355393849, -0.0577464141, 0.0118583711, -0.0077541247, -0.0974306241, -0.0306969080, 0.0168717541, -0.0313609950, -0.0291012544, -0.0005918992, 0.0075463448, -0.0634084120, -0.0139800599, 0.0237005241, -0.0047176252, -0.0008055207, -0.0140423011, 0.0064502275, -0.0201784633, 0.0035491744, 0.0019472571, -0.0606505834, -0.0801525936, 0.0115757510, 0.0267517269, -0.0074975821, 0.0126765817, -0.0360208824, 0.0174787715, 0.0095417183, -0.0044869017, 0.0095325215, 0.0126014436, 0.0068076826, -0.0096912300, -0.0227605794, 0.0425313599, 0.0172738004, -0.0313805118, -0.0374561585, 0.0026477680, 0.0067467811, -0.0605440028, -0.0229091328, -0.0805416405, -0.0139932064, -0.0486584418, -0.0062774611, 0.0352782533, -0.0550667048, -0.0032098494, 0.0123887323, -0.1143049374, -0.0062215165, 0.0274058636, -0.0341627672, 0.0135905808, -0.0032597119, -0.0588101372, -0.0275113937, 0.0190904513, -0.0084148571, 0.0162800644, -0.0388334878, -0.0182646457, -0.0041553914, 0.0048542246, -0.0015997419, -0.0028349706, -0.0102245891, 0.0274651162, 0.0191629250, -0.0103437454, 0.0007804020, 0.0224692021, -0.0478485860, -0.0090178382, 0.0082009966, 0.0072947443, 0.0632458404, 0.0031149108, 0.0015088838, -0.0179363806, 0.0149780158, 0.0132290795, -0.0170199387, -0.0357400030, 0.0116331931, 0.0302622616, 0.0000792173, 0.0079471087, 0.0553581342, 0.0027617356, 0.0333996527, -0.0134313144, 0.0141930012, 0.0194094423, 0.0196131896, -0.0063140932, -0.0118839312, 0.0448103175, 0.0229557492, -0.0167891625, -0.0245238319, 0.0423168987, 0.0009141366, -0.0129415412, -0.0051837536, -0.0163735859, -0.0032418317, -0.0068206037, -0.0079951966, 0.0534173325, -0.0004017756, 0.0067678406, 0.0091691101, -0.0037901523, -0.0006174185, 0.0319169648, 0.0346601270, 0.0087666903, 0.0030531466, 0.0248220917, -0.0030569746, 0.0091926157, 0.0022802979, 0.0518255346, 0.0063218581, -0.0042242389, -0.0526558608, 0.0104075735, -0.0128871305, -0.0815515518, -0.0103941029, 0.0201840103, -0.0343603194, -0.0193137135, -0.0007308617, 0.0076463060, -0.0295210816, 0.0027074788, 0.0198105965, -0.0118378624, -0.0045858421, -0.0123449108, 0.0044878949, -0.0235535558, 0.0018572885, 0.0036874895, -0.0588016510, -0.0727435052, 0.0097997868, 0.0209485255, -0.0127715478, 0.0100061633, -0.0344557241, 0.0168866143, -0.0005813317, -0.0057031801, 0.0161102042, 0.0110276649, 0.0144514767, -0.0128014451, -0.0175841376, 0.0399134755, 0.0191148389, -0.0166254491, -0.0294659063, 0.0069751209, 0.0026854391, -0.0464015268, -0.0136792716, -0.0648023039, -0.0246255044, -0.0382207073, -0.0138038024, 0.0456981510, -0.0697198585, -0.0001979481, 0.0124774724, -0.1264538616, -0.0074812435, 0.0207514390, -0.0356866978, 0.0088042831, -0.0091221631, -0.0653008744, -0.0256896317, 0.0159175415, -0.0154082077, 0.0335888155, -0.0492077954, -0.0350148268, -0.0354428887, 0.0112858564, -0.0079382183, -0.0634960309, -0.0246183071, 0.0045561292, -0.0255814157, -0.0160813928, -0.0003106596, 0.0080104340, -0.0414669923, -0.0042908015, 0.0309492312, -0.0054815472, -0.0078120930, -0.0126541564, 0.0120437322, -0.0101542836, 0.0017136560, -0.0027569495, -0.0404465087, -0.0512573645, 0.0089885853, 0.0191545822, -0.0043391683, 0.0132388379, -0.0312263705, 0.0204805415, -0.0018345308, 0.0033208113, 0.0053554745, 0.0106196702, -0.0107278172, -0.0151470611, -0.0327642635, 0.0230318382, 0.0081143752, -0.0326632373, -0.0183027051, -0.0147310579, 0.0058779479, -0.0335462801, -0.0180539191, -0.0518558659, -0.0145758213, -0.0320609882, -0.0096171377, 0.0245953314, -0.0469825789, 0.0032149160, 0.0115119778, -0.0934683755, -0.0051938519, 0.0180274323, -0.0274538528, 0.0136364205, -0.0025999825, -0.0498866066, -0.0325781517, 0.0251485202, -0.0131768361, -0.0253635142, -0.0473727398, -0.0287372041, -0.0040211328, 0.0508365929, -0.0163465310, 0.0140824430, -0.0059517282, 0.1241655648, -0.0040750080, -0.0181556717, 0.0570559800, 0.0404618271, -0.0091360835, -0.0100151002, -0.0127771460, 0.0244626477, -0.0130576985, 0.0689990073, -0.0064849178, -0.0138938986, 0.0954152197, -0.0152232507, 0.0631951466, -0.0106496317, 0.0784272328, 0.0483397469, 0.0055622216, 0.0020265330, -0.0024349859, -0.0070361756, -0.0066875056, -0.0223640334, 0.0040239706, -0.0451523028, -0.0323566385, 0.0148516390, 0.0036501312, 0.0097957039, 0.0289810859, 0.0178668052, 0.0106757246, 0.0338562988, -0.0109885419, 0.0423885398, 0.0014250027, -0.0129865026, -0.0045003877, -0.0006718813, -0.0154114626, 0.0113532143, -0.0232799929, 0.0513131544, 0.0146005182, 0.0047055380, 0.0111747188, -0.0221290644, 0.0262346976, 0.0059999721, 0.0221042931, 0.0581360161, 0.0097989356, -0.0275590178, 0.0069197277, -0.0407223180, -0.0032311874, -0.0178808011, -0.0147626130, 0.0674030930, -0.0131095545, -0.0056797341, -0.0242235493, 0.1431456506, -0.0057648816, -0.0267322026, 0.0572491921, 0.0535427518, -0.0167844389, -0.0189222600, -0.0120377392, 0.0321177170, -0.0083944248, 0.0697379559, -0.0076153711, -0.0151684275, 0.1030333638, -0.0173295736, 0.0642734319, -0.0215611029, 0.0981098562, 0.0499180891, 0.0065560397, 0.0155077092, -0.0003315514, -0.0085448185, -0.0098716607, -0.0280481391, -0.0080591068, -0.0353698581, -0.0314826556, 0.0198120549, -0.0016090173, -0.0122744767, 0.0443631746, -0.0045322129, 0.0115656052, 0.0427724458, -0.0110900486, 0.0464183725, -0.0082522305, -0.0271959994, -0.0048522283, -0.0159806162, -0.0126850121, -0.0026215632, -0.0288141146, 0.0660616010, 0.0226460826, -0.0107612815, 0.0088914102, -0.0268139187, 0.0285594296, 0.0073920288, 0.0168763548, 0.0513162762, -0.0157301184, -0.0301147122, -0.0096023511, -0.0332262330, -0.0045239786, -0.0140886130, 0.0048812847, 0.0536517277, -0.0036909645, 0.0003978643, -0.0256360192, 0.1265884936, 0.0000161234, -0.0242224596, 0.0532149561, 0.0456377603, -0.0058427821, -0.0181956105, -0.0119510517, 0.0319169797, -0.0035879109, 0.0621653907, -0.0085919201, -0.0050412626, 0.0923861563, -0.0181240421, 0.0540627390, -0.0096471114, 0.0814557895, 0.0512898713, 0.0070065628, 0.0033472534, 0.0046441704, -0.0062575759, 0.0002465278, -0.0272426922, -0.0015897994, -0.0459113270, -0.0310947411, 0.0314301327, 0.0228419378, -0.0050796755, 0.0341638401, 0.0107495310, 0.0092019606, 0.0318194963, -0.0056375214, 0.0418104306, -0.0043981560, -0.0178888552, 0.0052442304, -0.0092137624, 0.0002674105, 0.0078897290, -0.0134707429, 0.0560688190, 0.0194709916, 0.0052694078, 0.0115840826, -0.0179090351, 0.0287614558, 0.0067852144, 0.0192402676, 0.0455222614, -0.0144032612, -0.0272383131, -0.0039293189, -0.0356571227, 0.0214814320, 0.0136250593, -0.0193236247, 0.0665066689, -0.0176792312, -0.0013088321, -0.0019345280, 0.1418703794, -0.0032104377, -0.0212507453, 0.0614051409, 0.0619830526, -0.0168688614, -0.0110071683, -0.0140380794, 0.0393609367, -0.0108061321, 0.0671012774, -0.0005673835, -0.0173643120, 0.1035863459, -0.0112813227, 0.0588295832, -0.0223870538, 0.0962513909, 0.0555750430, 0.0083420603, 0.0165274106, -0.0111009357, -0.0077380817, -0.0153749483, -0.0256408341, 0.0023370914, -0.0320861228, -0.0274590440, 0.0138349924, -0.0058479263, 0.0004061552, 0.0411120467, 0.0025492082, -0.0005286656, 0.0446780734, -0.0144726709, 0.0262995400, -0.0040930435, -0.0226918291, -0.0036198208, -0.0126274377, -0.0262726583, -0.0027532447, -0.0311807115, 0.0493099727, 0.0199932866, -0.0116665270, 0.0082635190, -0.0330369994, 0.0363442004, 0.0109264860, 0.0174233522, 0.0605274513, 0.0004319100, -0.0296716969, -0.0016573423, -0.0267065037, -0.0120282415, -0.0282986648, -0.0242083799, 0.0831823424, -0.0143900532, -0.0154179372, -0.0191288516, 0.1610677987, -0.0073411781, -0.0269549787, 0.0613491908, 0.0745800436, -0.0233145822, -0.0183999985, -0.0135953529, 0.0475681126, -0.0130807012, 0.0675546899, -0.0014453686, -0.0164852999, 0.1119506881, -0.0149355726, 0.0626968369, -0.0270977207, 0.1160752028, 0.0635752678, 0.0102289068, 0.0292776600, -0.0168883260, -0.0092348196, -0.0171473734, -0.0295702983, -0.0124207828, -0.0217168089, -0.0267352685, 0.0170773696, -0.0144030014, -0.0228169858, 0.0564304441, -0.0245046150, 0.0024445900, 0.0529987514, -0.0134007111, 0.0368216000, -0.0100297211, -0.0309325084, -0.0036654936, -0.0244824272, -0.0228893943, -0.0165975504, -0.0347441062, 0.0688879043, 0.0280878358, -0.0228911936, 0.0063227890, -0.0390880927, 0.0324453302, 0.0148312794, 0.0155521538, 0.0540584698, -0.0247458518, -0.0323689915, -0.0199817643, -0.0199375115, -0.0137380632, -0.0246136412, -0.0044988943, 0.0685855076, -0.0098688696, -0.0102384919, -0.0246612355, 0.1429247260, -0.0048936713, -0.0253182780, 0.0567294843, 0.0597785749, -0.0103730047, -0.0198855828, -0.0134924892, 0.0383888073, -0.0090368809, 0.0622373670, -0.0024140165, -0.0084159244, 0.1006567255, -0.0158678517, 0.0528374687, -0.0148261506, 0.0985165760, 0.0563470349, 0.0084695406, 0.0168108474, -0.0145275351, -0.0082123224, -0.0120423334, -0.0287204497, -0.0102450354, -0.0325756781, -0.0279648416, 0.0217560306, -0.0004995650, -0.0185586940, 0.0458578467, -0.0156665277, 0.0032637732, 0.0422658920, -0.0105020748, 0.0390433334, -0.0101574948, -0.0233920831, -0.0001788663, -0.0190471672, -0.0136213452, -0.0128928125, -0.0230363142, 0.0616564564, 0.0246284120, -0.0052398522, 0.0080889193, -0.0331116803, 0.0262053944, 0.0124245444, 0.0161072221, 0.0462739356, -0.0234896429, -0.0291905850, -0.0122857736, -0.0253228396, -0.0008151015, -0.0072030253, -0.0068311347, 0.0514627509, -0.0114092128, 0.0010010165, 0.0107852761, 0.1217412278, -0.0007359074, -0.0169421285, 0.0608882271, 0.0509960465, 0.0099605881, -0.0046665217, -0.0150240604, 0.0304250419, -0.0051261578, 0.0604377761, 0.0042450684, -0.0098691629, 0.0932716802, -0.0065483414, 0.0421649627, -0.0111417174, 0.0775432438, 0.0509900190, 0.0053494540, 0.0059186439, -0.0086146193, -0.0064517399, -0.0073724282, -0.0208452288, 0.0027460244, -0.0360908657, -0.0259015895, 0.0107355015, -0.0051495587, 0.0007537332, 0.0273644421, -0.0020254604, -0.0040006028, 0.0361247733, -0.0149221569, 0.0193083975, 0.0004371277, -0.0182691198, -0.0037182071, -0.0057645249, -0.0271834191, -0.0039811861, -0.0256132316, 0.0363326110, 0.0136704165, -0.0038993268, 0.0074688871, -0.0319075324, 0.0331674479, 0.0086188111, 0.0165809039, 0.0528711639, 0.0111204237, -0.0270169824, 0.0025848702, -0.0266014934, -0.0073347390, -0.0142897591, -0.0100238100, 0.0673149154, -0.0087784529, -0.0044599553, -0.0130209932, 0.1400208920, -0.0055626580, -0.0216960479, 0.0615209527, 0.0642775446, -0.0115341069, -0.0176360924, -0.0142170768, 0.0395678133, -0.0104029914, 0.0631687641, 0.0041565280, -0.0103955818, 0.1026202440, -0.0096223652, 0.0509576350, -0.0129618971, 0.0966398418, 0.0565851815, 0.0078230128, 0.0183109064, -0.0205776338, -0.0081838761, -0.0071064797, -0.0242415220, -0.0101857623, -0.0253633205, -0.0254752077, 0.0140083944, -0.0149022015, -0.0244214516, 0.0421057604, -0.0264976211, -0.0017481307, 0.0451870076, -0.0150063038, 0.0290642828, -0.0116971442, -0.0204763971, -0.0034633987, -0.0201737471, -0.0288127400, -0.0165642556, -0.0333584286, 0.0424809270, 0.0213402100, -0.0145053091, 0.0084584579, -0.0383985601, 0.0308222659, 0.0107082268, 0.0146195851, 0.0518500544, -0.0215628669, -0.0294578690, -0.0164912902, -0.0211151708, -0.0138867581, -0.0147816772, 0.0011857742, 0.0532916747, -0.0059403940, -0.0037015567, -0.0106875291, 0.1225362644, -0.0030124306, -0.0174560938, 0.0571663752, 0.0530213974, 0.0018664547, -0.0169468932, -0.0136568109, 0.0303253960, -0.0011733184, 0.0580330864, 0.0032301005, -0.0054106014, 0.0917020217, -0.0101406490, 0.0397511125, -0.0061311917, 0.0795169249, 0.0567078404, 0.0054521202, 0.0064351349, -0.0142689673, -0.0064950585, 0.0034933842, -0.0235712621, -0.0055139647, -0.0380170196, -0.0274242535, 0.0176618285, -0.0022971598, -0.0119633842, 0.0315476730, -0.0132954447, -0.0032088968, 0.0354581326, -0.0120953051, 0.0338593349, -0.0064497958, -0.0164767690, -0.0020408509, -0.0081720902, -0.0182890035, -0.0057659429, -0.0232127346, 0.0443713479, 0.0177706536, -0.0043336530, 0.0112746023, -0.0305572748, 0.0250015948, 0.0126230186, 0.0185405258, 0.0421266519, -0.0097136991, -0.0263912790, -0.0035885388, -0.0281382054, -0.0030619868, 0.0006380935, 0.0495180190, 0.0193533413, 0.0116550745, 0.0386608839, 0.0047799740, -0.0475779399, 0.0190569982, 0.0092732832, -0.0387864634, -0.0043414827, 0.0235800687, 0.0442557484, 0.1649949402, 0.0253188293, 0.0097324559, -0.0484265350, -0.0342726223, 0.0326144882, -0.0438949503, -0.0321423858, 0.0061019990, 0.0306165386, -0.0026111468, -0.0206397083, 0.0348502919, 0.0306921434, 0.0192092583, 0.0672065541, 0.0069470447, 0.0068043512, 0.0220160689, -0.0073053548, -0.0006639559, -0.0325949006, 0.0081605799, 0.0160294790, 0.0275901295, 0.0058735600, 0.0532734096, -0.0291460268, 0.0568919703, -0.0069365357, 0.0098029040, 0.0333584063, 0.0377033353, 0.0206902158, 0.0118504064, 0.0171950310, 0.0153090265, 0.0038449774, 0.0619153194, 0.0444462746, -0.0242992509, 0.0162291657, -0.0055419127, 0.0385208987, -0.0192177761, -0.0126007888, -0.0007629440, 0.0517497137, 0.0113833407, 0.0163739622, 0.0115032243, 0.0032500678, 0.0137328496, 0.0197901204, 0.0012090834, 0.0250691865, 0.0039123832, -0.0495527908, 0.0093524354, 0.0142690660, -0.0402673632, -0.0051518828, 0.0027906490, 0.0494645722, 0.1817532778, 0.0163501743, 0.0070413998, -0.0495928824, -0.0349990278, 0.0184243582, -0.0485678427, -0.0339274630, -0.0113668349, 0.0086706011, -0.0033871459, -0.0262482911, 0.0272233337, 0.0353692584, 0.0108131608, 0.0741285086, 0.0189298168, 0.0095570507, 0.0254017040, 0.0004493401, 0.0003376542, -0.0354573727, 0.0023733857, 0.0149658117, 0.0289681889, 0.0008084691, 0.0435760953, -0.0309031270, 0.0559094846, -0.0068723429, 0.0151763717, 0.0314789638, 0.0233026631, 0.0357268639, 0.0088350717, 0.0163600221, 0.0022172127, 0.0153447948, 0.0663260892, 0.0050767525, -0.0297459383, 0.0162529722, -0.0156928804, 0.0516222939, -0.0208806209, -0.0269607101, 0.0018305755, 0.0607462935, 0.0164939612, 0.0188318770, -0.0076842136, -0.0149017023, 0.0113228830, 0.0209455602, 0.0071566910, 0.0036320069, 0.0120650260, -0.0496769957, 0.0115647158, 0.0152344592, -0.0398142487, -0.0059853881, 0.0162301026, 0.0512143709, 0.1747906953, 0.0223062485, 0.0086870566, -0.0436185673, -0.0344275832, 0.0218158960, -0.0433746167, -0.0306496993, -0.0139822606, 0.0060135648, -0.0043506580, -0.0195219051, 0.0266202502, 0.0384563915, 0.0127956383, 0.0709669590, 0.0292786527, 0.0102615999, 0.0327977240, 0.0026218810, 0.0008578702, -0.0307285264, 0.0206747521, 0.0286745634, 0.0268733669, 0.0106638540, 0.0365992785, -0.0284138694, 0.0604392141, -0.0073046759, 0.0230398998, 0.0163104907, 0.0315786004, 0.0448101982, 0.0173730440, 0.0241936781, 0.0123550063, 0.0217994861, 0.0628023818, 0.0058905785, -0.0248591416, 0.0201471448, -0.0135922795, 0.0579939559, -0.0129561424, -0.0256501343, 0.0201333333, 0.0584433042, 0.0326473713, 0.0172963757, 0.0109617515, 0.0038614469, 0.0090213036, 0.0191737991, 0.0142202750, 0.0018131504, -0.0037499457, -0.0500193499, 0.0225862488, -0.0005561341, -0.0423192047, -0.0024176985, -0.0070397290, 0.0413929261, 0.1866053790, 0.0325849988, 0.0064130854, -0.0461164974, -0.0348562077, 0.0230289195, -0.0447075702, -0.0364457630, -0.0128278835, -0.0007626096, -0.0040842802, -0.0276238117, 0.0348029584, 0.0325992592, 0.0280804280, 0.0804822817, -0.0051799682, 0.0118303765, 0.0350582190, -0.0021435381, 0.0015138659, -0.0330464318, 0.0206950996, 0.0205448270, 0.0299607012, 0.0153155969, 0.0304519627, -0.0296288542, 0.0725171939, -0.0279078167, -0.0002174236, 0.0069706729, 0.0451877676, -0.0035508780, 0.0189603493, 0.0215852056, 0.0114279427, -0.0080975248, 0.0679912865, 0.0137608545, -0.0265912134, 0.0194720067, -0.0055557583, 0.0479006693, -0.0245306119, -0.0212037470, 0.0046372176, 0.0647129864, 0.0212234501, 0.0196891278, 0.0189271420, 0.0060405517, -0.0213271007, 0.0204115063, 0.0066282325, -0.0188320260, -0.0052949172, -0.0516230837, 0.0073290379, -0.0030716169, -0.0444075875, -0.0048072520, -0.0185745936, 0.0471668094, 0.2058226764, 0.0230988692, 0.0014844530, -0.0428259186, -0.0355063230, 0.0128210708, -0.0483410247, -0.0381433666, -0.0255908873, -0.0167577416, -0.0051201745, -0.0318121500, 0.0277224220, 0.0387232862, 0.0132256774, 0.0899031162, -0.0006642098, 0.0153165795, 0.0416980758, 0.0045802570, 0.0027414232, -0.0375950672, 0.0142470403, 0.0257159192, 0.0314898938, 0.0112947859, 0.0204857364, -0.0327839442, 0.0747415274, -0.0358911082, 0.0027302580, -0.0042338786, 0.0329440497, -0.0045427787, 0.0149359358, 0.0251818504, -0.0051187230, -0.0041390168, 0.0729334280, -0.0238619223, -0.0325685255, 0.0256364755, -0.0212589614, 0.0630464032, -0.0281189922, -0.0374199003, 0.0080438731, 0.0747686774, 0.0307483505, 0.0221278556, -0.0026600298, -0.0097604338, -0.0032703928, 0.0218549576, 0.0159041099, -0.0151157761, 0.0031969259, -0.0508375131, 0.0069747502, -0.0024325547, -0.0421746708, -0.0080883754, 0.0035567251, 0.0523364767, 0.1978079826, 0.0270343181, -0.0052450718, -0.0382000618, -0.0342856497, 0.0257993788, -0.0420284308, -0.0341331773, -0.0178726818, -0.0043117548, -0.0055095181, -0.0234643854, 0.0297549777, 0.0424331911, 0.0049030781, 0.0853717327, 0.0064814300, 0.0152362119, 0.0444691330, 0.0057420004, 0.0018812013, -0.0324155241, 0.0296984985, 0.0364547595, 0.0301179588, 0.0193273854, 0.0261063091, -0.0288369842, 0.0764463544, -0.0286098085, 0.0118606333, -0.0016331610, 0.0422642976, 0.0064230599, 0.0228097104, 0.0268717445, 0.0062144957, 0.0009086410, 0.0692779198, -0.0064568147, -0.0274546202, 0.0260242186, -0.0217512455, 0.0630542263, -0.0202376712, -0.0320554748, 0.0261326991, 0.0717508271, 0.0434241965, 0.0184268691, 0.0141362259, 0.0116300080, 0.0089416420, 0.0195810124, 0.0131113492, 0.0068929009, 0.0051247170, -0.0465263948, 0.0130218947, 0.0056894370, -0.0415718667, -0.0072112125, 0.0152012194, 0.0560347065, 0.1803999692, 0.0224844851, 0.0030270647, -0.0430201218, -0.0317020081, 0.0265298747, -0.0439375639, -0.0343425795, -0.0131147588, 0.0015679386, -0.0024690698, -0.0287145190, 0.0301412325, 0.0340903997, 0.0176898725, 0.0810770616, -0.0019198215, 0.0154552534, 0.0286479630, 0.0023196419, 0.0037027614, -0.0340764970, 0.0123917349, 0.0128888376, 0.0314631686, 0.0091642980, 0.0380145088, -0.0258437041, 0.0608605966, -0.0231404509, 0.0092417626, 0.0131732225, 0.0361706764, 0.0103946337, 0.0131504778, 0.0146522978, 0.0031247011, -0.0002627899, 0.0653634742, 0.0012561945, -0.0247165393, 0.0116351508, -0.0092255920, 0.0440660603, -0.0245315582, -0.0234237853, 0.0070171906, 0.0658652782, 0.0150531251, 0.0229334682, 0.0086734733, 0.0020600960, -0.0078994874, 0.0211690739, 0.0099964673, -0.0047919494, 0.0021637671, -0.0481917933, 0.0011804025, 0.0016210537, -0.0435011573, -0.0092375875, 0.0105025452, 0.0619712584, 0.1981398463, 0.0175058842, -0.0062228395, -0.0426320173, -0.0320739932, 0.0252713449, -0.0459670313, -0.0358291604, -0.0194290448, -0.0053992188, -0.0036138138, -0.0309710503, 0.0281712301, 0.0403634496, 0.0031696337, 0.0893617049, -0.0065835649, 0.0193392821, 0.0271656960, 0.0095759109, 0.0046586441, -0.0366429351, 0.0066338093, 0.0099207452, 0.0330864601, 0.0015929838, 0.0381927714, -0.0284064244, 0.0637639910, -0.0306483265, 0.0087757846, 0.0096631786, 0.0304689910, 0.0027716861, 0.0106832990, 0.0117992628, -0.0083151869, -0.0034756730, 0.0699081570, -0.0201332793, -0.0297230054, 0.0128578274, -0.0205589980, 0.0494934767, -0.0285141207, -0.0350529663, 0.0040183682, 0.0748068690, 0.0138288261, 0.0246388931, -0.0066390694, -0.0096268449, 0.0207743254, 0.0222233105, 0.0175180286, 0.0060022003, 0.0090973042, -0.0463179722, 0.0037793764, 0.0025526399, -0.0408926122, -0.0169868879, 0.0352750830, 0.0622201189, 0.1869506538, 0.0197498910, -0.0145025598, -0.0427337512, -0.0306389462, 0.0387308300, -0.0427370593, -0.0333762281, -0.0048815156, 0.0130945537, -0.0029210516, -0.0302034542, 0.0315915495, 0.0420976765, -0.0083852326, 0.0813692510, -0.0024668581, 0.0184427481, 0.0195363499, 0.0102241663, 0.0043159802, -0.0316759124, 0.0095371725, 0.0104741668, 0.0332983956, -0.0053927549, 0.0471031666, -0.0239626318, 0.0616128296, -0.0228461791, 0.0157343671, 0.0166187976, 0.0378358960, 0.0128088761, 0.0143760350, -0.0000173548, 0.0060339794, 0.0006073875, 0.0666721538, 0.0089327376, -0.0265627243, 0.0050337729, -0.0227265246, 0.0440056920, -0.0226650517, -0.0256703440, 0.0127984853, 0.0695567429, 0.0151341204, 0.0234378055, 0.0041692886, 0.0087502981, -0.0304937009, 0.0751928315, 0.0222404990, -0.0162189361, -0.0155687742, 0.0544042066, -0.0121429078, -0.0121988663, 0.0191256106, 0.0274846349, -0.0326009579, 0.0032513388, 0.0314038582, 0.0300291162, -0.0334704816, 0.0164343305, 0.0083445534, -0.0035404216, 0.0560491309, -0.0110598132, 0.0173855759, -0.0158567987, 0.0559724942, 0.0289959889, 0.0131856687, 0.1062455922, -0.0405701958, 0.0068651964, -0.0117136175, -0.0188305471, 0.0113619426, 0.1934513152, 0.0024639252, 0.0395691544, 0.0134850731, -0.0050967936, 0.0299906842, 0.0245359056, 0.0040095625, 0.0199182443, 0.0020866496, 0.0075181522, -0.0063494616, -0.0048585949, 0.0088224532, -0.0140474485, -0.0177722797, -0.0226120893, -0.0220659766, 0.0310686156, 0.0272786822, -0.0222499315, -0.0051794476, -0.0237525254, 0.0085655339, 0.0207768902, 0.0046673608, 0.0209088866, 0.0074949572, -0.0042056823, 0.0176152010, 0.0190110542, -0.0010334749, -0.0028706312, -0.0224857349, 0.0759817883, 0.0306255296, -0.0159531832, -0.0320177227, 0.0546661504, -0.0092535205, -0.0147319390, 0.0187308751, 0.0281816591, -0.0401305184, -0.0042297342, 0.0338080414, 0.0378479064, -0.0378147326, 0.0166368019, 0.0087932786, 0.0012375191, 0.0565136373, -0.0132084442, 0.0254295468, -0.0138219567, 0.0579246767, 0.0119336024, 0.0164300743, 0.1063456461, -0.0409498997, 0.0072558527, -0.0166186839, -0.0184825975, -0.0050684055, 0.1922682077, -0.0007085896, 0.0473911650, 0.0152182095, -0.0255826898, 0.0310341883, 0.0074557234, 0.0066589564, 0.0178527907, 0.0029052740, 0.0053219851, -0.0198753066, -0.0021451737, 0.0148131652, -0.0231639408, -0.0164995398, -0.0428683423, -0.0249499660, 0.0126572112, 0.0290550068, -0.0245451834, -0.0049912743, -0.0319472514, 0.0138011836, 0.0118219145, -0.0019900913, 0.0247881208, -0.0300583728, -0.0030836444, -0.0145153627, 0.0120296273, 0.0109309005, 0.0079279281, -0.0290736798, 0.0695017129, 0.0237069242, -0.0220755786, -0.0275752041, 0.0514151603, -0.0124503346, -0.0117964819, 0.0180238411, 0.0258520786, -0.0445520654, -0.0019727182, 0.0308911689, 0.0321065076, -0.0422902592, 0.0149256364, 0.0072826655, -0.0031475492, 0.0535716638, -0.0151577238, 0.0195913985, -0.0196125526, 0.0532620251, 0.0124547817, 0.0128766960, 0.0948183611, -0.0436228439, 0.0071196216, -0.0162209943, -0.0205088090, -0.0028772715, 0.1737793386, -0.0036582681, 0.0413115136, 0.0071962122, -0.0169859231, 0.0266656075, 0.0028083224, 0.0040589413, 0.0110633522, 0.0010665141, 0.0048796861, -0.0173127651, -0.0053770891, 0.0090082018, -0.0188448112, -0.0192623585, -0.0361581184, -0.0317589827, 0.0132091939, 0.0265967343, -0.0398123860, -0.0050954255, -0.0290045552, 0.0092271008, 0.0118386326, -0.0005599752, 0.0167128872, -0.0242019240, -0.0051933648, -0.0119723622, 0.0057157264, 0.0004218589, -0.0011683699, -0.0236477051, 0.0848218426, 0.0350150317, -0.0082602901, -0.0040557995, 0.0569890477, -0.0012237122, -0.0057134754, 0.0187979974, 0.0441205762, -0.0128623322, 0.0086915679, 0.0383552983, 0.0447769873, -0.0101950979, 0.0184205994, 0.0127688544, 0.0005010891, 0.0578175560, -0.0066590700, 0.0178026520, -0.0108835818, 0.0598034896, 0.0492200218, 0.0155939497, 0.1259042919, -0.0025459952, 0.0095558045, 0.0009431937, -0.0149613041, 0.0368257985, 0.2260692716, 0.0080451798, 0.0580544397, 0.0509689823, 0.0192034058, 0.0354970694, 0.0646194592, 0.0058350698, 0.0274290126, 0.0102097625, 0.0154902823, 0.0012444826, 0.0030687351, 0.0198888127, -0.0007957559, -0.0018727467, 0.0132533209, -0.0113625508, 0.0401390903, 0.0314936265, -0.0128330104, -0.0015831793, -0.0072807930, 0.0273958724, 0.0324737318, 0.0085404832, 0.0228547323, 0.0431271531, 0.0030704036, 0.0545937717, 0.0305995550, 0.0296809059, 0.0224503949, -0.0168942083, 0.0864516646, 0.0467784181, -0.0141323404, -0.0256243758, 0.0575942360, 0.0017210807, -0.0137491487, 0.0185142756, 0.0455857329, -0.0230473317, -0.0016443473, 0.0410883911, 0.0557077900, -0.0120718060, 0.0177545547, 0.0124813989, 0.0058502038, 0.0565470196, -0.0081254216, 0.0261884909, -0.0126499562, 0.0619205683, 0.0318404250, 0.0194756258, 0.1267107129, -0.0046957834, 0.0101608336, -0.0112109482, -0.0160318725, 0.0223092660, 0.2231834084, 0.0048364638, 0.0697614178, 0.0655009747, -0.0038009435, 0.0368398279, 0.0583236478, 0.0070129130, 0.0257278755, 0.0118117295, 0.0040200814, -0.0180136189, -0.0013902090, 0.0300727263, -0.0205769036, 0.0021443050, -0.0012814576, -0.0142039219, 0.0128562357, 0.0335148126, -0.0151599115, -0.0036495135, -0.0119608492, 0.0323246792, 0.0215105321, -0.0028206345, 0.0262800977, -0.0036346801, 0.0039682845, 0.0168806165, 0.0233726334, 0.0529147275, 0.0412127189, -0.0285169296, 0.0790756494, 0.0371792540, -0.0188438129, -0.0270701535, 0.0541931130, -0.0051854202, -0.0124239633, 0.0179114994, 0.0412744284, -0.0401586182, -0.0020234229, 0.0373739451, 0.0471815765, -0.0210836139, 0.0162774809, 0.0115528470, -0.0014453001, 0.0552729778, -0.0108821094, 0.0203668922, -0.0218015909, 0.0572933964, 0.0319146775, 0.0155672897, 0.1140560135, -0.0179608539, 0.0093045812, -0.0094924318, -0.0187061355, 0.0163141247, 0.2095524222, 0.0023394998, 0.0579129942, 0.0422599986, -0.0018972076, 0.0322737284, 0.0395441502, 0.0033634801, 0.0176639035, 0.0068121059, 0.0026743750, -0.0173274223, -0.0028626514, 0.0203573611, -0.0184196904, -0.0080477009, -0.0009060513, -0.0297535025, 0.0103772776, 0.0309390128, -0.0386660062, -0.0031381347, -0.0098977070, 0.0242560767, 0.0192092806, -0.0018056826, 0.0180923324, -0.0124141611, 0.0017750175, 0.0059412136, 0.0181780439, 0.0339427255, 0.0223794561, 0.0200122595, 0.0840539783, 0.0383110903, 0.0231944229, 0.0366723239, 0.0554177575, -0.0006471784, 0.0085901190, 0.0199099369, 0.0354533158, 0.0706147403, 0.0295355897, 0.0362816416, 0.0312475190, 0.0119531164, 0.0207972936, 0.0210588910, 0.0184681453, 0.0594373345, -0.0032824061, 0.0384673849, 0.0111265508, 0.0574274212, 0.0450375788, 0.0145688513, 0.1300360560, -0.0010400204, 0.0103333825, 0.0185536686, -0.0116297910, 0.0170774385, 0.2322726101, 0.0119847097, 0.0405089296, 0.0165599231, 0.0080674142, 0.0343036316, 0.0277575906, 0.0278467368, 0.0313600823, 0.0063745603, 0.0494043641, 0.0297987480, 0.0278451648, 0.0105534485, 0.0314990506, -0.0127158891, 0.0027277856, -0.0055007157, 0.0599158891, 0.0293447077, -0.0057346965, 0.0028202394, -0.0074996073, 0.0233311485, 0.0282115489, 0.0171620101, 0.0293999519, 0.0597981848, 0.0032119551, 0.0388073288, 0.0392796248, 0.0031049217, 0.0159747899, 0.0424376540, 0.0859469622, 0.0533713140, 0.0147986999, 0.0164027289, 0.0556637198, 0.0016748053, 0.0024763639, 0.0184403788, 0.0360973254, 0.0776894018, 0.0222049691, 0.0397103354, 0.0439633168, 0.0085929558, 0.0194375962, 0.0197025854, 0.0288067516, 0.0565871112, -0.0052429033, 0.0500274450, 0.0123502510, 0.0590226986, 0.0266539697, 0.0197975766, 0.1311219782, -0.0064641717, 0.0124748638, 0.0007967204, -0.0129653951, 0.0064080358, 0.2282616794, 0.0096956501, 0.0563538373, 0.0325113311, -0.0083823446, 0.0355890840, 0.0252816416, 0.0326033756, 0.0289658830, 0.0089981901, 0.0354543179, 0.0081831124, 0.0211017411, 0.0233059507, 0.0094923032, -0.0061028623, -0.0074019227, -0.0064201527, 0.0315145105, 0.0315651000, -0.0010588877, -0.0003132202, -0.0118043562, 0.0267996565, 0.0175998323, 0.0029694517, 0.0351864807, 0.0206623524, 0.0036493279, 0.0068104723, 0.0330815054, 0.0267424155, 0.0423598699, 0.0260851160, 0.0783001110, 0.0442498215, 0.0084823743, 0.0019109582, 0.0525207371, -0.0071524968, -0.0016083486, 0.0190423355, 0.0316827856, 0.0407632142, 0.0150168715, 0.0360974781, 0.0360305421, -0.0016498356, 0.0179353915, 0.0185607970, 0.0193146821, 0.0556260310, -0.0077524111, 0.0423592217, -0.0013606630, 0.0547239594, 0.0236638281, 0.0160549730, 0.1190814599, -0.0216209441, 0.0110070333, -0.0038314860, -0.0164771881, 0.0010423186, 0.2160837054, 0.0075745387, 0.0460276604, 0.0145326229, -0.0098397518, 0.0314200930, 0.0102214329, 0.0246364903, 0.0225303452, 0.0034066630, 0.0282238591, -0.0006076294, 0.0142752137, 0.0146035990, 0.0011472518, -0.0165219381, -0.0096741598, -0.0266030133, 0.0195921808, 0.0292581767, -0.0256902855, -0.0013151659, -0.0123026818, 0.0179705378, 0.0129534574, -0.0004739571, 0.0266193040, -0.0001252124, 0.0014345533, -0.0074903565, 0.0286628325, 0.0117272250, 0.0259054173, 0.0433997624, -0.0029222751, 0.0073549729, 0.0120913414, -0.0556450225, 0.0198657326, 0.0619132258, -0.0464568585, 0.0239939932, 0.0208269246, -0.0531396419, -0.0450632200, 0.0110752182, 0.0375130996, 0.0335100479, 0.0277586710, 0.0077933874, 0.0055025886, 0.0075979815, 0.0177773125, 0.0365406871, 0.0370265394, 0.0067014131, -0.0237137675, 0.0145911509, -0.0078306608, 0.1018878892, -0.0080556860, -0.0383840725, 0.0111782281, -0.0079292338, -0.0073014796, 0.0056530889, 0.0301609077, 0.0875068232, -0.0561572909, 0.0034353810, 0.0438377038, 0.0041156164, 0.0068723466, 0.0187384263, -0.0309514888, -0.0333961025, -0.0146234203, 0.0424271412, -0.0430300422, 0.0468167700, -0.0000915591, 0.0849949270, -0.0580337755, 0.0046970239, 0.1423391402, -0.0055709146, -0.0202914830, 0.0743081346, -0.0209329352, -0.0150722545, 0.0928132161, -0.0872321129, 0.0123763736, -0.0607309416, 0.0121449828, 0.1296282411, 0.0606554188, 0.0284189340, -0.0071808351, -0.0248568356, 0.0979632139, 0.0022456436, 0.0353670903, 0.0318124332, 0.0091489786, 0.0273722094, 0.0137068965, -0.0339598693, -0.0111126592, -0.0071725408, 0.0016838792, 0.0577665642, 0.0400780588, 0.0031407140, -0.0138639659, 0.0291966591, 0.0170582756, 0.0464652739, 0.0507917330, 0.0109960288, 0.0253518652, 0.0019405886, -0.0179127958, 0.0605867915, -0.0192184150, 0.0688100606, 0.0012335830, -0.0267295558, -0.0184684321, 0.0086607067, -0.0193059556, -0.0092503121, -0.0122417752, 0.0094173579, -0.0419305339, 0.0162815228, 0.0279392172, -0.0056298864, 0.0572935827, 0.0252084713, 0.0710865185, 0.0020158519, 0.0599482358, -0.0124327112, 0.0056238919, 0.0226146933, 0.0210303050, 0.0009866734, 0.1157353371, 0.0357223153, 0.0132064316, 0.0467397980, -0.0037901769, 0.0360813327, 0.0805697739, -0.0212097783, -0.0041015027, -0.0251025129, 0.0300852228, 0.0300630741, -0.0225310810, 0.0514123663, -0.0060136495, -0.0336928181, 0.1327161193, 0.1082178727, 0.0324265324, -0.0046458291, 0.1066609249, 0.0178852528, -0.0044025434, 0.0894542262, 0.0607537553, -0.0082458956, -0.0291941725, 0.0421688445, 0.0354731232, -0.0036230762, -0.0003162572, 0.0327020623, 0.0049731997, 0.0396447070, 0.0579614714, 0.0083771730, 0.0989886448, -0.0066714026, -0.0166840255, -0.0067565264, -0.0063817510, 0.1892016381, -0.0013818925, 0.0160735659, -0.0170879140, 0.0060556787, -0.0431057364, -0.0383753106, 0.1129196063, 0.0064032194, -0.0293230265, 0.0392194130, 0.0243488923, -0.0161853824, 0.1669520885, 0.1159266829, 0.1331223249, -0.0130165601, 0.2474530339, -0.0409196839, 0.0664085001, -0.0276279375, 0.1559617072, 0.0007014397, 0.0442943051, 0.0719326437, 0.0534197763, -0.0046519847, 0.0429454707, 0.1091318056, 0.0238371491, 0.1482952982, -0.0089138998, 0.1060083210, 0.0290770382, -0.0286052674, -0.0431637429, -0.0648697764, 0.0024048770, 0.0094732279, -0.1231699213, -0.0675126985, 0.0056571676, 0.0549721532, -0.0928516015, 0.0191121604, 0.0104205348, -0.0981538519, -0.0528784059, 0.0252454914, 0.0391748287, -0.0329258852, -0.0018237603, 0.0162595250, -0.0104569634, -0.0034954746, 0.0132719250, -0.0426087454, -0.0744421780, 0.0012921611, -0.0663139001, 0.0132982573, 0.0032108359, 0.0860502198, 0.0076879594, -0.1314366013, 0.0116661713, -0.0111137908, 0.0173826925, 0.0039412491, 0.0408358350, 0.0966109261, -0.0697305575, -0.0017980126, 0.0432936624, -0.0468249358, -0.0113889175, 0.0230670776, -0.1229852811, -0.0502996221, -0.1257509887, 0.0478357710, -0.1207759082, 0.0618234724, -0.0502544008, 0.0760959759, -0.0995002612, 0.0086862119, 0.0118416240, -0.0386097059, -0.0447516926, 0.0608017445, -0.0281330422, -0.0506313518, 0.0230011102, -0.0768303424, 0.0317074135, -0.0554739125, -0.0043690517, 0.1351596713, 0.0689265877, -0.0701226369, -0.0034637260, -0.0070216330, -0.0835664049, -0.0609957129, 0.0255480949, 0.0693212152, -0.0839232057, 0.0274593402, 0.0235465337, -0.1119811311, -0.0517766513, 0.0025240923, 0.0326631479, 0.0357272774, 0.0104116742, 0.0097179515, -0.0248909611, 0.0125496872, 0.0205759220, -0.0291313734, -0.0610717610, 0.0067576854, -0.0258448403, 0.0104699703, -0.0100227920, 0.1317846924, -0.0130097922, -0.0840894431, -0.0039876527, -0.0353194773, 0.0040440457, 0.0149325617, 0.0207117461, 0.0581000559, -0.0808639601, 0.0058701211, -0.0021263117, -0.0480834953, 0.0141612832, 0.0116731413, -0.0969787836, -0.0385094844, -0.0929626077, 0.0334827378, -0.1004269421, 0.0397173092, -0.0217201132, 0.0785514936, -0.0844444856, 0.0041033500, 0.0594238341, -0.0219166167, -0.0162229016, 0.0910958648, -0.0302794650, -0.0384082645, 0.0572367162, -0.0922771171, 0.0124423476, -0.0732485354, 0.0309183560, 0.1299904585, 0.0308904760, -0.0334187970, -0.0064770919, -0.0319747962, 0.0301480200, 0.0022185957, 0.0266920514, 0.0084165148, -0.0005088045, 0.0225191899, 0.0092971278, -0.0630861521, -0.0172724016, -0.0068574576, -0.0177876987, 0.0728980675, 0.0194371678, 0.0040326938, -0.0247868523, 0.0313970111, 0.0165627245, -0.0117138289, -0.0108586308, 0.0062819724, 0.0966863409, -0.0009105566, -0.0150802648, 0.0252323691, -0.0133005306, 0.1184427664, -0.0126178265, -0.0066808872, -0.0002096281, 0.0073324465, -0.0336030349, -0.0336048380, 0.0538165495, 0.0047841854, -0.0378529802, -0.0208377354, 0.0262682699, -0.0142449699, 0.0235166978, 0.0323572718, 0.0217417423, -0.0077059395, 0.0602831542, -0.0285951495, 0.0679110810, -0.0029116697, 0.0390991420, 0.0005893250, 0.0372456796, 0.0362027995, 0.0636509582, 0.0158193428, 0.0260771178, 0.0538505688, 0.0280762967, 0.0399856828, 0.0029058945, 0.0524215139, 0.0227090735, -0.0047008707, -0.0382789038, -0.0519309677, 0.0083491467, 0.0042722300, -0.1009656712, -0.0217917711, -0.0139053790, 0.0214132611, -0.0531079881, 0.0138288280, 0.0059689237, -0.0278387740, -0.0189644322, 0.0446981601, 0.0233178772, -0.0454400070, -0.0080885310, 0.0304706600, -0.0031059200, -0.0090618115, 0.0041971439, -0.0391878560, -0.0573926121, -0.0023204139, -0.0561617203, 0.0083894320, 0.0183429252, 0.0345592536, 0.0267488528, -0.1200943962, 0.0226685908, -0.0062493454, 0.0447241440, -0.0187012814, 0.0153012918, 0.0489993282, -0.0507495031, -0.0118792299, 0.0201759841, -0.0255346131, -0.0383097306, 0.0189626589, -0.0894466415, -0.0304257367, -0.0959203467, 0.0222061295, -0.0868308619, 0.0307403952, -0.0439935699, 0.0193215758, -0.0731086507, 0.0097696725, -0.0358015932, -0.0268416833, -0.0387877971, 0.0231475141, -0.0132494699, -0.0408693627, -0.0073240316, -0.0254331864, 0.0545884036, -0.0280876569, -0.0578271523, 0.0588001683, 0.0239186268, -0.0402289778, 0.0026938969, 0.0137975505, -0.1056124493, -0.0700912997, 0.0020668001, 0.0498341434, -0.0906463936, 0.0185973942, 0.0197330136, -0.0770604461, -0.0546149351, 0.0253394432, 0.0394830033, -0.0228470173, -0.0039919442, 0.0220708158, -0.0027781723, -0.0039437800, 0.0122743547, -0.0349837095, -0.0555343851, -0.0006006160, -0.0550464615, 0.0111425798, 0.0056397715, 0.1017111093, 0.0087986048, -0.1382638216, 0.0100626033, -0.0141779333, 0.0306982845, 0.0005477222, 0.0368042141, 0.0970373973, -0.0818605870, -0.0046049370, 0.0364586785, -0.0361713842, -0.0164951533, 0.0228027087, -0.1098286808, -0.0600204207, -0.1128172427, 0.0425128564, -0.1330741346, 0.0576712377, -0.0329906866, 0.0613202900, -0.1166781560, 0.0070499033, 0.0048807058, -0.0374670178, -0.0362671688, 0.0616436042, -0.0315169394, -0.0593003742, 0.0161470436, -0.0874745324, 0.0368326642, -0.0599386804, -0.0100451224, 0.1311042011, 0.0689456388, -0.0390880443, -0.0032626840, -0.0012039805, -0.0262310691, -0.0456663817, 0.0080855815, 0.0384951457, -0.0497975573, 0.0198040232, 0.0310916863, -0.0969989374, -0.0476485640, 0.0120552704, 0.0168382488, 0.0666242316, 0.0029122930, 0.0159710627, -0.0176511053, 0.0164236426, 0.0177068934, -0.0321654789, -0.0402449928, 0.0005795429, 0.0580508225, 0.0060272440, -0.0035008406, 0.0955716521, -0.0004997184, 0.0098936064, -0.0051450455, 0.0139602572, 0.0208387356, 0.0010058825, 0.0081631169, 0.0564964786, 0.0170802828, -0.0034349575, 0.0301295649, -0.0383171998, 0.0072034397, 0.0079778209, -0.0401649550, -0.0167812183, -0.0415727198, 0.0232787970, -0.0331109725, 0.0242258757, 0.0746578500, 0.0339435488, -0.0398809649, 0.0035938814, 0.0252316725, 0.0005563982, 0.0552895628, 0.0535946861, 0.0096753743, -0.0005916678, 0.0241170973, -0.0031679044, 0.0252007768, 0.0296644792, -0.0033539806, 0.0893063694, 0.0299603529, -0.0635136142, 0.0066166096, -0.0287187807, -0.0260208137, 0.0004663805, 0.0115098376, -0.0249683782, 0.0025471260, 0.0087924963, 0.0110877343, -0.0551845692, -0.0000201436, 0.0217925571, -0.0157072283, 0.0029193205, 0.0026354243, 0.0002311688, -0.0288689230, 0.0095479786, 0.0077122804, -0.0451205857, -0.0419658124, 0.0015198130, 0.0530413277, -0.0137667824, 0.0086841546, -0.0102098119, 0.0126123447, 0.0257895440, 0.0025301292, 0.0450282544, -0.0017035082, 0.0112546133, -0.0127147520, -0.0008686355, 0.0820798799, 0.0124298679, 0.0383615419, -0.0201031789, 0.0135754114, -0.0017768946, -0.0060196496, 0.0156557001, -0.0196687300, -0.0257331878, 0.0338070355, -0.0159582645, 0.0583165139, -0.0538266227, 0.0152474092, 0.0113980118, -0.0729526058, 0.0030338699, 0.0460179001, -0.0238126572, 0.0324638598, 0.0145754758, -0.0409124717, 0.0716648325, 0.0107776159, 0.0846211910, 0.0193956252, -0.0392910764, -0.0464203022, -0.0473284945, 0.0125454003, -0.0048748306, -0.0361933224, 0.0289703589, -0.0020938721, -0.0214747172, -0.0023400558, -0.0000157382, 0.0135583626, -0.0056577786, 0.0189816058, 0.0359648876, -0.0026089230, -0.0068175276, -0.0113757104, 0.0035769353, -0.0124340132, -0.0009438447, -0.0053101773, -0.0397750922, -0.0316881910, -0.0036471076, 0.0575588681, -0.0093824677, 0.0257224180, 0.0000151916, 0.0227454901, 0.0131000960, 0.0006792404, 0.0684483573, 0.0309125986, -0.0023693254, 0.0109510953, 0.0344580710, 0.1068277210, 0.0046114069, 0.0817859173, -0.0118289366, -0.0092849564, 0.0097653382, -0.0227533225, 0.0286585484, -0.0291682202, -0.0109013142, 0.0164643060, 0.0031449771, 0.0832360536, -0.0472773388, 0.0131455027, 0.0127096185, -0.0766475871, -0.0028896707, 0.0605391338, -0.0226405356, 0.0384491272, 0.0065649836, -0.0530953370, 0.1087243184, 0.0267922822, 0.1125782803, -0.0131018488, -0.0157656446, -0.0129292076, 0.0812911242, 0.0159984119, 0.0533318035, -0.0006785161, 0.0362708233, -0.0091273542, 0.0172691364, -0.0068705464, -0.0051531997, 0.0112648671, 0.1118235514, 0.0298469458, 0.0401725322, 0.0411065705, -0.0142726181, -0.0144656859, 0.0016543861, 0.0477144904, -0.0123544056, -0.0151608922, 0.0281278156, 0.0480448790, -0.0069849761, 0.0326403901, 0.0154299224, 0.0316195041, 0.0344266221, 0.0240219552, -0.0213767868, 0.0022567399, 0.0656854510, 0.0320705585, -0.0135882264, 0.0665770769, 0.1120669544, 0.0810438022, -0.0018109535, 0.1233098581, 0.0268556159, -0.0192031749, 0.0317196548, -0.0202907249, 0.0201291535, -0.0123400874, 0.0493350960, -0.0097744521, 0.0561315119, 0.0793471709, 0.0332989320, -0.0152201047, 0.0106308525, 0.0309568513, -0.0158341993, 0.0434386954, 0.0169033930, 0.0244696774, -0.0106653757, -0.0048421803, 0.0790717080, 0.0313222334, 0.0852496698, -0.0362163484, 0.0910410285, 0.1130934507, -0.0941922441, 0.0039881710, -0.0373211205, -0.0278966054, 0.0428891182, 0.0175054539, -0.0399120823, 0.0128153199, 0.0104575520, -0.0298574604, -0.0207266957, 0.0235667210, 0.0152896587, -0.0392850973, -0.0564108603, 0.0023848535, 0.0029682913, -0.0352701284, 0.0106000090, 0.0096348785, -0.0459497310, -0.0570563339, 0.0022261625, -0.0210568551, -0.0149773574, 0.0038075959, -0.0706329420, 0.0159910712, 0.0083295582, 0.0127126519, -0.0190329608, -0.0141702676, 0.0244997758, -0.0361897834, -0.0652124807, 0.0188559741, 0.0162273757, -0.0692919120, -0.0235358626, 0.0202946588, -0.0113999080, 0.0069849370, 0.0515071414, -0.0155310966, -0.0348237008, 0.0651052743, -0.0393035375, -0.0528271757, -0.0635509640, 0.0330793969, 0.0123610850, -0.0887762234, 0.0049881069, -0.0140242036, -0.0576187856, 0.0056558447, 0.0182120856, -0.0547353812, 0.0570615083, 0.0046410128, 0.0182251781, 0.0449853316, -0.0741247684, -0.0702629164, -0.0400245748, 0.0095507754, -0.0192312859, -0.0035473434, 0.0734919235, 0.0053072688, -0.0398916453, 0.0176470391, 0.0019655935, -0.0397069789, 0.0928128362, 0.0497201495, 0.0278035477, -0.0394162312, -0.0782110170, -0.0028806683, 0.0094748558, -0.0069092717, 0.0019982376, -0.0039381976, -0.0170299374, -0.0171155315, -0.0001844568, -0.0500582382, -0.0104359416, 0.0201657452, -0.0669969991, 0.0239093546, -0.0270405356, 0.0147364093, -0.0298249479, 0.0193277989, 0.0113352239, -0.0296266340, -0.0695146322, -0.0093830014, 0.0105939126, -0.0799483582, 0.0108642532, 0.0012359268, -0.0072957207, 0.0230302494, 0.0620546639, 0.0037745575, -0.0317946076, 0.0589002408, -0.0337114334, -0.0747196749, -0.0599792153, 0.0276248232, 0.0134403193, -0.0788499340, -0.0017691756, -0.0300626848, -0.0597464330, -0.0057137962, 0.0017160048, -0.0554800965, 0.0462676436, 0.0202530716, -0.0075501255, 0.0149738453, -0.0734215081, -0.0550890751, 0.1291055828, 0.0121971210, 0.0274916571, 0.0535576828, 0.0441424884, -0.0017116296, -0.0196468066, 0.0175749715, -0.0026823098, -0.0441356860, 0.1797456294, 0.0376441739, 0.0313232169, -0.0132645993, -0.0814774260, 0.0004236478, 0.0090087429, 0.0552296303, -0.0045562335, -0.0111688823, 0.0581567213, 0.0852295607, -0.0024422726, -0.0527357124, 0.0101652257, 0.0260823574, -0.0651389733, 0.0217760131, -0.0369921103, 0.0150183858, -0.0219049379, 0.0245873053, -0.0009999997, 0.0075777215, -0.0265670884, -0.0178845376, 0.0054833372, -0.0489305183, 0.0612617843, -0.0062586097, 0.0047362898, 0.0380500145, 0.0294414684, 0.0322584845, 0.0079153050, 0.0314232744, -0.0016960822, -0.0518873110, 0.0003332040, 0.0047321734, 0.0113150971, 0.0330201276, -0.0059167962, -0.0371639356, -0.0450391658, -0.0114702471, -0.0098160198, -0.0078903036, 0.0005306256, 0.0246699769, -0.0178275779, -0.0097122593, -0.0219201520, 0.0360747688, -0.0370856747, -0.0013896319, -0.0406015664, 0.0372130498, 0.0345764644, 0.0292661674, -0.0357339419, 0.0306025371, 0.0170836281, -0.0350807160, 0.0199495777, 0.0251836181, -0.0001783946, -0.0431884490, -0.0421122201, 0.0180745386, -0.0010304928, -0.0220257286, 0.0173440222, 0.0183624960, -0.0064262971, -0.0078344345, 0.0064939708, -0.0321768373, -0.0122020328, -0.0111626508, -0.0662942231, 0.0047778250, 0.0237173662, 0.0143139046, -0.0433763973, -0.0484162979, 0.0313031003, -0.0450704098, -0.0757379681, -0.0342863277, 0.0219684839, -0.0905894116, 0.0042380304, 0.0354347825, -0.0186461378, 0.0568841174, 0.0443772636, 0.0348164029, -0.0377044007, 0.0868211165, -0.0475831963, -0.0641829371, -0.0519241355, 0.0343620367, 0.0092670619, -0.0442433842, 0.0149776461, -0.0367583670, -0.0520695969, -0.0141996313, 0.0232337844, -0.0204324462, -0.0107189603, -0.0104496069, -0.0445026904, 0.0668205395, -0.0805347636, -0.0733704120, 0.0006999235, 0.0021065781, -0.0336736068, 0.0548876226, 0.0314543061, 0.0205372982, -0.0402613543, 0.0325083099, 0.0111139817, -0.0472115129, 0.0707544535, 0.0269847512, 0.0092629977, -0.0479309782, -0.0723286644, 0.0156915672, 0.0065668002, -0.0069947075, 0.0111770313, 0.0089832963, 0.0089156786, 0.0194170680, 0.0051229713, -0.0666952059, -0.0112173958, 0.0009120587, -0.0724296644, 0.0105167823, -0.0079026725, 0.0166040007, -0.0584492460, -0.0172128323, 0.0232550818, -0.0454315506, -0.0795461833, -0.0703795180, 0.0189148095, -0.1117332429, 0.0298113953, 0.0234169029, -0.0175629314, 0.0717585161, 0.0373570770, 0.0453971066, -0.0403163955, 0.0851520523, -0.0474990271, -0.0934919342, -0.0561294146, 0.0222099088, 0.0105415322, -0.0458433740, 0.0090286257, -0.0610599741, -0.0593841113, -0.0263518952, 0.0096031288, -0.0258722194, -0.0501274951, 0.0029934102, -0.0765906572, 0.0485733524, -0.0810780525, -0.0731083304, 0.0977977142, 0.0043615224, -0.0001085947, 0.0681194216, 0.0110031683, 0.0151795140, -0.0244169906, 0.0261620563, 0.0080350041, -0.0463015810, 0.1095883772, 0.0165191591, 0.0136857526, -0.0300855245, -0.0620684177, 0.0152636338, 0.0066810520, 0.0310160629, 0.0080496874, 0.0042071138, 0.0504023880, 0.0743899718, 0.0030186668, -0.0524436124, 0.0022063071, 0.0064895139, -0.0654758960, 0.0092803603, 0.0037472502, 0.0153218182, -0.0416867323, -0.0118814157, 0.0138437012, -0.0206610300, -0.0521311834, -0.0494854487, 0.0151919015, -0.0832856521, 0.0540971756, 0.0172109660, -0.0087617617, 0.0633216202, 0.0192520767, 0.0444412343, -0.0135655049, 0.0671976134, -0.0250203107, -0.0614966936, -0.0124738552, 0.0138621563, 0.0094698081, 0.0282930434, 0.0061988709, -0.0503200628, -0.0438088886, -0.0183968265, 0.0077939811, 0.0065472820, -0.0487635732, 0.0076253461, -0.0537232161, 0.0283955410, -0.0452717841, -0.0127778230, 0.0177111011, 0.0342235602, 0.0067525250, 0.0138317859, -0.0035056868, -0.0236527547, 0.0074065211, -0.0068049799, -0.0357545726, 0.0062909736, 0.0143899275, 0.0303170867, 0.1059492156, 0.0241009071, -0.0010207969, -0.0279846136, -0.0347041301, 0.0165613275, -0.0347578563, -0.0368435420, 0.0043572653, 0.0065342779, 0.0198549367, -0.0172030684, 0.0246828180, 0.0268031154, 0.0047037927, 0.0238229986, -0.0004659054, -0.0144884791, 0.0206489842, -0.0260763522, -0.0244116988, -0.0290560015, 0.0043107211, 0.0075653042, 0.0340601504, 0.0016890386, 0.0337973088, -0.0058368086, 0.0277281981, -0.0142472750, 0.0090274699, 0.0125153773, 0.0226941239, 0.0108044324, -0.0037600119, 0.0104614766, -0.0058853580, 0.0225484464, 0.0567140691, 0.0084364619, -0.0205443278, -0.0112412032, -0.0112346299, 0.0415602699, -0.0214198846, -0.0193547830, 0.0021681823, 0.0022238744, 0.0099264747, -0.0123215849, 0.0038701927, -0.0067108385, 0.0095339194, 0.0457949415, 0.0094165439, 0.0067261853, -0.0081457244, -0.0135881165, 0.0063473489, -0.0050312881, -0.0354545452, 0.0141005097, 0.0104107689, 0.0306524839, 0.1146812662, 0.0372927524, -0.0024252883, -0.0268289316, -0.0365901925, 0.0197312720, -0.0302917082, -0.0372231714, 0.0102742407, 0.0004784767, 0.0317072496, -0.0171642154, 0.0302936863, 0.0386870429, 0.0010428622, 0.0265562646, -0.0006663873, -0.0167001002, 0.0146761145, -0.0212652218, -0.0236416161, -0.0265313201, 0.0079000238, -0.0021833484, 0.0440711007, -0.0059888097, 0.0399549305, -0.0022200076, 0.0335701443, -0.0096032256, 0.0056064413, 0.0113297235, 0.0294278674, 0.0073856614, -0.0055959732, 0.0030272182, -0.0126681430, 0.0211660340, 0.0645023584, -0.0019899604, -0.0168817844, -0.0101743741, -0.0100339372, 0.0410567038, -0.0197917763, -0.0222700406, -0.0084661953, 0.0015989713, 0.0017296403, -0.0073528388, 0.0011664610, -0.0103167426, 0.0177858844, 0.0348264799, 0.0130487364, 0.0109349117, 0.0032856106, -0.0208017956, 0.0111474898, 0.0042786500, -0.0356422625, 0.0057249526, 0.0203803927, 0.0313243940, 0.1043355465, 0.0339657106, 0.0029225808, -0.0287923664, -0.0353579037, 0.0221292228, -0.0342986882, -0.0364190862, 0.0108270086, 0.0035087324, 0.0210903548, -0.0140208164, 0.0288151056, 0.0277821254, 0.0028746289, 0.0259200167, 0.0137331747, -0.0157434233, 0.0145473247, -0.0264972635, -0.0230143983, -0.0220919922, 0.0128625445, 0.0133346040, 0.0350255817, 0.0004165880, 0.0364931896, -0.0041937809, 0.0318575837, -0.0053280471, 0.0158996154, 0.0156616811, 0.0323258340, 0.0273613576, -0.0023278145, 0.0106948484, -0.0069842697, 0.0192511845, 0.0574063808, 0.0115071880, -0.0113810366, 0.0003312370, -0.0085198572, 0.0366410017, -0.0109835593, -0.0188482795, 0.0135518368, 0.0029878691, 0.0173244718, -0.0096165733, 0.0134472270, 0.0013169850, 0.0032264132, 0.0456066541, 0.0069584977, 0.0057402281, -0.0103494124, -0.0139574120, 0.0137517713, -0.0119100176, -0.0367914177, 0.0154590374, -0.0063071721, 0.0259861238, 0.1129881889, 0.0352475755, 0.0041659973, -0.0288809258, -0.0352873094, 0.0123746945, -0.0312864296, -0.0388550535, 0.0046259123, -0.0032311289, 0.0313684978, -0.0114884814, 0.0293329377, 0.0385384597, 0.0117116449, 0.0221475158, 0.0007688526, -0.0170159172, 0.0230473503, -0.0193372220, -0.0251459423, -0.0264127068, 0.0115811033, 0.0070154034, 0.0438951217, 0.0074489890, 0.0306169912, -0.0005385373, 0.0311309583, -0.0190198235, 0.0043472270, 0.0066083958, 0.0281832498, 0.0023693307, -0.0032328565, 0.0134996185, -0.0044168173, 0.0268402360, 0.0624023527, 0.0105075128, -0.0213199798, -0.0106776636, -0.0040293061, 0.0487080887, -0.0218575392, -0.0137265502, -0.0009864090, 0.0023178188, 0.0106593054, -0.0103027178, 0.0107220253, -0.0070937090, -0.0047584767, 0.0577285998, 0.0097351987, -0.0041760267, -0.0170304924, -0.0029866877, 0.0094186505, -0.0117862355, -0.0365055688, 0.0199663453, -0.0123587931, 0.0230978150, 0.1214788407, 0.0459877253, -0.0040530488, -0.0303686764, -0.0375813879, 0.0154671939, -0.0286789499, -0.0405706801, 0.0138480114, -0.0099012470, 0.0439494848, -0.0138634285, 0.0354771130, 0.0497729927, 0.0018104579, 0.0243160613, -0.0006675929, -0.0197476707, 0.0139449006, -0.0149207506, -0.0237197280, -0.0231174566, 0.0062752236, -0.0020518540, 0.0549764857, -0.0050891261, 0.0385202244, 0.0023087040, 0.0344596617, -0.0195583683, -0.0015324510, 0.0000403183, 0.0340936519, -0.0037178381, -0.0054022959, 0.0021357920, -0.0144562433, 0.0247213282, 0.0704787001, -0.0014863769, -0.0203544982, -0.0090411194, -0.0089675095, 0.0465786606, -0.0225352030, -0.0206670575, -0.0114447055, 0.0014357199, 0.0029460115, -0.0039187153, 0.0042790240, -0.0101453755, 0.0044093137, 0.0459714867, 0.0110910675, 0.0069418550, -0.0060867723, -0.0102359178, 0.0140243554, -0.0018905661, -0.0362446792, 0.0125029422, -0.0039173714, 0.0252076127, 0.1109048948, 0.0405658633, 0.0035208208, -0.0314430110, -0.0363422036, 0.0173414722, -0.0323756374, -0.0397066623, 0.0151202874, -0.0040239980, 0.0332362019, -0.0116297724, 0.0318960063, 0.0383866802, 0.0048807021, 0.0236291867, 0.0187364407, -0.0194749385, 0.0150907496, -0.0201829243, -0.0239403266, -0.0166459866, 0.0148532866, 0.0131785739, 0.0460836701, 0.0054454817, 0.0368016623, 0.0009725125, 0.0308478214, -0.0077897487, 0.0098966071, 0.0109927021, 0.0337872431, 0.0210421756, -0.0006530553, 0.0100039132, -0.0069354740, 0.0270316750, 0.0632958114, 0.0143973576, -0.0160826202, 0.0014023220, -0.0044114352, 0.0436711125, -0.0132662430, -0.0141440146, 0.0072331880, 0.0028951296, 0.0188290291, -0.0075970842, 0.0151912598, 0.0021203661, 0.0041953670, 0.0362327732, 0.0141089251, 0.0049962886, -0.0008313941, -0.0201648381, 0.0168390796, -0.0107103186, -0.0352876671, 0.0082602436, 0.0146305375, 0.0304299258, 0.1059073135, 0.0305627268, 0.0135929761, -0.0295900479, -0.0285600349, 0.0178912096, -0.0330442339, -0.0355059095, -0.0007082481, -0.0067419079, 0.0229039453, -0.0139168473, 0.0270637460, 0.0305021275, 0.0256266557, 0.0245859474, 0.0016086693, -0.0171108507, 0.0240858514, -0.0171182398, -0.0241564531, -0.0260814428, 0.0216315649, 0.0056821443, 0.0352641419, 0.0185037665, 0.0266242027, -0.0030357416, 0.0326286070, -0.0184303392, 0.0074481512, 0.0039961222, 0.0310227219, 0.0052541154, 0.0012190567, 0.0172629301, 0.0016694635, 0.0187218860, 0.0558794625, 0.0037908684, -0.0194280464, -0.0042137126, -0.0018150592, 0.0414802283, -0.0204112586, -0.0167203750, 0.0055621290, 0.0068328856, 0.0108842691, -0.0099511687, 0.0216676518, 0.0049231304, 0.0012305718, 0.0473089740, 0.0147896288, -0.0004022388, -0.0085417163, -0.0101336678, 0.0166210569, -0.0128749767, -0.0358832702, 0.0154501526, 0.0074791908, 0.0239452273, 0.1133856624, 0.0413220674, 0.0138330190, -0.0303338226, -0.0305519421, 0.0196202416, -0.0302166380, -0.0389195047, 0.0128169991, -0.0093874400, 0.0349195153, -0.0123495301, 0.0334013440, 0.0402203314, 0.0202689245, 0.0254124664, 0.0011663865, -0.0197661929, 0.0161916874, -0.0106998822, -0.0239498783, -0.0276893377, 0.0128654893, -0.0003459709, 0.0461923182, 0.0047859838, 0.0338017046, -0.0003001550, 0.0352573767, -0.0155062601, 0.0001174531, -0.0011073184, 0.0347906575, -0.0045108637, -0.0038270680, 0.0133720422, -0.0073510134, 0.0142352814, 0.0630817190, 0.0013899942, -0.0187138952, 0.0002689688, -0.0023508247, 0.0410752967, -0.0217975359, -0.0167010874, -0.0044769342, 0.0061227283, 0.0050552501, -0.0054613631, 0.0108433412, -0.0047389162, 0.0115309320, 0.0360721014, 0.0146795604, 0.0049672052, -0.0015239039, -0.0171839148, 0.0158228874, -0.0054016327, -0.0358241685, 0.0086520044, 0.0160610862, 0.0233207569, 0.1028670222, 0.0346866138, 0.0204144791, -0.0313277133, -0.0292246006, 0.0218376927, -0.0341805555, -0.0384854451, 0.0108305048, -0.0041793329, 0.0246147402, -0.0068952688, 0.0286570787, 0.0289406292, 0.0190369077, 0.0242256448, 0.0184663441, -0.0191151407, 0.0199573617, -0.0165880639, -0.0240105689, -0.0211933367, 0.0207547452, 0.0166143570, 0.0381734930, 0.0153637324, 0.0302941017, -0.0007382972, 0.0307639167, -0.0085388394, 0.0091606099, 0.0064822505, 0.0320033468, 0.0151597084, -0.0005090866, 0.0247013029, -0.0039445665, 0.0158769991, 0.0565731004, 0.0082822787, -0.0166967958, 0.0113094850, -0.0029773563, 0.0422009714, -0.0152149368, -0.0161444154, 0.0136751169, 0.0068135126, 0.0224041995, -0.0081666699, 0.0161691010, 0.0061434545, 0.0009365336, -0.0197865702, 0.0169983935, -0.0153780850, 0.0367848575, -0.0396942459, 0.0142757669, 0.0172506422, -0.0381509587, 0.0184847843, 0.0394989625, 0.0215415265, -0.0327028595, 0.0100883916, 0.0341856405, -0.0283997357, -0.0312974900, 0.0074147149, -0.0323938131, -0.0283517763, -0.0128562367, -0.0031195437, -0.0288494676, 0.0462008864, -0.0050312062, -0.0247295536, 0.0478451885, -0.0104660094, 0.0252657793, -0.0261038616, 0.0489290208, -0.0607454628, -0.0323127359, 0.0221695453, 0.0613984056, 0.0639935434, -0.0379446968, 0.0835902095, -0.0041652704, -0.0357634798, 0.0066746650, -0.0020668129, 0.0288743526, -0.0044171168, 0.0113217430, 0.0387644991, 0.0228611287, 0.0791403800, 0.0113606602, 0.0258468054, -0.0230188370, -0.0152038783, -0.0070021651, 0.0462549701, 0.0185001902, 0.0252799615, 0.0096325567, -0.0178830698, 0.0755028948, -0.0320832133, 0.0706329867, -0.0695907921, 0.0438246988, 0.0319662653, 0.0416797884, -0.0194629636, 0.0320831984, -0.0000845154, 0.0218355786, -0.0422924086, 0.0356495231, 0.0049212859, -0.0410917327, 0.0231394526, 0.0530296899, 0.0130858477, -0.0315120481, 0.0296772681, 0.0381214954, -0.0265541021, -0.0341337584, 0.0235544145, -0.0336166658, -0.0310013313, 0.0071660271, 0.0215730239, -0.0296708178, 0.0330197848, 0.0054616593, -0.0251038447, 0.0763474256, -0.0128172897, -0.0046129501, -0.0267976187, 0.0412913114, -0.0621017143, -0.0387637652, 0.0369112417, 0.0814417899, 0.0381346717, -0.0417298749, 0.0853932053, 0.0057524089, -0.0383457914, 0.0163627174, -0.0042274296, 0.0114737134, -0.0010254111, 0.0324710235, 0.0079613253, 0.0406772122, 0.0706516653, 0.0420728885, -0.0042160545, -0.0243865587, 0.0323357061, -0.0109787527, 0.0343493074, 0.0443826988, 0.0111601185, -0.0046315603, 0.0104916096, 0.0400305465, -0.0318224356, 0.0424568057, -0.0822775364, 0.0849353746, 0.0649337322, 0.0391683020, -0.0215889961, 0.0253690295, 0.0099947480, 0.0070411791, -0.0390423387, 0.0349407122, -0.0038369151, -0.0363794155, 0.0175784659, 0.0295323506, 0.0014194146, -0.0325304158, 0.0225680787, 0.0358462967, -0.0220211018, -0.0313926823, 0.0187845808, -0.0308786817, -0.0280238725, 0.0182134621, 0.0221797079, -0.0272601303, 0.0145049347, 0.0076473854, -0.0271101445, 0.0672724247, -0.0147349024, -0.0210574828, -0.0255414303, 0.0232222248, -0.0619170852, -0.0338463485, 0.0226405710, 0.0482468233, 0.0129793482, -0.0365866087, 0.0549632162, 0.0056867599, -0.0271051433, 0.0097314268, -0.0159488712, -0.0021337669, -0.0037426474, 0.0267026927, -0.0147848865, 0.0264558420, 0.0457619615, 0.0399888977, -0.0190159362, -0.0239405949, 0.0540526249, -0.0143459318, 0.0191797055, 0.0419129916, -0.0011134440, -0.0131268511, 0.0255362894, 0.0167526063, -0.0329200141, 0.0191006046, -0.0707048923, 0.0684823170, 0.0491462797, 0.0397711024, -0.0181377139, 0.0141657311, 0.0316955075, 0.0558549576, -0.0402487218, -0.0012319860, 0.0386607610, -0.0405437648, -0.0065610306, 0.0772524253, 0.0371897854, -0.0333171263, -0.0071395529, -0.0049652713, -0.0228700005, -0.0318763517, 0.0171104427, -0.0309501756, -0.0292533375, 0.0138619477, 0.0318430252, -0.0267310962, 0.0213987548, -0.0055998047, -0.0221366845, 0.0010100895, -0.0099024279, 0.0345645659, -0.0231794622, 0.0243234355, -0.0582964979, -0.0342519023, 0.0076558650, 0.0239998084, 0.0452878252, -0.0386107452, 0.0353377573, 0.0208504125, -0.0380492657, -0.0015849327, 0.0387822017, 0.0456305519, 0.0371481068, 0.0015910474, 0.0770459101, 0.0076031899, 0.0320425071, 0.0018527706, 0.0483979434, -0.0237813536, 0.0046638451, 0.0004540462, 0.0230279304, -0.0080679981, 0.0172087550, 0.0183776207, -0.0132531188, 0.0661418959, -0.0306649823, 0.0484687313, -0.0734965801, 0.0122713167, 0.0193884727, 0.0821251273, -0.0177291967, 0.0284624398, 0.0508448109, 0.0361610539, -0.0428704657, 0.0183291789, 0.0293802954, -0.0416106880, -0.0027137853, 0.0900691971, 0.0273887645, -0.0320387483, 0.0077499198, 0.0000558389, -0.0216284096, -0.0333333984, 0.0335305557, -0.0322836488, -0.0297230035, 0.0397420526, 0.0594385155, -0.0271221139, 0.0025672258, 0.0045431391, -0.0218836609, 0.0263009258, -0.0127907749, 0.0069936798, -0.0252128057, 0.0179175902, -0.0592507981, -0.0404378548, 0.0192030482, 0.0358422324, 0.0192521121, -0.0427237637, 0.0353478901, 0.0348015353, -0.0393508039, 0.0056884177, 0.0367736146, 0.0274415351, 0.0389561579, 0.0201213714, 0.0523981377, 0.0200117528, 0.0207235217, 0.0295579936, 0.0207955670, -0.0250805784, 0.0550847538, -0.0040759831, 0.0112251770, 0.0140915830, 0.0013989864, 0.0050782133, 0.0138674034, 0.0342191756, -0.0300647523, 0.0269255806, -0.0860206187, 0.0472995229, 0.0485686474, 0.0766522884, -0.0201682560, 0.0255471934, 0.0519664288, 0.0207661334, -0.0399607345, 0.0274947137, 0.0166591126, -0.0392999128, -0.0020388849, 0.0581244715, 0.0139559964, -0.0330268107, 0.0118878661, -0.0045185918, -0.0177894235, -0.0325374268, 0.0275947228, -0.0311190020, -0.0290463790, 0.0384896584, 0.0519733839, -0.0257242005, -0.0138610359, 0.0080519067, -0.0254062563, 0.0343702547, -0.0138107268, -0.0162593238, -0.0211303476, 0.0076099578, -0.0611999407, -0.0344950296, 0.0141099365, 0.0271854308, -0.0022810469, -0.0370339304, 0.0266656410, 0.0290251039, -0.0298655741, 0.0056571877, 0.0233695004, 0.0114646461, 0.0341623090, 0.0217039213, 0.0200312547, 0.0177838933, 0.0038096872, 0.0398118757, -0.0009985332, -0.0242595971, 0.0686619878, -0.0094986930, -0.0028527640, 0.0250790790, -0.0097961370, -0.0064672707, 0.0297218896, 0.0108008431, -0.0311911646, 0.0041836468, -0.0734957755, 0.0474085659, 0.0429850109, 0.0293790922, -0.0171618462, 0.0058359075, 0.0391573310, 0.0270318035, -0.0342569686, -0.0107805682, 0.0207943581, -0.0368487872, -0.0118127931, 0.0368044823, 0.0143105760, -0.0346359313, -0.0128497649, -0.0173868034, -0.0180387199, -0.0272621475, 0.0094920583, -0.0246500187, -0.0243037790, 0.0188026745, 0.0343012922, -0.0223150160, 0.0053606280, -0.0054626022, -0.0222843513, -0.0187332220, -0.0093798563, 0.0231260173, -0.0181072969, 0.0046008136, -0.0491686016, -0.0253745764, -0.0039451751, -0.0029241871, 0.0178470872, -0.0309496522, 0.0017106961, 0.0180419013, -0.0245083030, -0.0050799032, 0.0241562817, 0.0258439556, 0.0340285264, -0.0051346789, 0.0411626101, -0.0009947112, 0.0010653642, -0.0058609536, 0.0248198174, -0.0227442347, 0.0073862444, -0.0012587912, 0.0130754123, -0.0216382984, 0.0045500868, 0.0114957877, -0.0127563365, 0.0231954772, -0.0272003561, 0.0190671347, -0.0562413633, -0.0097253863, 0.0028080321, 0.0704330429, -0.0178751089, 0.0184586309, 0.0509180240, 0.0289954729, -0.0365266167, 0.0039185570, 0.0301725194, -0.0384168178, -0.0131284175, 0.0690713599, 0.0213911906, -0.0332025923, -0.0039496361, -0.0246250723, -0.0170194097, -0.0292418376, 0.0241103284, -0.0279900674, -0.0267759375, 0.0344825499, 0.0525737666, -0.0234113261, -0.0169418976, 0.0012510284, -0.0230590682, -0.0078283688, -0.0091544008, 0.0031194845, -0.0176464394, 0.0007587962, -0.0548493713, -0.0283879824, 0.0083957417, 0.0103619806, 0.0039412556, -0.0338319689, 0.0033977856, 0.0345982313, -0.0291493647, 0.0006204094, 0.0410409980, 0.0232984722, 0.0428472869, 0.0083138645, 0.0482223816, 0.0114070233, -0.0130959703, 0.0183415059, 0.0229114648, -0.0231046770, 0.0440506637, -0.0034884072, -0.0035626933, -0.0079141473, -0.0054796939, 0.0049766754, 0.0092551913, 0.0183824766, -0.0276720673, 0.0074113905, -0.0631113797, 0.0170685910, 0.0286579784, 0.0351930894, -0.0196685921, 0.0071346979, 0.0299794730, 0.0078227408, -0.0347343199, 0.0127637135, 0.0206239894, -0.0365342088, -0.0095584774, 0.0134288380, 0.0055941534, -0.0339296609, -0.0043670619, -0.0154358214, -0.0147951273, -0.0280375257, 0.0065343301, -0.0250572655, -0.0234735683, 0.0103583941, 0.0194231384, -0.0229740627, -0.0250418093, -0.0001670173, -0.0242289286, 0.0091137048, -0.0128720859, -0.0083967624, -0.0180367008, -0.0060637561, -0.0512720495, -0.0253492221, -0.0014269407, -0.0038367088, -0.0135597996, -0.0303412564, -0.0069256341, 0.0158093888, -0.0203615036, -0.0017100496, 0.0236184150, 0.0052140597, 0.0237135403, 0.0031644448, 0.0263518095, 0.0032745481, -0.0216831286, 0.0189919211, 0.0066076540, -0.0229584463, 0.0298380572, -0.0055002715, -0.0108411033, 0.0069225812, -0.0125615960, -0.0014247965, 0.0159577113, -0.0024803185, -0.0277616233, -0.0075046332, -0.0562654324, 0.0079196841, 0.0070174634, 0.0744641349, 0.0065410249, -0.0012919497, 0.0669365153, 0.0233500022, 0.0120708458, -0.0194632262, 0.0157130416, 0.0120114209, -0.0297794528, 0.0787828565, 0.0158942342, 0.0050802901, -0.0221715979, -0.0494839251, 0.0162160620, 0.0125170192, 0.0138282860, 0.0134954061, -0.0047189896, 0.0466634929, 0.0517496504, 0.0062450366, -0.0312631950, 0.0002634293, 0.0137493890, -0.0416393578, 0.0020287638, -0.0163286608, 0.0052964939, -0.0150239198, 0.0411931314, -0.0050265333, -0.0113553116, -0.0340211503, -0.0123522058, -0.0018798251, -0.0262714438, 0.0379431173, -0.0014558663, -0.0084735714, 0.0544178225, 0.0192122627, 0.0355891213, -0.0139420116, 0.0325101539, -0.0174853001, -0.0337759368, -0.0159748420, 0.0230973754, 0.0025377315, 0.0234405100, 0.0037475496, -0.0257913247, -0.0346062072, -0.0108251199, 0.0048544346, 0.0090605700, 0.0020326816, 0.0117371185, -0.0123071764, -0.0060266438, -0.0348843746, -0.0161024332, 0.0772247165, 0.0082892980, -0.0048293294, 0.0798023269, 0.0003752901, 0.0179496016, -0.0242423452, 0.0103634894, 0.0132045578, -0.0306340791, 0.0633629486, 0.0021179598, 0.0016741147, -0.0223299284, -0.0519506410, 0.0211262181, 0.0128804091, 0.0097687459, 0.0180919748, -0.0031669387, 0.0538045317, 0.0527823679, 0.0108422227, -0.0474701263, -0.0011982124, 0.0149903968, -0.0486440174, 0.0003537234, -0.0210516546, 0.0043719104, -0.0256316271, 0.0483513176, -0.0000369079, -0.0120716784, -0.0395760126, -0.0353762247, 0.0029124813, -0.0409548506, 0.0415703803, 0.0058729774, -0.0103877913, 0.0675627962, 0.0036456538, 0.0426851213, -0.0176397860, 0.0203061346, -0.0196055025, -0.0415132307, -0.0251505841, 0.0101619614, 0.0033271092, 0.0130899027, 0.0059614806, -0.0342267342, -0.0375186168, -0.0209140461, -0.0010308855, 0.0101465862, -0.0355732664, 0.0095156571, -0.0365622751, 0.0065341536, -0.0443815738, -0.0231146272, 0.0603252947, 0.0033214248, -0.0001807668, 0.0693481639, 0.0077465149, 0.0165632721, -0.0163427182, 0.0193391293, 0.0129095353, -0.0294224452, 0.0564267188, 0.0078755599, 0.0000913791, -0.0181680806, -0.0435497910, 0.0203621313, 0.0102493614, 0.0086984662, 0.0176539253, -0.0002891471, 0.0378596559, 0.0393484235, 0.0065573235, -0.0422116891, -0.0010352043, 0.0087305224, -0.0372169428, 0.0015139428, 0.0009783118, 0.0043510688, -0.0271695275, 0.0371310599, 0.0035311417, -0.0050551458, -0.0286147706, -0.0318168849, 0.0012924448, -0.0365192257, 0.0317915231, 0.0071114209, -0.0075899018, 0.0725514591, 0.0150363334, 0.0418691598, -0.0098313997, 0.0460894778, -0.0084779076, -0.0472415499, -0.0108940676, 0.0236704815, 0.0019649754, 0.0119674662, 0.0115790730, -0.0330972821, -0.0273286309, -0.0183601603, 0.0099407798, 0.0069717243, -0.0211557373, 0.0086613977, -0.0287202932, 0.0127875395, -0.0243256409, -0.0052494439, 0.0159375779, 0.0080302870, -0.0074599483, 0.0156823322, 0.0036849210, 0.0291902777, -0.0025593692, 0.0000153560, 0.0116173523, -0.0082601160, 0.0130907577, 0.0023070250, -0.0002367956, -0.0051278817, -0.0120646143, 0.0153398085, 0.0032690989, -0.0046088132, 0.0169165954, 0.0026489103, 0.0200277399, 0.0057374304, 0.0150014879, -0.0133007150, 0.0004665704, 0.0095391190, -0.0101890983, -0.0011189781, -0.0059664836, -0.0018829393, -0.0083092637, 0.0204539187, 0.0069762263, -0.0054093362, -0.0175573844, -0.0082573136, 0.0105929067, -0.0089057945, 0.0098992316, 0.0163947772, -0.0053475131, 0.0186197273, 0.0029998031, -0.0002400962, -0.0090986574, 0.0049733673, -0.0092555312, -0.0183311906, -0.0016177509, 0.0134000657, 0.0057113878, 0.0115687940, -0.0007928325, -0.0164241716, -0.0026958252, -0.0063607236, 0.0011893517, 0.0228389557, -0.0068472736, 0.0035405804, -0.0127221011, 0.0252277739, -0.0184997059, -0.0184718911, 0.0185542107, 0.0099751372, -0.0076225493, 0.0224788133, -0.0195084233, 0.0366085134, -0.0077381660, -0.0128544020, 0.0133175794, -0.0057940185, 0.0024007764, -0.0115618836, -0.0035874639, -0.0028555738, -0.0067980578, 0.0179829095, 0.0031157141, -0.0049449750, 0.0214168038, 0.0050619706, 0.0296924952, 0.0103529021, 0.0195808373, -0.0217774343, 0.0001350441, 0.0105236173, -0.0144602824, -0.0031876704, -0.0151074175, -0.0035070723, -0.0176425930, 0.0239249952, 0.0128257470, -0.0049420265, -0.0214579590, -0.0274881087, 0.0156637058, -0.0231857039, 0.0106154187, 0.0250550415, -0.0061040097, 0.0173111074, -0.0140586756, -0.0018417101, -0.0092929080, -0.0213251989, -0.0092989402, -0.0218685456, -0.0088425502, -0.0046232245, 0.0065993494, 0.0078842444, -0.0022289669, -0.0201546717, -0.0044408008, -0.0148685100, -0.0076479902, 0.0232522693, -0.0418160893, 0.0011906027, -0.0330955684, 0.0393797085, -0.0208050776, -0.0175081678, 0.0211481471, 0.0050473581, -0.0056164959, 0.0354572423, -0.0097711133, 0.0347038284, -0.0080097690, -0.0010042655, 0.0121813500, -0.0077453931, 0.0113852294, -0.0065983143, -0.0051727416, -0.0060945274, 0.0005774254, 0.0187498126, 0.0008443748, -0.0003181432, 0.0225795452, 0.0073321378, 0.0258134566, 0.0165037550, 0.0152551979, -0.0065024486, -0.0000358490, 0.0045320271, -0.0153356194, -0.0024943664, 0.0107504297, -0.0028478662, -0.0167055111, 0.0129892733, 0.0154245570, -0.0075366581, -0.0203132071, -0.0182374660, 0.0140087716, -0.0231719241, 0.0112745631, 0.0269224383, -0.0049744309, 0.0371137299, 0.0000917775, 0.0127291121, -0.0065646800, 0.0117616011, -0.0052847792, -0.0197152700, -0.0026642559, 0.0157251153, 0.0052750153, 0.0127916168, 0.0064648828, -0.0118252533, -0.0082952036, -0.0096132625, 0.0075475415, 0.0150727779, -0.0226550288, 0.0002221184, -0.0189852193, 0.0439296551, -0.0160902925, -0.0095020076, 0.0252965465, 0.0052399477, -0.0029410613, 0.0288545322, 0.0249844957, 0.0373764336, -0.0100712674, 0.0070948144, 0.0080223195, -0.0117198406, 0.0614813715, 0.0205903221, -0.0009343379, -0.0055392692, -0.0275847968, 0.0112611679, -0.0034970781, 0.0066693677, 0.0156645589, 0.0045725154, 0.0300074257, 0.0169434641, 0.0167680960, -0.0226999186, 0.0008520628, 0.0018641315, -0.0243275203, 0.0023440460, -0.0110692959, -0.0013131859, -0.0131089119, -0.0086037461, 0.0190216899, -0.0051241266, -0.0184376240, -0.0080990521, 0.0172115415, -0.0190546885, 0.0158455037, 0.0267452393, -0.0039724829, 0.0305713937, 0.0130028287, 0.0181003660, -0.0031963924, 0.0140553508, -0.0073240823, -0.0358173177, -0.0086520342, 0.0154662328, 0.0084264288, 0.0010324793, -0.0046873926, -0.0223404411, -0.0117608821, -0.0089687221, -0.0033480655, 0.0056976546, 0.0038710623, -0.0010576179, -0.0127567584, 0.0531296916, -0.0138134947, 0.0000303194, 0.0517196879, 0.0070782132, 0.0009341785, 0.0472600795, -0.0000217434, 0.0452505499, -0.0136552639, -0.0002560007, 0.0092832735, -0.0099527258, 0.0540629327, 0.0060353023, -0.0045412276, -0.0044438378, -0.0298730247, 0.0159812793, -0.0043356819, 0.0134680867, 0.0204194002, 0.0066214944, 0.0472640768, 0.0334139839, 0.0217458680, -0.0299172439, 0.0025650542, 0.0022524458, -0.0337866917, -0.0005733280, -0.0173627194, -0.0022295283, -0.0221478138, -0.0092369830, 0.0238611810, -0.0034391887, -0.0236126054, -0.0261751208, 0.0224135108, -0.0317105316, 0.0238834508, 0.0353396721, -0.0050524897, 0.0398357920, -0.0043075755, 0.0282736383, -0.0008294228, -0.0025922845, -0.0075573931, -0.0416763350, -0.0076509737, 0.0016827206, 0.0093059763, 0.0135282781, -0.0051034559, -0.0286564790, -0.0144331269, -0.0163639337, -0.0106526874, 0.0123082371, -0.0296870004, -0.0038165925, -0.0311714932, 0.0654785931, -0.0138729885, 0.0095229344, 0.0407339595, 0.0021701867, -0.0050027738, 0.0522994213, 0.0057579400, 0.0432351306, -0.0099191880, 0.0129732657, 0.0089993626, -0.0087869456, 0.0380811319, 0.0069972677, -0.0060214316, -0.0080299666, -0.0132931340, 0.0179076940, -0.0062307394, 0.0089421878, 0.0229243021, 0.0098594213, 0.0356818810, 0.0300012566, 0.0179029182, -0.0092082666, 0.0015864866, -0.0035435467, -0.0277898703, -0.0010075207, 0.0115259970, -0.0042181239, -0.0179302860, -0.0180761777, 0.0248659030, -0.0112610385, -0.0264920387, -0.0105391098, 0.0207062904, -0.0308943335, 0.0194905568, 0.0382030979, -0.0053836219, 0.0575214736, 0.0092147887, 0.0381076373, -0.0036693595, 0.0326935723, -0.0085613606, -0.0332529172, -0.0001368157, 0.0270610470, 0.0077349418, 0.0228088442, 0.0058412952, -0.0166304410, -0.0130555555, -0.0082408991, 0.0070217666, 0.0132630188, -0.0037695405, -0.0048830626, -0.0092901457, 0.0673679113, -0.0181879867, -0.0018553323, 0.0068874089, -0.0039795176, -0.0326191522, 0.0409009531, -0.0720774829, 0.0079634842, 0.0134781869, 0.0303954836, 0.0040035588, 0.0197347682, -0.0897311866, -0.0442478247, -0.0105850967, -0.0109833702, 0.0874848366, 0.0318879448, -0.0020171837, -0.0273366962, 0.0239647832, 0.0107274186, -0.0132846218, -0.0035507951, 0.0041251858, 0.0239608530, -0.0076412503, 0.0000211739, 0.0369521640, -0.0226222351, 0.0897631273, -0.0104325945, -0.0240970291, 0.0152893262, -0.0060345246, -0.0366896614, -0.0735500306, -0.0283164103, 0.0082405470, -0.0570660457, -0.0036590397, 0.0269967914, -0.0213657115, 0.0517346710, -0.0377593450, 0.0360729396, -0.0331533328, 0.0394908972, -0.0457021967, 0.0161873642, 0.0042088386, 0.0333737731, -0.0103318123, 0.0346741825, 0.0304730162, -0.0037358596, 0.0374971107, -0.0021361429, 0.0308407191, 0.0557621904, -0.0779698342, -0.0036823133, -0.0291955620, -0.0109877251, -0.0743341893, -0.0832773447, -0.1071689799, 0.0012886781, -0.0484763943, -0.0532776900, -0.0079713175, 0.0039150724, -0.0139415460, 0.0173566341, 0.0111412788, 0.0375373140, -0.1055186614, -0.0171728842, -0.0016582420, -0.0148841664, 0.1236448735, 0.0056276913, 0.0015843310, -0.0535566173, 0.0066456478, 0.0080776494, -0.0693987906, -0.0739321783, -0.0000328532, 0.1268350333, -0.0227447320, 0.0089372126, 0.0458737090, -0.0078381635, 0.1404892653, -0.0231277626, 0.0808760598, 0.0309039168, -0.0035136058, -0.0241245776, 0.0180112589, 0.1197564751, 0.0045166425, 0.1257626265, -0.0423465297, 0.0071272827, -0.0145024769, -0.0352056250, 0.0117259892, -0.0563235469, -0.0461263508, 0.0515450053, -0.0329973921, 0.1959079653, -0.0597786829, 0.0702193528, -0.0084667392, -0.0970036387, 0.0298384093, 0.0969205350, 0.0075894180, 0.0464415736, 0.0594249517, -0.0379872434, 0.0708118379, 0.0037543501, 0.1157657951, -0.0109028891, -0.0769712478, -0.1054104790, -0.0323584974, 0.0040896656, 0.0005716308, -0.0415552109, 0.0048266496, -0.0081683239, -0.0096463980, -0.0353370421, -0.0012980053, 0.0130489208, -0.0037051332, -0.0066647795, 0.0030094150, 0.0147242285, 0.0156422202, -0.0118012689, 0.0007200728, -0.0087927682, -0.0104286978, -0.0031794040, -0.0262030847, -0.0093647391, -0.0085118031, 0.0536776409, -0.0074534034, 0.0104769114, 0.0143499933, 0.0035292674, -0.0008950242, -0.0061204582, 0.0508092828, 0.0335975550, -0.0012914591, 0.0231982134, 0.0780555755, 0.0739005357, -0.0012813194, 0.1051276028, -0.0240131915, -0.0107139116, 0.0095913587, -0.0622541010, -0.0089082122, -0.0564035252, 0.0001284953, -0.0579732955, 0.0214208178, 0.1088278666, -0.0234910864, -0.0207137130, -0.0082893707, -0.0252053160, -0.0113790557, 0.0470897518, -0.0027138055, 0.0142218117, -0.0049615456, -0.0331994817, 0.0363864787, 0.0090577090, 0.0548055731, -0.0155316908, 0.0281205494, 0.0073985318, -0.1180733666, -0.0008600060, -0.0252984334, -0.1001605168, -0.0556465052, -0.0038378416, 0.0020907274, -0.0422771946, 0.0029393381, 0.0639277101, -0.1439828128, -0.0496756546, 0.0020066691, 0.0153517723, 0.1417894065, -0.0147051513, -0.0044816388, -0.0488747917, 0.0071074804, 0.0091835102, -0.0780059025, -0.0937134624, -0.0071436623, 0.1316629350, -0.0145686734, 0.0091487532, 0.1099906415, -0.0072821737, 0.0641294271, -0.0260578804, 0.0983738676, 0.0247526020, -0.0000300820, 0.0053401305, 0.0714236498, 0.1463222206, 0.0007938935, 0.1393936127, -0.0672942251, 0.0117434012, 0.0048217294, -0.0899109915, -0.0333339795, -0.1024986506, -0.0176208597, -0.0525637791, 0.0053165476, 0.2187231630, -0.0419380032, -0.0071660541, -0.0066145984, -0.1068891883, -0.0031494473, 0.1326954663, 0.0384082049, 0.0432746224, 0.0124190701, -0.0506530665, 0.0693734959, 0.0032503651, 0.1465050578, -0.0134853208, -0.0008326173, -0.0512437336, -0.0375827104, 0.0079189707, 0.0255199242, -0.0669786781, 0.0516331680, -0.0056603737, -0.0352001749, -0.0610280223, -0.0044423398, 0.0112862103, 0.0611426160, 0.0204770546, 0.0148768062, 0.0189871378, -0.0331142582, -0.0311389808, -0.0065057757, 0.0074301604, -0.0200123396, -0.0070356885, -0.0264260862, -0.0224274490, -0.0103372615, 0.0535902455, -0.0055029169, 0.0160903111, -0.0162298307, 0.0226328690, -0.0647492036, -0.0011845573, 0.0986442640, 0.0067613139, 0.0175428521, 0.0508991256, 0.1423097104, 0.1282863766, 0.0020632714, 0.1680342704, -0.0318843201, -0.0105607780, 0.0297040585, -0.1060500294, 0.0006997421, -0.0875802413, 0.0212504342, -0.1100648940, 0.0580245554, 0.1358011812, -0.0395844691, -0.0405420698, -0.0004758274, -0.0783356577, -0.0385603756, 0.0687274113, -0.0397235602, 0.0222125091, -0.0337083489, -0.0795106441, 0.1145472527, 0.0077534346, 0.1080982313, 0.0125916367, 0.0628869459, 0.0740422159, 0.1569217592, 0.0031007933, 0.0519534908, 0.0950417593, 0.0185321830, -0.0099715237, -0.0129343616, -0.0226597115, -0.0082826559, -0.0371944718, 0.1488494873, 0.0178515501, 0.0099619990, 0.0023961442, -0.0975111201, -0.0056663994, 0.0030198153, 0.0662500337, -0.0064685554, -0.0084637487, 0.0675686821, 0.1110759526, -0.0074060266, -0.0617110021, 0.0124112954, 0.0136807784, -0.0620080009, 0.0099862823, -0.0914992169, 0.0193979591, -0.0256766248, 0.0211928058, 0.0097140083, 0.0162984040, -0.0132017974, -0.0322269015, 0.0038973396, -0.0544775464, 0.0364025459, 0.0053532915, 0.0079846056, 0.0130805932, -0.0109597053, 0.0452231877, 0.0340790413, -0.0657861829, 0.0187405627, -0.0564714745, 0.0199610461, -0.0488247760, -0.0024733457, 0.0868956447, -0.0269571114, -0.0524444468, -0.0321814343, -0.0267482474, -0.0439600497, 0.0030624904, -0.0285993703, 0.0087781232, -0.0401426665, 0.0023718057, 0.0422020853, 0.1099127382, 0.0262530763, 0.0018207864, 0.0238594692, 0.0049015991, 0.0659289807, -0.0105636464, -0.0386983529, -0.0275176633, -0.0033476453, -0.0119168917, 0.1074873805, 0.0333184265, 0.0081000505, -0.0094663491, -0.0442058966, -0.0195730235, 0.0010877119, 0.0230192803, -0.0114966277, -0.0110626537, 0.0075020017, 0.0212747529, -0.0116117178, 0.0116076740, -0.0049995640, 0.0136452103, -0.0413126536, 0.0097442390, -0.0405165143, -0.0026993058, 0.0380843766, 0.0063106748, 0.0040810229, 0.0106748659, 0.0386730097, 0.0662192181, -0.0041286182, 0.0443179384, -0.0019933267, -0.0085706785, 0.0075418386, -0.0339295156, 0.0247576702, -0.0241386779, 0.0025705090, -0.0458772555, 0.0103058061, 0.0582806319, -0.0463784970, -0.0148685304, -0.0048594819, -0.0370062031, -0.0231954027, 0.0312089659, -0.0490651913, 0.0029527494, -0.0211561453, -0.0542069711, 0.0829836428, 0.0036535526, 0.0538760684, -0.0108071575, 0.0018132277, 0.0467973873, 0.2440926135, 0.0028322849, 0.0460078232, 0.1405437887, 0.0346008651, -0.0096047530, -0.0164491702, 0.0036678482, -0.0106015056, -0.0404138565, 0.2474749833, 0.0352772288, 0.0072358926, -0.0052557755, -0.0947654471, 0.0070078741, 0.0000461224, 0.0896926671, -0.0108332066, -0.0131728156, 0.1071226671, 0.1881723404, -0.0069646696, -0.0704371110, 0.0134395268, 0.0138998646, -0.0764435083, 0.0043580346, -0.0894028544, 0.0191305876, -0.0312101543, 0.0141989216, 0.0038327165, -0.0003674951, -0.0288302004, -0.0532524660, 0.0030560805, -0.0608623177, 0.0821799785, -0.0004551295, 0.0032597054, 0.0509280339, -0.0041916696, 0.0796548799, 0.0199938379, -0.0293743815, 0.0015923757, -0.0594482161, 0.0286049191, -0.0325239785, -0.0041244403, 0.1506228149, -0.0206239671, -0.0772378445, -0.0388863944, -0.0367468931, -0.0403370969, 0.0363295525, -0.0546237566, 0.0041298335, -0.0663342476, -0.0043803179, 0.0068029100, 0.0796246603, 0.1994880140, -0.0032106908, 0.0035621952, 0.1846280545, -0.0324089713, -0.0020404244, 0.0086210091, 0.0504260324, 0.0015109215, -0.0328135453, 0.0524856523, -0.0100105247, 0.0004101576, -0.0222445037, -0.0151933292, 0.0350877382, 0.0114770485, 0.0409933738, 0.0094583677, 0.0042485096, 0.0850454867, 0.1320050359, 0.0017369833, -0.0618731342, 0.0072184992, 0.0081106955, -0.0320974998, -0.0121627459, 0.0146346707, 0.0073472527, -0.0416314192, 0.0209234152, 0.0005746750, -0.0355281830, -0.0853385776, -0.0635033622, 0.0110346396, -0.0895301327, 0.0718028471, 0.0260889344, -0.0200855676, 0.1248723269, -0.0205216520, 0.1290803105, -0.0145449396, 0.0604152754, -0.0431668349, -0.0571735390, 0.0281482283, 0.0094739534, -0.0052567641, 0.1532899290, 0.0238325708, -0.0708109066, 0.0000984148, -0.0325826034, 0.0006243188, 0.0894385949, -0.0826230869, 0.0030907991, -0.0631511733, 0.0000853283, -0.0644215941, -0.0238634255, 0.0099547245, -0.0077190348, -0.0040850616, -0.0351212025, 0.0339560099, 0.0100381784, -0.0074793673, 0.0191483442, 0.0355447643, -0.0099096335, 0.0243479665, 0.0058226301, -0.0065793437, -0.0070218216, -0.0209897086, 0.0147494944, 0.0365913212, -0.0027372274, 0.0083450368, 0.0292412862, -0.0131333359, -0.0041580978, -0.0079880245, 0.0067114807, -0.0035330055, -0.0092672985, -0.0201592986, 0.0090035731, -0.0058067674, 0.0220683645, 0.0033119393, 0.0087746717, 0.0103283916, 0.0020466002, -0.0062100999, 0.0159840081, -0.0116985701, 0.0036258912, -0.0088682584, -0.0047853994, -0.0075691966, -0.0074633681, 0.0152335623, -0.0242857244, -0.0040169302, 0.0179420523, 0.0100625856, -0.0081705702, 0.0068590147, 0.0112430239, -0.0086753219, -0.0176139921, 0.0192050822, 0.0056449813, -0.0084305741, -0.0004614501, 0.0137995370, -0.0045237029, 0.0336847752, 0.0319076590, 0.0159391556, 0.0016564777, -0.0042848354, 0.0088673485, 0.0652082190, -0.0131848790, 0.0110834967, -0.0179614667, -0.0172775313, 0.0085186809, 0.0080777593, -0.0313341543, 0.0430009179, -0.0131379049, 0.0123913866, -0.0276385564, -0.0139521500, -0.0005395432, -0.0260193348, 0.0221295655, 0.0440466404, 0.0148483776, 0.0076804627, 0.0408935733, 0.0164225474, 0.0491150767, -0.0116979405, -0.0359166414, 0.0000701757, -0.0136942295, -0.0037992101, 0.0010910266, -0.0614690296, 0.0383342020, -0.0203538593, 0.0107637914, 0.0206956249, 0.0210239533, 0.0060751159, -0.0445211194, -0.0152440825, -0.0247820597, -0.0066838176, -0.0012130006, -0.0031641263, -0.0388835259, -0.0266546365, -0.0309836864, 0.0117255487, -0.0686497837, 0.0363433175, -0.0447290316, 0.0578365661, -0.0514461249, -0.0118436590, 0.0654542744, -0.0011467369, -0.0300042965, 0.0117677599, -0.0204444807, -0.0210219752, 0.0362292007, -0.0487890467, 0.0313171446, -0.0408644453, 0.0169367064, 0.0398101099, 0.0572014861, -0.0069194157, -0.0133395782, -0.0185484029, 0.0508055948, 0.0034352329, 0.0103853215, 0.0020204980, 0.0183321889, 0.0354264192, 0.0025603094, -0.0482418425, -0.0221129376, -0.0194951724, -0.0151299238, 0.0536261089, 0.0265429616, 0.0351578258, -0.0203848891, 0.0311215557, 0.0370378606, -0.0136028789, 0.0013520406, -0.0081231510, 0.0454753190, -0.0084782215, -0.0100541618, 0.0122639220, -0.0161488913, 0.0694988221, 0.0178250223, -0.0053791939, 0.0225046035, 0.0100293308, -0.0203561727, -0.0337979086, 0.0252882428, -0.0136799710, -0.0463021770, -0.0226527955, 0.0159844048, -0.0176643133, 0.0622279942, 0.0217359494, 0.0456050262, -0.0132523049, 0.0649702325, -0.0147415288, 0.0143902553, 0.0056050410, 0.0237829946, -0.0127760060, 0.0091928607, 0.0357009433, 0.0297623985, 0.0155290803, 0.0096045667, 0.0425928384, 0.0240307059, 0.0306324027, 0.0161940716, 0.0314792506, 0.0018556471, -0.0166432019, -0.0256026853, -0.0198755488, -0.0120459013, -0.0129044233, -0.0389311574, 0.0396957621, 0.0096874107, -0.0161560029, 0.0258975513, 0.0368396938, -0.0144482125, 0.0106151318, 0.0095162485, -0.0075500985, -0.0150167588, -0.0306068193, 0.0169204697, 0.0338337831, -0.0127707254, 0.0087443171, 0.0334999822, -0.0244735721, -0.0150969876, -0.0104299812, 0.0051225713, -0.0079868520, -0.0158510301, -0.0369885750, 0.0143307298, 0.0025037385, 0.0350987054, 0.0005268122, 0.0001511725, 0.0180993639, -0.0062727211, -0.0180315115, 0.0169000272, -0.0120041594, 0.0009713909, -0.0167909954, -0.0032746510, -0.0108847478, -0.0055096047, 0.0179987848, -0.0174275767, -0.0139293140, 0.0220833384, 0.0037739247, -0.0139358277, -0.0077513633, 0.0129996650, -0.0089845415, -0.0414766409, 0.0263774972, 0.0045801555, -0.0192579199, -0.0003082628, 0.0168993399, -0.0177062806, 0.0341845304, 0.0332939178, 0.0144899776, 0.0129394308, -0.0245296583, -0.0073498581, 0.0735692456, -0.0174146015, 0.0120544750, -0.0341473408, -0.0260954201, 0.0078471834, 0.0079318695, -0.0305921547, 0.0431287624, -0.0173812732, 0.0108393114, -0.0276083630, -0.0148055293, -0.0018982462, -0.0395439118, 0.0238756649, 0.0390763693, 0.0201273598, 0.0046794084, 0.0455145389, 0.0139586367, 0.0561561584, -0.0149772633, -0.0404777564, -0.0009246785, -0.0205085352, -0.0112202736, 0.0056754230, -0.0667943507, 0.0545957237, -0.0230809227, 0.0002420837, 0.0295072161, 0.0246990453, 0.0043883240, -0.0458487198, -0.0159741193, -0.0232504550, -0.0068499404, -0.0010574135, -0.0028714212, -0.0488632433, -0.0317881107, -0.0377595052, 0.0134241506, -0.0727718249, 0.0449224338, -0.0521491058, 0.0738650262, -0.0527569503, -0.0122980122, 0.0771809518, -0.0016802761, -0.0379785188, 0.0088409660, -0.0214570817, -0.0246305894, 0.0361897349, -0.0562448464, 0.0319964252, -0.0439112075, 0.0304944161, 0.0476474166, 0.0724699572, -0.0159177128, -0.0175598674, -0.0213159155, 0.0627437979, -0.0060236640, 0.0104561560, -0.0004994755, 0.0226705261, 0.0398911610, 0.0004599069, -0.0746561512, -0.0264031924, -0.0209155958, -0.0192152467, 0.0639806911, 0.0306843910, 0.0345297307, -0.0223407391, 0.0348498188, 0.0445975699, -0.0095111514, 0.0021637951, -0.0096474066, 0.0527382232, -0.0092724711, -0.0156304669, 0.0084892437, -0.0145292925, 0.0926358849, 0.0275863931, -0.0101256464, 0.0161621012, 0.0152670797, -0.0241184775, -0.0447253175, 0.0280734133, -0.0153169306, -0.0521023385, -0.0245246235, 0.0200688820, -0.0196925104, 0.0687948838, 0.0228199530, 0.0558835454, -0.0157596786, 0.0777720734, -0.0149997976, 0.0134189231, 0.0086545004, 0.0329961851, -0.0139657883, 0.0203787535, 0.0457518585, 0.0411787108, 0.0116079766, 0.0107758977, 0.0514182448, 0.0290715359, 0.0296988487, 0.0173708163, 0.0353915654, 0.0083991596, -0.0228874031, -0.0280872490, -0.0241881367, -0.0130247250, -0.0139995543, -0.0218951795, 0.0377257615, 0.0130929956, -0.0132141840, 0.0239532385, 0.0320343487, -0.0085507575, 0.0164784621, 0.0123160873, -0.0085656820, -0.0129222432, -0.0166471023, 0.0173568614, 0.0204990637, -0.0119745275, 0.0087690195, 0.0273272339, -0.0214651246, -0.0071395440, -0.0091799488, 0.0133682191, -0.0093073202, -0.0185272601, -0.0263235737, 0.0129397614, 0.0076756296, 0.0347963646, 0.0049983021, -0.0099902144, 0.0197298303, -0.0055946182, -0.0039638043, 0.0137697775, -0.0091180410, 0.0164306611, -0.0145495003, 0.0017945359, -0.0092712557, 0.0029338019, 0.0159789138, -0.0014785904, -0.0140566425, 0.0204257313, 0.0031175581, 0.0002594314, -0.0120125851, 0.0091608772, -0.0076390821, -0.0385267101, 0.0253708214, 0.0058952193, -0.0105636427, -0.0012512610, 0.0149138477, -0.0148911383, 0.0255573709, 0.0231517907, 0.0108315870, 0.0203758124, -0.0169419441, -0.0089812446, 0.0615087524, -0.0182140861, 0.0086372606, -0.0225159116, -0.0237802006, 0.0102880821, 0.0098906467, -0.0174561515, 0.0362741984, -0.0108138630, 0.0149296932, -0.0209947117, -0.0152110038, -0.0013285656, -0.0249670558, 0.0236592814, 0.0245866701, 0.0176725332, 0.0052552396, 0.0381196551, 0.0091977054, 0.0492675938, -0.0143047152, -0.0275017824, -0.0022618554, -0.0233261772, -0.0004793321, 0.0040723043, -0.0495237336, 0.0534055978, -0.0193281695, -0.0102206133, 0.0284862537, 0.0199942421, 0.0101441815, -0.0408257395, -0.0136995586, -0.0068956884, -0.0041860165, 0.0018745817, -0.0043654754, -0.0292168632, -0.0282267127, -0.0184898786, 0.0092708338, -0.0540597066, 0.0355878770, -0.0369073339, 0.0631676465, -0.0447435528, -0.0111708213, 0.0608544089, 0.0023457534, -0.0339756422, 0.0155126657, -0.0201981906, -0.0196382571, 0.0311914887, -0.0503577068, 0.0222111885, -0.0385148562, 0.0324222594, 0.0413936339, 0.0585366935, -0.0026874566, -0.0175087079, -0.0163730122, 0.0567934513, -0.0014386820, 0.0141741419, 0.0052719545, 0.0229132622, 0.0361514799, 0.0029347336, -0.0614193790, -0.0171778686, -0.0200946908, -0.0154725043, 0.0652832836, 0.0278574433, 0.0209409930, -0.0140564190, 0.0296659786, 0.0374498107, 0.0023606229, 0.0113880094, -0.0079601509, 0.0593474247, -0.0062788632, -0.0180056095, 0.0137836961, -0.0135725392, 0.0923137963, 0.0266047399, -0.0036791808, 0.0016687068, 0.0179281645, -0.0177877229, -0.0320426114, 0.0379789062, -0.0127016073, -0.0263244063, -0.0170018189, 0.0216742214, -0.0187062174, 0.0569309331, 0.0257771444, 0.0515920073, -0.0104058441, 0.0759855062, -0.0108896317, 0.0275757499, 0.0175607149, 0.0374885947, -0.0123598101, 0.0401075333, 0.0390059501, 0.0431749299, 0.0176962987, 0.0122101922, 