//Numpy array shape [3, 3, 64, 128]
//Min -0.335948228836
//Max 0.416611075401
//Number of zeros 0

#ifndef W7_H_
#define W7_H_

#ifndef __SYNTHESIS__
model_default_t w7[73728];
#else
model_default_t w7[73728] = {-0.0089029633, -0.0056654327, -0.0078513985, -0.0066596456, -0.0053910781, -0.0087961452, -0.0071544093, -0.0190470032, 0.0026548149, 0.0113150058, -0.0164766535, 0.0043770792, 0.0180484746, -0.0063470732, 0.0176003110, -0.0016104094, 0.0040087812, -0.0225266889, 0.0045425002, -0.0109276008, -0.0087048998, 0.0143156108, -0.0001294822, 0.0016498001, -0.0013424787, -0.0024833262, 0.0030982883, -0.0143243410, -0.0225051269, -0.0205398686, -0.0119978534, -0.0037037509, -0.0177330077, -0.0100536207, -0.0217703301, -0.0074043432, -0.0054571894, -0.0218468737, 0.0336110182, 0.0120767113, -0.0239636470, -0.0044122958, 0.0216313228, -0.0104761552, -0.0020441222, 0.0103418473, -0.0045569031, -0.0070387465, 0.0000527545, -0.0068748491, -0.0141313756, 0.0175021067, -0.0105093336, 0.0098170964, 0.0079588443, -0.0081592286, 0.0078542978, -0.0073080347, 0.0041592470, -0.0064891418, 0.0052458141, -0.0058248728, -0.0154342148, -0.0042181443, -0.0103394873, 0.0048676841, -0.0053120670, -0.0066070156, -0.0045148632, -0.0129147628, -0.0029593364, -0.0183466077, 0.0019803480, 0.0097984709, -0.0167965256, 0.0031678253, 0.0061016139, -0.0181433447, 0.0154249687, -0.0008217887, 0.0028906933, -0.0234440323, 0.0053976215, -0.0087332893, -0.0110052535, 0.0096435649, -0.0002410006, 0.0041233762, 0.0012191765, -0.0024040397, 0.0029365465, -0.0113892192, -0.0130783496, -0.0224547777, -0.0124408100, -0.0058892104, -0.0106005324, 0.0050988980, -0.0165426750, -0.0100209480, -0.0049540759, -0.0203710180, 0.0276855566, 0.0167239551, -0.0161380973, -0.0134228403, 0.0287971497, -0.0107289599, -0.0105457325, 0.0104786064, -0.0055137551, -0.0114417430, -0.0036583690, -0.0062215566, -0.0164007898, 0.0127974320, -0.0070837331, 0.0058306409, 0.0092765000, -0.0069238525, 0.0102519896, -0.0080339108, -0.0068181115, -0.0069453027, 0.0050940542, -0.0060038799, -0.0178998355, -0.0037088427, -0.0101951612, 0.0122869862, -0.0070973439, -0.0069172485, -0.0049320813, -0.0183398463, 0.0044555464, -0.0187368728, 0.0015597392, 0.0081796097, -0.0138826016, 0.0022587136, -0.0085288761, -0.0282015502, 0.0139554031, -0.0011746122, 0.0031408749, -0.0243301280, 0.0044711209, -0.0089728562, -0.0091420896, 0.0039311750, -0.0011817112, 0.0077963690, -0.0010033896, -0.0025491533, 0.0069545647, -0.0134825259, -0.0019041355, -0.0196053050, -0.0097349733, -0.0070812637, -0.0014942400, 0.0173815284, -0.0122498823, -0.0094777271, -0.0025454373, -0.0168080050, 0.0201295484, 0.0189083181, -0.0088656647, -0.0211730916, 0.0300918445, -0.0098032346, -0.0167985130, 0.0121761225, -0.0060184514, -0.0115468539, -0.0052230200, -0.0036523249, -0.0146093415, 0.0056579979, -0.0088842828, 0.0041482681, 0.0092743011, -0.0027968637, 0.0130120674, -0.0063861264, -0.0132693779, -0.0055372831, 0.0052444041, -0.0052114949, -0.0153886806, -0.0034591740, -0.0123298699, -0.0013186048, -0.0042521409, -0.0093383072, -0.0046425271, -0.0017660522, -0.0146752866, -0.0192408022, 0.0004449983, 0.0034098933, -0.0172382798, 0.0014821072, 0.0146431606, 0.0006216588, 0.0104163429, -0.0020411650, 0.0014463227, -0.0136488155, 0.0038595307, -0.0125720026, -0.0115576014, 0.0051800041, -0.0008478474, -0.0040443102, 0.0017667162, -0.0022737677, -0.0111369174, -0.0115974322, -0.0204486623, -0.0226165783, -0.0123170996, -0.0014028159, -0.0206622910, -0.0160518382, -0.0092421193, -0.0080650700, -0.0077931462, -0.0083845081, 0.0267805196, 0.0151838874, -0.0210445970, -0.0034278822, 0.0216378793, -0.0102913221, -0.0040364764, 0.0093539953, -0.0072975550, -0.0122286240, -0.0001626918, -0.0074537029, -0.0188503619, 0.0305090416, -0.0077747032, -0.0060718711, 0.0091881528, -0.0133867888, -0.0034792374, -0.0104564037, -0.0034326797, -0.0108962227, 0.0025863494, -0.0078358641, -0.0194495711, -0.0043649245, -0.0145433825, 0.0078120828, -0.0017612437, -0.0095770592, -0.0037882966, -0.0089652594, -0.0105555533, -0.0183323380, 0.0004349567, 0.0024363424, -0.0189719144, -0.0002353729, 0.0012350788, -0.0135077266, 0.0078325886, -0.0014646273, 0.0012118611, -0.0174787939, 0.0048201075, -0.0103294728, -0.0148303630, 0.0001645469, -0.0004590863, -0.0018090425, 0.0042360309, -0.0021165407, -0.0110847801, -0.0083703687, -0.0102686277, -0.0247909725, -0.0151960030, -0.0042719957, -0.0136421463, -0.0017722123, -0.0050039534, -0.0111015020, -0.0075730383, -0.0079773497, 0.0193550438, 0.0187692586, -0.0153146069, -0.0132448301, 0.0290796384, -0.0109508550, -0.0133622838, 0.0094675673, -0.0075513581, -0.0165585540, -0.0042737671, -0.0067779692, -0.0210631080, 0.0248902477, -0.0040095653, -0.0093854759, 0.0109018981, -0.0129009914, -0.0007391133, -0.0121567277, -0.0126073156, -0.0120484093, 0.0025067707, -0.0080941878, -0.0214152560, -0.0036134331, -0.0117718522, 0.0156845041, -0.0036624658, -0.0089112492, -0.0042534922, -0.0132168522, -0.0045281579, -0.0184232313, -0.0001505698, 0.0010829113, -0.0164711587, -0.0014462348, -0.0118059823, -0.0235658884, 0.0068805539, -0.0011666111, 0.0010859971, -0.0166151132, 0.0033965546, -0.0099293059, -0.0123311589, -0.0053694881, -0.0010263121, 0.0017924103, 0.0020901309, -0.0022285539, -0.0078088604, -0.0105215441, 0.0013226287, -0.0217955057, -0.0131711196, -0.0053907130, -0.0053520687, 0.0102071688, -0.0002339576, -0.0106834499, -0.0070002368, -0.0031130121, 0.0115204537, 0.0206728820, -0.0069681183, -0.0199212525, 0.0299340356, -0.0096892184, -0.0191099029, 0.0112079848, -0.0079574892, -0.0172390267, -0.0058474843, -0.0033893676, -0.0189139415, 0.0187794473, -0.0063369214, -0.0105620539, 0.0103605604, -0.0097799189, 0.0030956932, -0.0100699374, -0.0169113949, -0.0102050863, 0.0036473770, -0.0069237421, -0.0186536163, -0.0018719437, -0.0075116823, 0.0036731916, -0.0051204050, -0.0098862257, -0.0049655847, 0.0089645879, -0.0202452112, -0.0188103206, 0.0002664617, -0.0048278007, -0.0150452033, -0.0005082639, 0.0140778674, 0.0105189169, 0.0036661697, -0.0017021028, 0.0044037653, 0.0026893616, 0.0021268527, -0.0108105969, -0.0043496122, -0.0042047631, 0.0010931809, -0.0081408713, 0.0017622532, -0.0021632186, -0.0227906872, -0.0127774896, -0.0152457217, -0.0177522823, -0.0080633108, 0.0032359441, -0.0229316354, -0.0219963044, 0.0051325290, -0.0066350019, -0.0085667893, 0.0122376084, 0.0164819472, 0.0170230772, -0.0165145583, 0.0004448387, 0.0162766390, -0.0076316879, -0.0033298521, 0.0108663850, -0.0083823754, -0.0119521711, 0.0020528159, -0.0047392286, -0.0190456714, 0.0418734066, -0.0092292475, -0.0181064084, 0.0078950729, -0.0143001657, -0.0114149805, -0.0051879361, -0.0051672086, -0.0105221896, 0.0020330066, -0.0069812173, -0.0164366160, 0.0078756837, -0.0080353599, 0.0137082441, -0.0026818265, -0.0092562269, -0.0039998270, 0.0030927020, -0.0169539396, -0.0178112891, 0.0001213503, -0.0053796223, -0.0157825481, -0.0024358786, 0.0009346069, -0.0041002268, 0.0015061088, -0.0011263596, 0.0046738833, -0.0004184280, 0.0020062663, -0.0085856533, -0.0051473374, -0.0080071194, 0.0015275591, -0.0062629445, 0.0040899245, -0.0020442519, -0.0215561464, -0.0097410660, -0.0044066254, -0.0202105865, -0.0098682791, -0.0000014761, -0.0148930261, -0.0066188043, 0.0101349670, -0.0084739467, -0.0079865884, 0.0148287509, 0.0088411802, 0.0209612343, -0.0081614619, -0.0104785971, 0.0242144149, -0.0078384308, -0.0119799320, 0.0110654458, -0.0090715531, -0.0171687938, -0.0013909349, -0.0036530909, -0.0225560386, 0.0371158496, -0.0060844547, -0.0218161456, 0.0088464571, -0.0113012521, -0.0069709034, -0.0065507158, -0.0129258856, -0.0120390384, 0.0022525168, -0.0066778976, -0.0200417619, 0.0093745077, -0.0073400396, 0.0198623370, -0.0041457238, -0.0084476061, -0.0042798575, -0.0045839907, -0.0103532691, -0.0178322271, 0.0001222135, -0.0062855179, -0.0107776504, -0.0042838207, -0.0146600679, -0.0151208946, 0.0000274165, -0.0004338087, 0.0042472817, -0.0022639616, 0.0011325676, -0.0087858373, -0.0052386653, -0.0134286685, 0.0009285933, -0.0028483111, 0.0015688154, -0.0020727674, -0.0186787490, -0.0112716015, 0.0067616682, -0.0166855380, -0.0102715129, -0.0012760322, -0.0075557115, 0.0038296999, 0.0140888374, -0.0093854666, -0.0077957953, 0.0171851460, 0.0002617759, 0.0220320523, 0.0001514488, -0.0179828852, 0.0248351358, -0.0064187618, -0.0194173306, 0.0128184464, -0.0091285892, -0.0178871434, -0.0038401508, -0.0002912772, -0.0192205049, 0.0302219503, -0.0077250847, -0.0229464993, 0.0089694271, -0.0086286655, -0.0044453852, -0.0051915175, -0.0177754331, -0.0108066890, 0.0035455306, -0.0053186961, -0.0169911478, 0.0092053171, 0.0378169715, -0.0010556019, -0.0043838257, 0.0090765152, 0.0127688264, 0.0140623944, 0.0096913734, -0.0035258371, 0.0106556201, -0.0001548914, 0.0116632953, -0.0002678104, 0.0067361416, 0.0230907630, 0.0013817624, 0.0050152205, 0.0110522350, 0.0628049523, 0.0077086892, 0.0288312268, 0.0090071242, -0.0043213605, 0.0065203044, -0.0056866221, -0.0010161489, 0.0154381813, 0.0194400176, 0.0049022515, 0.0234761052, 0.0251413900, -0.0250412412, 0.0063780467, 0.0036798776, -0.0047175526, 0.0216643699, 0.0230461452, 0.0048941686, 0.0483057089, -0.0057471721, -0.0018962687, 0.0230692048, 0.0229680967, -0.0042485571, 0.0114436075, 0.0044352580, 0.0128286276, 0.0182640254, 0.0033225217, 0.0010895146, 0.0013682536, -0.0018803941, 0.0043486310, 0.0104678711, 0.0087599419, -0.0190460198, -0.0182718188, 0.0103279194, -0.0048252670, 0.0158282425, -0.0448489413, 0.0082871737, 0.0037898661, 0.0056214537, 0.0295577031, 0.0375955850, 0.0045471904, -0.0011987499, 0.0132859945, 0.0251332968, 0.0455618873, 0.0031291023, -0.0014984477, 0.0184558276, -0.0020233192, 0.0290379487, 0.0016457590, 0.0017736221, 0.0609621257, -0.0031352616, 0.0061854217, 0.0158560183, 0.0934667438, 0.0072335009, 0.0375259109, 0.0282294657, -0.0098275989, 0.0093587292, -0.0119800903, 0.0018744469, 0.0153590301, 0.0163129568, 0.0111317737, 0.0194286890, 0.0415432677, 0.0057653533, 0.0115578081, -0.0051870858, -0.0051850434, 0.0414270349, 0.0282403063, 0.0053512752, 0.0861209258, -0.0094533609, 0.0012074360, 0.0388670489, 0.0336480401, -0.0044876020, 0.0279481877, 0.0045774360, 0.0131447511, 0.0257766936, 0.0042386232, 0.0094809560, 0.0022917667, 0.0106646428, 0.0118102292, 0.0126340566, -0.0034154055, -0.0248883106, -0.0128124030, 0.0085781338, 0.0127260806, 0.0220128391, -0.0472722463, 0.0080268160, 0.0072863274, 0.0146924695, 0.0308528487, 0.0121747078, 0.0064514265, -0.0054041175, 0.0083025955, 0.0134384781, 0.0357104465, -0.0038018613, -0.0038392013, 0.0028704079, -0.0068855807, 0.0172369480, -0.0083247619, -0.0048170434, 0.0357443541, -0.0037715172, -0.0002289916, 0.0091297105, 0.0611890480, -0.0023799285, 0.0262285210, 0.0182114542, -0.0113578169, 0.0038421049, -0.0129599823, -0.0023346939, 0.0022787517, 0.0075324029, 0.0055499184, 0.0094890315, 0.0224284586, 0.0174607579, 0.0033511578, -0.0004617019, 0.0096204504, 0.0440205149, 0.0314473473, -0.0079542724, 0.0655595735, -0.0100195967, 0.0049218619, 0.0462466851, 0.0175587274, -0.0059140217, 0.0048483349, 0.0051132538, 0.0044531468, 0.0024049161, -0.0094210356, 0.0071728840, -0.0056090709, -0.0099000949, 0.0089828130, 0.0019811983, -0.0118055968, -0.0246643741, 0.0081522614, 0.0040366682, -0.0080203637, 0.0020218324, -0.0480775908, -0.0002476369, 0.0010335987, -0.0134543087, 0.0213373415, -0.0191225596, -0.0095126145, -0.0067834561, 0.0010671162, -0.0147722643, -0.0363950357, 0.0257985555, -0.0107255438, -0.0027349533, 0.0161250606, -0.0047860378, 0.0061597154, -0.0126192039, -0.0404849462, 0.0070991600, -0.0020506231, -0.0109152775, 0.0141781596, -0.0080955047, 0.0222516805, -0.0550556742, 0.0152519858, -0.0024251551, 0.0062004016, -0.0053419722, 0.0110662086, 0.0451925620, 0.0010503869, -0.0063093072, 0.0099672638, -0.0490306467, 0.0016972768, 0.0109974192, 0.0004628228, 0.0181654021, 0.0224005487, 0.0008505380, -0.0318479203, 0.0031196829, -0.0029093667, 0.0159454159, -0.0181572828, -0.0008910202, -0.0475345589, -0.0080413418, 0.0066853547, 0.0227577295, 0.0061307680, -0.0041339924, -0.0015368634, -0.0264305938, -0.0090019349, 0.0050798543, 0.0209237710, -0.0141996164, -0.0157648437, 0.0064423741, -0.0734620541, -0.0051563731, -0.0551662594, 0.0057896441, -0.0025780557, -0.0360343307, -0.0108945146, -0.0368030928, -0.0163471382, -0.0048209499, 0.0014112476, -0.0093268193, -0.0479288027, 0.0319739431, -0.0094464626, 0.0117818723, 0.0192508064, -0.0132175712, 0.0084791752, -0.0270009562, -0.0264585223, 0.0058133989, 0.0026092951, -0.0214147624, 0.0333730020, -0.0111717684, 0.0332672782, -0.0734267905, 0.0072657526, -0.0046440861, 0.0055848556, -0.0013948751, 0.0184483305, 0.0591720827, 0.0106193721, -0.0118203145, 0.0139837395, -0.0719566420, 0.0116018886, 0.0031841490, -0.0110473502, 0.0253426228, 0.0145706777, 0.0125249168, -0.0360041447, 0.0040326854, -0.0078386990, 0.0003161643, 0.0029100031, -0.0016943784, -0.0417338796, -0.0127297770, 0.0063470355, 0.0429305322, 0.0136127928, -0.0122006182, -0.0002144547, -0.0102526192, -0.0077233897, 0.0084220888, 0.0320648737, -0.0147853475, -0.0219709929, 0.0070791682, -0.0745722279, -0.0002269010, -0.0472947992, 0.0078811925, -0.0054418324, -0.0122487647, -0.0155030079, -0.0243640933, -0.0170876738, -0.0090843868, -0.0012664043, -0.0108467462, -0.0221449751, 0.0088755591, -0.0089911213, 0.0011468190, 0.0087643433, -0.0190702677, 0.0057518394, -0.0167228281, -0.0091092084, 0.0036210280, -0.0020512543, -0.0092851119, 0.0344638415, -0.0179305971, 0.0244850758, -0.0623229407, 0.0092973681, -0.0047385069, -0.0034128914, -0.0033201193, 0.0046994234, 0.0310409628, 0.0053770202, -0.0144782392, 0.0051760562, -0.0467263982, 0.0066091097, -0.0028493986, 0.0003011271, 0.0280080866, 0.0281970054, 0.0025892723, -0.0230375249, 0.0010851219, -0.0064720926, -0.0024257672, 0.0131436689, -0.0055560926, -0.0315751657, 0.0093528768, -0.0035176128, 0.0200593248, -0.0038959365, -0.0179971308, -0.0066732024, -0.0121075800, -0.0044336566, -0.0023492582, 0.0154198799, -0.0186298490, -0.0248823147, 0.0008439172, -0.0617446378, 0.0062568160, -0.0515043661, 0.0000129551, -0.0125479233, -0.0097429641, -0.0078199450, -0.0157704763, -0.0048425617, -0.0029283257, -0.0050419020, -0.0175507814, -0.0214566402, -0.0084741544, -0.0086630266, -0.0143637797, 0.0177732687, -0.0105529586, 0.0145244421, 0.0071744029, -0.0310721844, 0.0128634227, -0.0044054999, 0.0030180207, -0.0112160044, -0.0011573014, 0.0120737841, -0.0122987358, 0.0153918341, 0.0023782603, 0.0110447435, -0.0024516848, -0.0124014476, 0.0257343631, -0.0024938420, -0.0246777628, 0.0108353058, -0.0177953057, -0.0182979200, 0.0142393699, 0.0028416882, -0.0220920350, 0.0162303839, -0.0221942272, -0.0173698664, 0.0092300391, 0.0051786471, -0.0018438980, -0.0198262036, 0.0062655802, -0.0154406009, 0.0052490439, 0.0126276063, 0.0033937492, -0.0120964441, 0.0063487655, 0.0013209198, -0.0252596121, -0.0017195862, 0.0066068536, 0.0065479884, -0.0077201407, -0.0070716520, 0.0249365214, -0.0401406251, -0.0119246561, -0.0636182204, 0.0050766529, -0.0059269760, -0.0288906470, 0.0353289805, -0.0062174476, -0.0040407688, 0.0009370741, -0.0046545658, -0.0184692480, -0.0413529761, -0.0093936725, -0.0067550549, -0.0204813480, 0.0245554354, -0.0106212785, 0.0166735929, 0.0085148606, -0.0545849279, 0.0174162704, -0.0054715374, 0.0059915748, -0.0294653140, -0.0024856066, 0.0277583301, -0.0165171046, 0.0201049857, 0.0020029978, 0.0124046691, 0.0005578031, -0.0095657948, 0.0336325094, 0.0047879191, -0.0231949408, 0.0058250139, -0.0339455232, -0.0226389617, 0.0072873323, 0.0113508804, -0.0275720544, 0.0201032944, -0.0182018932, -0.0250510518, 0.0135095874, 0.0043788920, -0.0032796478, -0.0186856389, 0.0093371095, -0.0253149606, 0.0039179185, 0.0136372475, -0.0016093322, -0.0094651505, -0.0014468904, 0.0012111843, -0.0481861606, -0.0035494284, 0.0091516692, 0.0180649944, -0.0053936639, -0.0099374224, 0.0367185362, -0.0498605892, -0.0183383059, -0.0696026012, 0.0049058483, -0.0080667334, -0.0505231880, 0.0414647050, 0.0070001846, -0.0041864980, -0.0033785594, -0.0023827555, -0.0154112717, -0.0331250019, -0.0042691925, -0.0050430065, -0.0066668512, 0.0161957890, 0.0075340457, 0.0109295072, 0.0072635938, -0.0415162928, 0.0118560037, -0.0028755742, 0.0099136680, -0.0113130007, -0.0111986902, 0.0243339110, -0.0153927431, 0.0151195042, 0.0029143107, 0.0055540549, 0.0001315254, -0.0101939104, 0.0240336284, 0.0032895601, -0.0077428333, 0.0188610144, -0.0323572382, -0.0202376116, 0.0038032888, 0.0168664251, -0.0159567837, 0.0216891821, -0.0067340638, -0.0134169338, 0.0073034302, 0.0006700606, 0.0030349155, -0.0025504818, 0.0035929410, -0.0129390340, 0.0149983838, 0.0031117690, -0.0030252966, -0.0066550015, -0.0134209767, -0.0028485400, -0.0350222662, -0.0007272346, 0.0024854322, 0.0174702331, -0.0094942106, -0.0144144297, 0.0280743893, -0.0427652337, -0.0082953805, -0.0584406443, 0.0011231767, -0.0109051373, -0.0315449387, 0.0390281789, 0.0139756575, -0.0229203496, -0.0129586197, 0.0054018162, 0.0208830629, 0.0026150281, 0.0038014390, 0.0095561864, 0.0151921483, -0.0104720099, 0.0157088116, -0.0052490025, -0.0020392621, 0.0530187972, -0.0074543096, 0.0098005002, -0.0055121910, 0.0344832949, -0.0236417316, 0.0090947850, -0.0044673877, -0.0099945450, 0.0048039085, -0.0049989270, 0.0000164782, 0.0107683828, -0.0062100156, 0.0099489251, 0.0095059406, 0.0258048363, 0.0078207906, 0.0053201700, -0.0143478280, -0.0155912768, -0.0136660216, -0.0073658861, 0.0161502026, 0.0252170134, -0.0134098884, -0.0159505866, -0.0220012143, 0.0472939163, -0.0196539573, 0.0306784045, 0.0195560995, -0.0125808036, 0.0132478336, 0.0131923929, -0.0061545703, -0.0115542989, 0.0035721278, -0.0220171437, -0.0259688757, -0.0066966442, -0.0061717317, -0.0038796521, -0.0118570067, 0.0092889154, 0.0141075915, 0.0051959660, -0.0042490456, -0.0148562957, 0.0305225104, 0.0025751407, 0.0068777772, -0.0162224416, -0.0111892410, 0.0007188302, 0.0114558814, 0.0225220658, -0.0150401341, 0.0124986107, 0.0147414291, -0.0072680414, 0.0197896678, -0.0086190235, 0.0138652697, 0.0744073391, -0.0046255076, 0.0035817246, 0.0131396158, 0.0212877244, -0.0229256712, -0.0034259227, 0.0013686660, 0.0085465517, 0.0109571656, -0.0056254277, -0.0012329421, -0.0110968538, -0.0091769304, -0.0022024817, -0.0246705730, 0.0205248781, 0.0467524156, -0.0003622720, -0.0131026004, -0.0133968089, -0.0179639589, 0.0238610450, -0.0044681481, 0.0012323615, -0.0145482756, -0.0107476264, -0.0208336581, 0.0256680250, -0.0194168761, 0.0059538847, 0.0369712971, -0.0172898192, 0.0063374555, 0.0275724027, 0.0291319769, -0.0156229427, -0.0045929267, -0.0215608552, -0.0294744540, -0.0043758517, -0.0086753350, 0.0175946616, -0.0072531868, 0.0021665930, 0.0457238853, 0.0032388042, -0.0029381318, -0.0153944585, 0.0095168808, -0.0057076928, 0.0111724688, -0.0030741678, -0.0094387019, -0.0048589394, -0.0196949113, 0.0049735573, -0.0054838913, 0.0058388459, 0.0024650306, -0.0060651079, 0.0085714674, -0.0144638875, -0.0025869315, 0.0070917206, -0.0064460952, -0.0042729280, 0.0066808825, 0.0025583303, -0.0180455595, 0.0046899579, -0.0040449840, -0.0005127622, 0.0054690880, -0.0036036291, -0.0092352992, -0.0193829034, -0.0027999897, -0.0131891193, -0.0235270206, 0.0001283173, 0.0119751133, -0.0125360582, -0.0088389963, -0.0132747917, -0.0147950957, 0.0044358810, -0.0019209003, -0.0176518746, -0.0136004090, -0.0095062722, -0.0128408084, 0.0071708933, -0.0182190780, -0.0130779352, 0.0087682251, -0.0198767111, -0.0046006283, 0.0103022391, 0.0120315440, -0.0185646452, -0.0077784825, -0.0180805828, -0.0278596375, -0.0042332290, -0.0099504497, 0.0113073122, -0.0046297461, 0.0035261910, 0.0177572630, 0.0072313268, -0.0156890433, -0.0075288275, 0.0057227402, -0.0214421172, 0.0129218930, -0.0185527243, -0.0138743157, 0.0198223703, 0.0177588854, -0.0071318904, 0.0540486351, 0.0104810316, 0.0514615327, -0.0014902052, 0.0482138284, 0.0012525149, -0.0130685996, 0.0381447524, -0.0075161229, 0.0243184026, -0.0090974299, 0.0174557436, -0.0276571494, 0.0334370732, -0.0107986033, -0.0082428250, 0.0058128955, 0.0018513273, 0.0028004523, 0.0363422371, 0.0384707972, 0.0183411911, 0.0243331641, 0.0384551622, 0.0057898066, 0.0088137696, -0.0023295949, -0.0049815350, -0.0169129856, -0.0026481338, 0.0432816669, -0.0034557076, -0.0162301920, -0.0133521296, -0.0110764382, 0.0453545414, -0.0203851368, 0.0320760906, 0.0131278839, -0.0032202739, 0.0532122627, 0.0390409119, -0.0149410404, 0.0022239960, 0.0356704779, -0.0171611980, -0.0255904216, 0.0270161964, -0.0049637076, 0.0284892451, -0.0060472623, 0.0175669435, 0.0258583724, 0.0213681683, 0.0172718931, -0.0108931847, 0.0604022592, -0.0033595727, 0.0351226889, -0.0089921299, -0.0133856600, 0.0136833647, 0.0116022825, 0.0288401302, -0.0071221353, 0.0121580083, 0.0471166447, -0.0062475512, 0.0373208150, 0.0016887096, 0.0117623033, 0.0955809727, -0.0082191415, 0.0154806655, 0.0115234610, 0.0268173423, -0.0274251364, 0.0009272688, -0.0029499270, 0.0146211348, 0.0113274120, -0.0062525887, 0.0029530919, 0.0021412906, 0.0044981115, 0.0046900897, -0.0242746770, 0.0334368572, 0.0267804321, 0.0093623297, -0.0118020745, -0.0160582215, -0.0184746068, 0.0351064801, 0.0065547293, -0.0052223424, -0.0200927146, -0.0083036469, -0.0137930820, 0.0363580845, -0.0227903277, 0.0111590475, 0.0438976437, -0.0102344695, 0.0520498119, 0.0598621219, 0.0282392595, -0.0022907220, 0.0345333852, -0.0154949166, -0.0318869166, 0.0071253465, -0.0093750777, 0.0010773863, -0.0076689008, 0.0159714594, 0.1049856693, 0.0180893559, 0.0172109138, -0.0099559138, 0.0447364189, -0.0155327516, 0.0216566566, -0.0013272709, -0.0087625850, 0.0026438828, -0.0160109885, 0.0099038687, -0.0199860726, 0.0071193464, -0.0028327196, -0.0106531540, 0.0120442724, -0.0144326538, 0.0049359212, 0.0238782354, -0.0069743684, 0.0017985792, 0.0033054198, 0.0058610109, -0.0197015312, 0.0028312611, 0.0032926279, -0.0020361315, 0.0032814390, -0.0056674834, -0.0056070657, -0.0198183935, -0.0153046353, -0.0098334849, -0.0295978393, 0.0007562894, 0.0128525030, -0.0041409694, -0.0139990272, -0.0189311039, -0.0167630780, 0.0083503304, -0.0117603932, -0.0047598914, -0.0144185117, -0.0073323851, -0.0119877588, 0.0145249218, -0.0197750684, -0.0106712831, 0.0155481538, -0.0118992692, -0.0003593359, 0.0161449574, 0.0196742862, -0.0072755413, -0.0125527885, -0.0135469558, -0.0320932008, -0.0134872682, -0.0080615049, 0.0026120527, -0.0088047208, 0.0025377222, 0.0387312658, 0.0072915051, -0.0022202434, -0.0074288035, -0.0014960596, -0.0114830295, 0.0044059362, -0.0094267959, -0.0170742609, 0.0095493272, -0.0113181127, -0.0181514192, 0.0212839879, 0.0026387919, 0.0127189057, 0.0086377431, 0.0113315331, -0.0041434974, -0.0141137308, -0.0211793408, -0.0046370695, 0.0051921299, -0.0039316076, -0.0157907400, -0.0234578047, 0.0072133825, 0.0138609437, -0.0054311636, 0.0041286745, 0.0041368171, -0.0095594889, 0.0139150349, 0.0479586162, 0.0004709634, -0.0166606605, -0.0013806500, 0.0049604345, -0.0043476108, -0.0056343493, -0.0059518763, -0.0231182370, -0.0120030260, 0.0135077545, -0.0193694439, -0.0190773159, -0.0103239808, -0.0126977516, 0.0044560246, -0.0226555560, -0.0102079604, -0.0009109172, 0.0026211592, 0.0221574139, 0.0208322871, -0.0123116523, 0.0008411675, -0.0041259294, -0.0168065373, -0.0318095572, 0.0219801832, 0.0012126483, 0.0110930884, 0.0139866127, 0.0056859320, 0.0075584459, 0.0089325253, 0.0103368368, -0.0045339577, 0.0051618903, -0.0088053653, 0.0311630405, -0.0098041911, -0.0177672971, 0.0074889152, -0.0159373507, -0.0099758217, -0.0070476369, 0.0024315834, 0.0148812896, 0.0002337453, 0.0125015397, -0.0031295044, -0.0033994992, 0.0076434501, -0.0072378735, 0.0056132060, -0.0028592849, 0.0094944667, -0.0245911554, -0.0045601721, 0.0014483187, 0.0024104048, 0.0037104278, -0.0014522184, -0.0098113697, -0.0027478831, 0.0148203550, -0.0080101807, -0.0279294848, 0.0088022826, -0.0101016173, -0.0032495211, -0.0114256945, -0.0185092334, -0.0201100316, 0.0060495115, 0.0046609901, -0.0168459564, -0.0206961967, -0.0116482303, -0.0165897664, 0.0155614018, -0.0261382740, -0.0126145007, 0.0147821642, -0.0039432389, 0.0249177739, 0.0184581410, -0.0032783602, -0.0002940330, 0.0001222793, -0.0154373618, -0.0367138460, 0.0086732432, -0.0047438322, -0.0139451250, -0.0047246809, 0.0010369041, 0.0531972982, 0.0088859499, 0.0097660720, -0.0047893953, 0.0204375144, -0.0189982001, 0.0178023316, -0.0123496391, -0.0122076506, -0.0025480581, -0.0234746970, -0.0023247383, -0.0101225432, 0.0012768153, 0.0017612745, -0.0136667239, 0.0176942963, -0.0134876696, -0.0046087746, 0.0067115533, -0.0072403802, -0.0007031331, -0.0008093066, 0.0163084362, -0.0173290670, 0.0023350080, -0.0077735935, -0.0046592248, 0.0010928494, -0.0023449142, -0.0131229293, -0.0178805813, -0.0117191020, -0.0168776754, -0.0269715972, -0.0004688703, 0.0034976024, -0.0042903950, -0.0138657270, -0.0240501855, -0.0129818879, 0.0084119728, -0.0111372583, -0.0087584266, -0.0169074778, -0.0100373337, -0.0214333646, 0.0073563661, -0.0239908211, -0.0045883427, 0.0132291531, -0.0081909336, 0.0016986118, 0.0091237137, 0.0039362540, -0.0059472797, 0.0066646063, -0.0150832990, -0.0321101993, -0.0052335854, -0.0085659111, -0.0016288977, -0.0149915088, -0.0011229515, 0.0237757787, 0.0031426088, -0.0043273284, -0.0057650567, 0.0080963606, -0.0115968632, -0.0197950080, -0.0076021692, -0.1483778805, -0.0752580315, -0.0665591061, 0.0228068642, -0.0028053350, -0.1531889439, 0.0071457806, -0.0105332276, -0.0199018549, 0.0656610578, -0.0112741739, 0.0141052194, 0.0303318091, -0.0874005854, -0.0056514768, 0.0053414651, 0.2021288723, 0.0002057165, 0.0096730832, -0.0041566584, -0.0190162919, 0.0710065737, -0.2033930421, 0.0557154045, 0.0019306961, -0.2553948462, -0.0208762698, 0.0177163519, 0.0217055008, 0.1077870354, 0.0248919819, 0.0019096234, -0.0081553170, 0.0076928004, -0.0000618937, -0.0068383398, -0.0138781453, 0.0525763892, 0.0066802790, 0.0000412239, -0.0319556482, -0.0081846155, -0.0135642663, 0.2595090568, 0.0165378228, -0.0172471702, 0.0390816182, 0.0815576464, 0.0203102455, -0.0018961094, -0.0625117868, -0.0073016672, 0.0253428072, 0.0353057124, -0.0068086148, 0.0065696104, 0.0153259700, 0.0023830787, -0.0094499532, 0.1340641230, 0.0330125540, -0.0226100925, 0.0128915515, -0.0051237973, -0.1729209125, 0.0318029523, -0.0600696318, 0.0071735396, 0.0147263510, -0.0959611684, -0.0062050330, -0.0141521990, 0.0193067286, 0.0680570900, -0.0021709127, -0.0049002492, 0.0456849709, 0.0180187263, 0.0007222059, 0.0071305064, 0.1200679168, 0.0256282054, 0.0077009499, 0.0015681329, -0.0214696638, 0.0823263749, -0.1308855712, 0.0676437616, 0.0112866964, -0.2158008516, -0.0009265259, 0.0178594496, -0.0003539539, 0.1231811270, 0.0232799761, 0.0069909617, 0.0059623797, 0.0039038749, 0.0131339906, 0.0000553605, 0.0026700997, 0.0354191177, 0.0171962865, 0.0133581674, -0.0331226774, 0.0006961181, -0.0012925335, 0.2716739178, 0.0209824499, 0.0049324175, 0.0198798198, 0.1706935763, 0.0255231541, -0.0075548911, -0.1354212016, 0.0166022219, 0.0394383892, 0.0206309464, 0.0039029715, 0.0148517927, 0.0078198640, 0.0022283557, 0.1265916228, 0.1083741561, 0.0204576347, 0.0048240959, 0.0167699102, -0.0108107515, -0.1956362873, 0.1147908643, -0.0627718791, 0.0067769308, 0.0101952804, -0.0363645367, -0.0183329228, -0.0313385688, 0.0120855821, 0.0447692312, 0.0064723282, -0.0198790934, 0.0401166603, 0.0981170461, 0.0200206898, 0.0054524471, -0.0448776819, 0.0186630674, -0.0047022328, 0.0080004828, -0.0168054365, 0.0536538102, -0.0543144010, 0.0604923926, -0.0063881734, -0.1612068266, 0.0080128396, -0.0029486583, -0.0081518274, 0.0973540470, -0.0133596975, 0.0157078970, -0.0008542365, 0.0103610326, 0.0366947204, -0.0062614242, 0.0032463595, 0.0026471869, 0.0193444770, 0.0202519335, -0.0361658148, -0.0161974560, 0.0093015805, 0.1799108237, -0.0054212399, -0.0015280312, -0.0250475295, 0.1930673867, -0.0147681199, -0.0068857092, -0.2225516587, -0.0023808188, 0.0260511711, -0.0213326551, -0.0091887219, -0.0003890843, 0.0073021967, -0.0057765711, 0.2073044479, 0.0356898569, -0.0175455846, 0.0056258175, 0.0042014094, 0.0088648051, 0.0281597171, -0.0930960327, -0.0130543411, 0.0018622240, -0.0122822309, -0.0664245188, -0.0123633612, 0.0035387189, 0.0006237197, 0.0138133215, -0.0116007458, 0.0044814846, -0.0017336237, -0.0957862288, -0.0272894464, -0.0003206742, 0.1385090351, 0.0029086210, 0.0230043288, -0.0186668653, -0.0135415923, 0.0029774189, -0.0770928487, -0.0042421776, -0.0125322165, -0.0492281690, -0.0132524204, 0.0065717166, 0.0025405039, 0.0107593713, 0.0148998583, -0.0004053986, -0.0073305676, -0.0010844761, -0.0125492113, -0.0014681712, -0.0042160572, 0.0190094635, -0.0027629887, -0.0000918595, -0.0056914641, -0.0001809990, -0.0138335330, 0.0430911966, -0.0024349799, -0.0081652412, 0.0188379418, -0.0614399128, 0.0161465425, 0.0044678976, 0.0782870129, -0.0112059405, -0.0035858518, 0.0079628425, 0.0084208455, 0.0162855536, 0.0001212700, 0.0128062591, -0.1133427247, 0.0479950570, 0.0172544941, -0.0197187029, 0.0476796627, 0.0223767366, 0.0158936642, 0.0150000006, 0.0010188159, 0.0291498192, -0.0060958657, 0.0064245877, -0.0191864725, 0.0065499428, 0.0383899510, 0.0128850369, 0.0343499929, -0.0025007385, 0.0176604204, 0.0114696091, -0.0097025624, 0.0082608676, 0.0335224830, 0.0229063351, 0.0555653609, 0.0109278522, -0.0087871859, 0.0067424728, 0.0134825716, 0.0010602674, 0.0014967053, 0.0142696984, -0.0133670857, 0.0018478018, 0.0343284719, 0.0084452778, 0.0088339457, 0.0098269740, 0.0131957941, 0.0143942516, -0.0064522466, 0.0182411503, 0.0138198705, 0.0053262492, 0.0256136097, 0.0020456638, -0.0005800431, 0.0028868762, 0.0131394388, 0.0262344740, -0.0042673117, 0.0378540531, 0.0146693634, 0.0080149677, 0.0225511473, 0.0092264405, 0.0089493459, 0.0285360925, -0.0038905935, 0.0252556223, 0.0347245522, 0.0203274433, 0.0156972408, 0.0329964980, 0.0157679915, 0.0098257484, -0.0063370080, 0.0029855841, 0.0051639834, -0.0064434214, -0.0221224166, 0.0983844623, -0.0053056316, -0.0107177291, 0.0055241007, 0.0613213442, -0.0302954260, -0.0132492166, 0.0029596689, -0.0178245641, 0.0114425141, -0.0247235764, 0.0042253803, 0.1022073552, -0.0097114565, -0.0126759084, -0.1292290986, 0.0111782458, 0.0045406409, -0.0033333011, -0.0107172411, -0.0082946932, 0.0846714005, -0.0007967800, -0.0146634076, 0.0521823801, 0.0125344638, -0.0046364660, -0.0132665019, -0.0130967228, -0.0082291914, -0.0059196157, -0.0066194646, -0.0109405993, 0.0060251271, -0.0129375532, 0.0062239072, -0.0328562893, -0.0023487830, 0.0105008911, -0.0062383972, -0.0007119654, -0.0000357616, -0.0500490181, -0.0145084681, -0.0058975276, -0.0252508186, 0.0517982654, 0.0091042444, -0.0058018873, -0.0881263614, 0.0048732469, -0.0060111531, -0.0150021212, -0.0016660279, -0.0003677294, -0.0132184252, 0.0040188688, 0.1092422083, -0.0633637905, -0.0039648321, 0.0025970009, 0.0132720890, 0.0282413997, 0.1883703768, -0.1023101434, 0.0447837710, -0.0299611893, -0.0034144982, 0.0253278054, -0.0187736657, 0.0227316413, 0.0139842937, -0.0431439951, -0.0010188487, 0.0106251240, -0.0385705754, -0.0932029933, -0.0077169701, -0.0302611813, 0.0319647640, 0.0077305045, -0.0042280466, 0.0040426631, 0.0121169696, -0.0650049224, 0.0572832637, -0.0553475358, -0.0088962242, 0.1543145180, 0.0028078724, 0.0148205226, 0.0061635724, -0.0924372673, 0.0253244247, 0.0128413728, -0.0043260842, 0.0129061611, -0.0338253379, -0.0124214254, 0.0054633087, -0.0152215501, 0.0096224612, -0.0058570062, 0.0343158022, -0.0058267456, 0.0083175888, -0.1944306493, -0.0047622216, 0.0222086981, 0.0437350087, -0.2040187120, -0.0093091233, 0.0046621445, 0.2095959187, -0.0014534752, -0.0467602424, 0.0237467699, 0.0170810390, -0.0122432085, 0.0035015142, 0.0183311943, -0.2018691003, -0.0509019308, -0.0201922562, 0.0127877081, 0.0102842413, 0.0199819207, 0.1854183078, -0.0081535624, 0.0675144345, -0.0007467961, -0.0059909169, 0.0993478075, -0.0208289325, 0.0244751945, 0.0089122718, -0.0385947526, 0.0194395538, 0.0216654819, -0.0345256031, 0.0078145964, -0.0124296406, -0.0046871854, -0.0791556090, 0.0197621472, -0.0149613013, 0.0170788430, 0.0108776670, -0.0705273002, 0.1583028138, -0.0533722527, -0.0037947826, 0.2357810736, -0.0005681769, 0.0093301460, -0.0053609251, -0.0980101600, 0.0129705174, -0.0036097667, 0.0067149075, 0.0045087761, -0.0093005858, -0.0100012571, 0.0174111817, -0.0358061902, -0.0041089039, 0.0094836429, 0.0454928018, 0.0080219237, 0.0150411949, -0.2320566773, 0.0078350082, 0.0327676237, 0.0222301055, -0.1515949368, 0.0127552887, 0.0245894659, 0.1562369317, 0.0182777420, -0.0486526452, 0.0146505432, 0.0117822010, 0.0101477439, 0.0079450523, 0.0270111393, -0.0958183780, -0.0986143425, 0.0135669392, 0.0205368996, -0.0134090977, -0.0056469552, 0.1353076249, 0.0726264641, 0.0561243519, 0.0064287973, -0.0045352769, 0.1428594440, -0.0163088422, 0.0063313041, -0.0113074072, -0.0649505481, 0.0146538112, 0.0081414524, -0.0373842008, 0.0929872468, 0.0027864219, -0.0082551474, -0.2101397067, 0.0282141659, -0.0151965776, 0.0036600081, 0.0151625648, -0.0743701234, 0.2110378742, -0.0508133769, -0.0085611045, 0.2503094077, 0.0149067314, -0.0045843641, 0.0122594927, -0.1124044135, -0.0026372958, 0.0087125311, -0.0071727387, -0.0008154361, 0.0087739797, -0.0113001568, 0.0079771886, -0.0598013327, -0.0140796471, 0.0212477744, 0.0365968980, 0.0027213797, 0.0207849573, -0.2697129846, -0.0121191638, -0.0028084954, -0.0184482783, -0.0960323289, -0.0035115366, 0.0098419683, 0.0523808375, 0.0094567975, -0.0517163835, 0.0196411218, 0.0017879738, 0.0007317035, -0.0228077509, 0.0020518592, 0.0028781998, -0.1519753337, 0.0129940212, 0.0413987823, 0.0481314771, 0.0706363395, -0.0101205315, -0.0065217959, -0.0017554136, -0.0170668084, 0.0438892096, -0.0201220084, -0.0202749912, -0.0016602498, -0.0297759473, -0.0261800848, -0.0428550430, -0.0624895766, 0.0061006756, -0.0012174180, -0.0343187638, 0.0027528959, 0.0018053954, -0.0190725904, 0.0231347494, 0.0197245441, -0.0285923239, 0.0146205788, -0.0139368158, 0.0172513314, 0.0675454959, -0.0008797269, 0.0939356312, -0.0225849319, 0.0362669751, -0.0252706427, 0.1292585433, 0.1529348344, 0.0437934659, 0.0271735992, 0.0110357422, 0.0082416879, -0.0063018515, 0.0428647548, 0.0762343183, -0.0411409512, 0.0347803272, 0.0020508154, -0.0014864671, 0.0073290323, -0.0248588193, -0.0042249109, 0.0154877342, -0.0143079571, 0.0457125865, -0.0099496953, -0.0019567846, 0.0211342368, -0.0399443768, 0.1065257564, 0.0866656676, 0.0033065458, 0.0325522013, 0.0304246843, -0.0103089344, 0.0025816865, 0.0629977435, -0.0119527215, -0.0272318982, -0.0005154276, -0.0099600051, 0.0039955936, 0.0185364522, -0.0340751782, 0.0383333601, -0.0047694887, -0.0343605019, -0.0004918774, 0.0005459192, -0.0010440106, -0.0422820263, 0.0089169079, -0.0128743006, 0.0070174360, -0.0317323096, 0.0339184403, -0.0010676783, -0.0830608606, 0.0178133342, -0.0373177268, -0.0319262594, 0.0022436744, -0.0055973521, 0.0176524483, 0.0157832447, 0.0011897096, 0.0441046767, 0.0234422795, -0.0002782047, 0.0074585066, 0.0791825801, -0.0031610916, -0.0023129235, -0.0680176094, -0.0023559672, 0.0396003239, -0.0090142107, 0.0019375192, 0.0199862346, -0.0211274996, 0.0070597408, 0.0162951481, -0.0161719173, 0.0077138222, 0.0348306149, 0.0005433509, -0.0099743130, 0.0101634422, 0.0085293595, -0.0057278774, -0.0064859968, -0.0339941420, -0.0128937345, -0.0414100103, -0.0039385976, 0.0211356059, -0.0029568947, 0.0076851062, 0.0129498634, 0.0002767809, 0.0163288116, -0.0249760784, -0.0305760838, -0.0199801903, 0.0005926230, 0.0063257017, 0.0048726751, -0.0099438876, 0.0087886397, 0.0030857883, -0.0172546450, 0.0053742160, -0.0236971155, -0.0161614902, -0.0052241408, -0.0144378971, 0.0025825899, 0.0112439767, -0.0141319437, 0.0342625789, 0.0098605901, -0.0362634361, 0.0103661651, -0.0013504243, -0.0084874341, 0.0030227487, -0.0058417236, 0.0087717101, 0.0265164878, 0.0012570461, -0.0433425866, -0.0758571029, 0.0025433705, 0.0145576028, -0.0215860773, -0.0113317724, -0.0135698551, -0.0626411214, 0.0244544856, -0.0066407071, 0.0057436330, -0.0036081185, -0.0324188918, 0.0068488657, -0.0072943554, -0.0170800127, -0.0307039171, 0.0067020408, 0.0100199711, -0.0287664849, -0.0397332869, 0.0035762968, 0.0021853170, 0.0008372516, 0.0018876785, 0.0079607582, 0.0119933346, -0.0000471859, 0.0023897609, 0.0202355664, -0.0126606133, 0.0065235305, 0.0106722824, 0.0011775432, 0.0156754609, -0.0188855678, 0.0825078636, 0.1302132756, 0.0032474597, 0.0089454856, 0.0139413355, 0.0573966131, 0.0131267123, -0.0156248193, -0.0382829309, -0.0121035734, 0.0157530531, -0.0454518534, -0.0576165803, -0.0683115125, -0.0066060778, -0.0059152432, -0.0185654480, 0.0422765240, 0.0053308834, -0.0086709773, 0.1196077988, -0.0025982182, -0.0192577410, -0.0016557223, -0.0119644348, 0.0081680669, 0.0158472396, 0.0029857182, 0.1022042632, -0.0437717661, 0.0971942991, -0.0312591977, 0.0947512239, 0.1891974807, 0.0988839269, 0.0288817938, 0.0093566393, 0.1179855242, -0.0278426390, 0.0619284064, 0.1612375826, -0.0623779222, 0.0276508760, 0.0139772426, -0.0301777832, 0.0082876040, -0.0922513306, -0.0713162944, 0.0056520398, -0.0132038165, -0.0025742180, 0.0257160738, 0.0018978468, -0.0357586294, -0.0393887274, 0.1194271445, 0.0675751641, 0.0629767105, -0.0045540459, 0.0324430279, -0.0206789244, 0.0240981951, -0.0142804254, 0.0006748674, -0.0922938809, -0.0120155122, -0.0012901081, 0.0001302335, 0.0298582632, -0.0585963279, 0.0514529608, -0.0026618047, -0.0174171310, 0.0077973730, 0.0188942943, -0.0073767980, -0.0543047450, 0.0238001999, -0.0122453691, 0.0144904684, -0.0485933088, 0.0071999757, 0.0050719632, -0.1169302091, 0.0074990690, -0.0590118654, -0.0283291657, 0.0113584734, 0.0007341377, 0.0187422838, 0.0344320126, 0.0107138129, 0.0432380252, 0.0325494222, -0.0338147283, 0.0110912351, 0.0617708638, -0.0622030236, -0.0223887805, -0.0993056521, -0.0224272013, 0.0213686973, -0.0052948128, -0.0015652536, 0.0077012577, -0.0246541053, 0.0072616246, 0.0397848748, -0.0320869908, 0.0146208126, 0.0446142033, 0.0198538993, -0.0060850745, 0.0137748457, 0.0462190881, -0.0044394420, 0.0044819266, 0.0039299321, -0.0081259664, -0.0258454587, -0.0304232389, 0.0257091671, -0.0178105999, 0.0211793147, 0.0187195521, -0.0019042615, 0.0261592809, -0.0132934097, -0.0610913895, -0.0316869877, 0.0094225584, 0.0002941382, 0.0062947823, -0.0076594725, -0.0138810165, 0.0017919927, -0.0249567330, 0.0232256949, -0.0258817654, -0.0156790782, 0.0123189092, -0.0169786066, 0.0136611462, 0.0024253323, -0.0237870384, -0.0065978449, 0.0175312776, -0.0569508970, -0.0049835443, -0.0004421829, -0.0164359715, 0.0068652765, -0.0007386152, 0.0001864888, 0.0187831931, 0.0073665041, -0.0956784412, -0.1280004829, -0.0118582984, 0.0165545642, -0.0897035524, -0.0579858162, -0.0345862843, -0.0799060687, -0.0104678711, -0.0393006243, 0.0239086058, -0.0022978140, -0.0748379827, -0.0153863579, -0.0016544844, -0.0103835911, -0.0391571932, 0.0142601542, 0.0064022974, -0.0352422670, -0.0535750799, 0.0058133728, 0.0159481205, 0.0030231797, 0.0083182612, 0.0499307029, 0.0236784723, -0.0460990518, -0.0024857782, 0.0045597884, -0.0343915112, 0.0129808858, 0.0140542826, -0.0045230258, -0.0461109355, -0.0041091596, -0.0281170961, 0.0351129808, -0.0015035401, -0.0036383504, 0.0250313561, 0.0126666138, 0.0267040543, -0.0093849357, -0.0261585023, -0.0128073590, 0.0318240710, -0.0299164038, -0.0309939515, 0.0287081338, -0.0081581138, -0.0002644069, -0.0312961973, 0.0453898646, -0.0000899865, -0.0551645868, 0.0040742340, 0.0047151474, -0.0203293599, -0.0056304839, -0.0009420005, 0.0043519693, 0.0103800185, 0.0039205574, 0.0215874463, -0.0292749703, 0.0287620034, 0.0153087648, 0.0018017918, 0.0387111828, 0.0908803344, -0.0185058732, -0.0064622061, 0.0553961731, -0.0141867846, 0.0219569355, 0.0326159410, -0.0119260615, 0.0110953273, 0.0283214040, 0.0099141253, -0.0048601166, -0.0174782667, 0.0095572835, -0.0042911833, -0.0145588089, 0.0580618083, 0.0233796760, -0.0005603017, 0.0073706983, -0.0276036840, 0.0171464290, -0.0115812169, 0.0219173152, 0.0214629918, 0.0452577211, -0.0076185158, -0.0020857947, -0.0059956084, -0.0107194614, -0.0662882179, -0.0322743803, -0.0001102629, -0.0091486406, 0.0133074839, -0.0162060391, 0.0064211753, -0.0005133162, -0.0388610847, 0.0137513075, -0.0535344630, -0.0162308663, -0.0067146937, 0.0244401637, 0.0050037000, 0.0066298787, -0.0314979069, -0.0063649649, 0.0049110563, -0.0922373384, 0.0216369182, -0.0210400578, -0.0132932663, 0.0061506080, 0.0012660559, -0.0021681464, 0.0585347116, 0.0035820750, -0.0363055728, -0.0473149233, -0.0089126593, 0.0079788137, 0.0091111157, -0.0692766607, -0.0327023529, -0.0662548244, -0.0298114158, -0.0071102595, 0.0070750406, -0.0017892842, -0.0664098486, -0.0199655872, 0.0014642669, 0.0080219610, -0.0268367492, 0.0029901958, 0.0184555128, -0.0019290001, -0.0143918786, -0.0016559170, 0.0172414184, 0.0070307902, 0.0000967947, 0.0335912593, -0.0020672607, -0.0082985396, 0.0113667650, 0.0110609308, -0.0169378668, 0.0283973906, 0.0117080156, -0.0156133864, 0.0116776107, 0.0004057932, -0.0354695618, -0.0323815458, 0.0102746561, -0.0080726780, 0.0005123112, 0.0025081716, -0.0389752127, 0.0028679394, -0.0315338820, 0.0194958635, -0.0302572027, -0.0136543727, 0.0245169960, 0.0112041403, 0.0128863202, 0.0000542812, -0.0223056544, 0.0010806947, 0.0155980559, -0.0620069876, 0.0257905200, -0.0210563485, -0.0097243562, -0.0026854498, 0.0004692438, -0.0189912729, 0.0168211404, 0.0000056447, -0.0888704360, -0.0885324255, -0.0152873052, 0.0070453975, -0.0734656081, -0.0893340111, -0.0351895988, -0.0771403089, -0.0344381221, 0.0060574352, 0.0244756639, -0.0027551362, -0.0786863714, -0.0018192910, -0.0007363340, 0.0052286270, -0.0247972142, 0.0047826851, 0.0041094688, -0.0418743975, -0.0441913456, -0.0009809382, 0.0121854236, 0.0156818926, 0.0076025915, 0.0368783288, 0.0184852369, -0.0541640222, 0.0062282397, 0.0199902989, -0.0460799932, 0.0032752878, 0.0064060660, -0.0086542936, -0.0198269412, 0.0204522796, -0.0088257976, -0.0424548686, -0.0164697170, 0.0113466633, 0.0288331043, -0.0121346517, -0.0156740900, -0.0098069496, -0.0128176641, 0.0244643632, 0.0671790689, 0.0130081633, 0.0673206747, 0.0870204344, -0.0038858568, 0.0061590951, -0.0525510460, 0.0011033471, -0.0056489906, 0.0134213157, -0.0069031445, 0.0005460971, -0.0212155785, -0.0228801351, 0.0037298324, 0.0047777495, -0.0116649587, 0.0033026510, -0.0605516583, 0.0570106283, -0.0250074044, 0.0176743250, -0.0465099961, -0.1174854338, -0.0158141535, -0.0247493554, -0.0242532510, -0.0189105961, 0.0328638479, -0.0232496634, -0.0149755301, 0.0700690001, -0.0135769304, -0.0068053720, 0.0388177112, -0.0089266505, 0.0886126608, 0.0748608559, -0.0230821315, -0.0053365813, 0.0103344955, 0.0244198926, -0.0132195624, 0.0078631528, -0.0264272280, -0.0596566796, -0.0536920913, 0.0352093093, 0.0690550581, 0.0376270153, 0.0155298905, -0.0024789146, -0.0069242273, -0.0596286654, 0.0394267067, 0.0083444696, 0.0083179120, -0.0108199036, -0.0189463664, 0.0624752231, -0.0486746468, -0.0153227532, -0.0092337513, 0.0171423871, -0.0013080176, 0.0069873231, 0.1021672115, -0.0061399019, 0.0072057261, -0.0089660836, -0.0282881167, -0.0120255388, 0.0051519219, 0.0488838293, 0.0009567969, 0.0411025770, -0.0311760865, -0.0235427432, 0.0065043238, -0.0297829341, -0.0254247729, -0.0043778257, -0.0948626250, -0.0727992058, 0.0084703518, -0.0013335240, -0.0972654745, -0.0544389673, 0.0193722695, 0.0286800899, -0.0047930698, -0.0479654633, 0.0377755351, 0.0124345310, -0.0495100915, 0.0185849871, 0.0176939853, -0.0504402369, 0.0164344106, -0.0086763715, 0.0023847271, 0.0557393245, -0.0534469783, -0.0207713302, -0.0063581448, 0.0459632054, 0.0014113671, 0.0291207638, -0.0087085357, -0.0242096167, -0.0103599159, 0.0158090759, 0.0832258612, 0.0709773973, -0.0044423915, -0.0045518037, -0.0344005711, -0.0514127463, 0.0377040915, 0.0261503886, 0.0060894922, -0.0129807303, -0.0455805585, 0.0783115700, -0.0154247647, -0.0119572924, 0.0179435667, 0.0107178111, -0.0030197343, 0.0165427849, 0.0568917021, -0.0191131290, 0.0069167605, -0.0019619658, 0.0014918840, 0.0281084124, -0.0042421157, 0.0638490990, 0.0472295508, 0.0008196472, -0.0096120061, -0.0161609333, 0.0052920794, -0.0421180092, -0.0040767542, -0.0199714303, -0.0186692700, 0.0150482589, 0.0624242537, -0.0316991173, -0.0455006212, -0.0056187268, 0.0126244137, 0.0325558111, 0.0286047067, 0.0142308567, 0.0324488059, 0.0219196975, -0.0198205374, 0.0228989907, 0.0371049680, -0.0180920400, 0.0147330454, -0.0098693306, -0.0267202873, 0.0278804712, -0.0518134348, -0.0124272909, 0.0125501659, 0.0526923984, -0.0013127165, 0.0239162631, -0.0164202638, 0.0379651785, 0.0134646595, 0.0229392871, 0.0129284142, 0.0787112489, -0.0062580984, -0.0046632900, 0.0511860922, -0.0179786682, -0.0240816288, -0.0556342565, -0.0170522165, 0.0036734915, 0.0475028194, -0.0092629576, -0.0510689802, -0.0029057243, -0.0383903682, 0.0021187614, -0.0165649876, 0.0176575184, 0.0694348142, 0.1260166466, -0.0065933219, 0.0089412630, -0.0612691939, -0.0475710444, 0.0073689846, -0.0106850192, -0.0202130452, -0.0100841206, -0.0194385555, -0.0167216882, 0.0081152953, 0.0144727053, -0.0463677272, 0.0104578352, -0.0751160830, 0.0482861437, -0.0293396357, 0.0156512354, -0.0292729940, -0.1257047951, -0.0755867213, -0.0214682035, -0.0612169765, -0.0253802687, 0.0201279018, -0.0262661874, -0.0688087344, 0.0634439960, -0.0176590998, 0.0052016545, 0.0206325781, 0.0061893212, 0.0548925437, 0.0458709300, -0.0083771683, 0.0039343033, -0.0081775961, 0.0196789131, -0.0137768602, -0.0233795084, -0.0096005118, -0.0555413701, -0.0622349270, 0.0099319126, 0.0487964489, 0.0136357956, 0.0205740146, -0.0119245183, 0.0216153376, -0.0333096199, 0.0629539788, 0.0193342268, 0.0065564238, -0.0020806419, 0.0172653887, 0.0538756661, -0.0985344648, -0.0079648979, -0.0557432324, -0.0208033323, -0.0465179645, -0.0145316934, 0.0354984738, -0.0173362233, -0.0154458378, -0.0043588886, -0.0486104712, -0.0110162804, 0.0108951312, 0.0500614420, -0.0081225494, -0.0106438855, -0.0346888751, -0.0256495476, 0.0067412718, -0.0223391280, -0.1110148802, 0.0048111328, -0.0575971082, -0.0911946669, -0.0180820301, -0.0028958819, -0.0903599858, -0.0701962858, 0.0338173509, 0.0190369543, -0.0565251559, 0.0334802978, -0.0020884750, 0.0109586949, -0.0562291481, -0.0258655995, 0.0022698799, -0.0032749604, -0.0602769367, 0.0022687463, -0.0670679733, -0.0819859281, -0.0469682589, -0.0036609427, -0.0596594550, 0.0486112982, -0.0047465269, -0.0988004655, 0.0218268093, -0.0603007302, -0.0691519380, 0.0362670757, -0.0200288817, -0.0150572890, -0.0056884452, 0.0009881802, -0.0579397194, -0.0269841999, 0.0095750000, 0.0153993061, 0.0017954505, -0.0029961155, 0.0044235461, 0.0683690384, -0.0515889972, -0.0030290429, -0.0164287724, -0.0254927222, 0.0282525159, 0.0135987038, -0.0249992739, 0.0206835531, -0.0162385777, 0.0032431614, -0.0076580807, 0.0465880111, 0.0007133295, 0.0533651747, -0.0131826578, -0.0525462031, -0.0185975526, -0.0224623270, 0.0112119131, -0.0302997790, -0.0913610682, -0.0083308034, 0.0116988793, 0.0137519361, 0.0334860496, -0.0057060444, -0.0828667060, -0.0308980457, 0.0525364801, 0.0263977461, 0.0097109657, 0.0730955303, -0.0084099500, 0.0114985891, -0.0225022435, 0.0219925772, 0.0201961249, 0.0353051051, -0.0047777263, -0.0009275876, -0.0528626181, -0.0096834004, -0.0698058531, 0.0025303664, -0.0198894423, 0.0641074851, -0.0053347233, -0.0928192660, 0.0065882979, -0.0427661054, -0.0716338232, 0.0525941104, -0.0633007735, -0.0092771975, 0.0015897175, -0.0046173325, 0.0136371627, -0.0121151041, 0.0010992981, -0.0465348959, -0.0204463489, 0.0147148240, 0.0546840578, -0.0106157698, -0.0045357258, 0.0028352628, -0.0249609575, -0.0006413428, 0.0061575742, 0.0119409626, 0.0174492244, 0.0896582305, 0.0017721672, 0.0190573465, -0.0184210557, -0.0191171914, 0.0185302980, 0.0126930866, 0.0119715976, 0.0057262988, -0.0020687284, 0.0033308358, 0.0047001690, 0.0326541774, -0.0019990404, 0.0151370391, -0.0106239961, 0.0431775860, 0.0268019363, 0.0217651017, 0.0101559553, -0.0491985902, -0.0524340719, 0.0084677851, -0.0297083221, -0.0003613642, 0.0124938069, -0.0163720902, -0.0289980564, 0.0137361391, -0.0098174736, 0.0242156405, 0.0044015544, 0.0184237789, 0.0559480079, 0.0363407396, 0.0058735427, 0.0132882381, 0.0371550806, -0.0128881270, -0.0075081484, 0.0353985466, -0.0067574834, 0.0323333926, -0.0103614228, 0.0123739047, 0.0208680481, 0.0312303863, 0.0257168673, -0.0017886051, 0.0639889836, 0.0107936617, -0.0024074325, -0.0241647735, -0.0067197564, 0.0098647457, 0.0389563031, 0.0003289568, -0.0052802591, 0.0059932475, -0.0232556779, -0.0187771469, 0.0275889710, -0.0058275773, -0.0111228684, 0.0025677318, -0.0020412770, 0.0157763828, -0.0149915237, -0.0119868871, 0.0197305530, 0.0448434278, 0.0000829481, -0.0097091934, -0.0084885918, 0.0029528330, 0.0099108098, 0.0122197513, -0.0244711488, 0.0126849189, -0.0121920798, -0.0161206946, 0.0270600170, 0.0236939546, -0.0283078533, -0.0285745189, 0.0221305527, 0.0132859061, -0.0358172543, 0.0272151344, 0.0033442376, 0.0001153342, -0.0405239053, -0.0324236415, 0.0050874921, 0.0314153768, -0.0185012016, 0.0181903727, -0.0049974355, 0.0043913941, -0.0315919332, 0.0125962375, 0.0409012549, 0.0006463758, -0.0016602154, 0.0248068999, 0.0154417260, 0.0192359034, -0.0154554900, 0.0107859485, -0.0388918594, 0.0376925841, 0.0213339813, -0.0059567434, 0.0063956291, 0.0431834422, 0.0410605818, -0.0056618894, -0.0115424776, 0.0139022404, 0.0152014177, -0.0154738417, 0.0067816013, 0.0065298676, -0.0124007994, -0.0149442796, 0.0496514142, 0.0213135276, -0.0189622454, -0.0182853881, 0.0040854868, 0.0164310206, 0.0108129419, -0.0119185392, 0.0078762816, 0.0400839224, 0.0059273606, -0.0120141134, -0.0023117331, -0.0003550222, 0.0110568916, -0.0016553651, -0.0201437883, -0.0011209378, 0.0173301697, 0.0102229109, 0.0073094158, 0.0089735026, -0.0337555148, 0.0023606147, 0.0331063904, 0.0300030373, -0.0139706815, 0.0325429365, 0.0076637841, 0.0023945884, -0.0088415770, -0.0026502488, 0.0147943255, 0.0219025537, 0.0183774792, 0.0117767565, -0.0008662952, 0.0577612221, -0.0417695753, 0.0112101510, 0.0225492865, 0.0140984114, -0.0089079784, 0.0312734060, 0.0040921108, -0.0049119228, 0.0022719000, 0.0044525019, -0.0047817938, 0.0392310321, 0.0259584952, -0.0074907416, 0.0105191786, 0.0451468602, -0.0157633424, 0.0120169232, -0.0020609547, -0.0008530698, -0.0011423388, -0.0250634346, -0.0038269251, -0.0006925780, 0.0053462586, 0.0105355764, -0.0291465297, 0.0039601689, -0.0066700783, -0.0408432335, -0.0031055717, 0.0006849290, 0.0057735904, 0.0408821143, -0.0039431616, 0.1168350652, 0.0300858915, 0.0022820935, 0.0072532124, -0.0021651126, -0.0105129452, -0.0081454609, 0.0196415521, -0.0049009752, -0.0147523135, -0.0113297123, -0.0272042099, -0.0064742486, 0.0007942290, -0.0257643256, 0.0203243904, 0.0757995546, -0.0155036366, 0.0276048165, -0.0028636940, 0.0030018575, -0.0027241318, -0.0085460404, 0.0009677141, -0.0053164866, -0.0189216137, -0.0053422241, -0.0214009471, -0.0296716392, 0.0042385706, -0.0023171064, 0.0248499848, 0.0030819059, -0.0037720716, 0.0178866219, -0.0206987262, -0.0168727431, 0.0143479332, 0.0086034080, -0.0032385488, 0.0241478682, -0.0048616459, 0.0020030474, -0.0143103600, 0.0224393383, -0.0643496737, -0.0061989711, -0.0002385221, -0.0007594203, 0.0075726942, 0.0137656853, -0.0135857109, -0.0015610143, -0.0012774272, 0.0165318418, -0.0463713445, 0.0356733277, -0.0080135278, -0.0117275361, -0.0027919984, -0.0011609698, -0.0225457344, 0.0378227755, -0.0014787971, 0.1446330994, 0.0372710265, -0.0027114488, -0.0061410493, 0.0007924099, -0.0043283887, 0.0003599786, 0.0261144657, 0.0008021495, -0.0459814295, -0.0002868705, 0.0220762491, -0.0056982567, -0.0297051333, 0.0015568555, 0.0180148762, 0.1065643579, -0.0009303070, 0.0041251481, 0.0033463407, 0.0010552172, -0.0381082632, 0.0026104385, 0.0095691886, -0.0023142693, -0.0132726533, 0.0015663981, -0.0140050733, -0.0371565521, -0.0151219377, -0.0019865569, 0.0304520410, 0.0150483903, -0.0017518651, 0.0170680396, -0.0227405764, -0.0030470823, 0.0052494593, 0.0252756979, -0.0296759009, 0.0240833126, -0.0018484989, -0.0033900028, 0.0031333670, 0.0088545252, -0.0268634036, -0.0047757486, -0.0068248585, -0.0059837918, 0.0252557080, -0.0189951640, -0.0064904615, -0.0089280494, -0.0168290269, 0.0131237153, -0.0267469324, 0.0260242466, -0.0102348197, 0.0176267289, -0.0082833832, -0.0077415598, -0.0285520516, 0.0175365396, 0.0018107463, 0.0795730203, 0.0206059869, -0.0105571086, -0.0134849073, -0.0045258203, -0.0088456515, 0.0108967861, 0.0103878733, 0.0016491740, -0.0013953075, 0.0827565268, 0.0088197207, -0.0007741767, 0.0180558488, -0.0242981389, 0.0155730294, 0.1135662347, -0.0343411937, 0.0192114785, 0.0009514277, -0.0017123073, -0.0159094725, -0.0025881107, -0.0008922679, 0.0098969713, 0.0099091232, 0.0060475180, 0.0027598196, -0.0314322561, 0.0117546618, -0.0055477675, 0.0127683645, 0.0095468620, -0.0079114344, -0.0124773430, -0.0233301185, -0.0044105998, -0.0136345886, 0.0191363394, -0.0051644975, 0.0073059397, -0.0069733122, -0.0039464589, 0.0045841932, 0.0106733032, -0.0380167179, 0.0184034687, 0.0051071830, 0.0056517054, 0.0010600686, -0.0343703441, 0.0053785439, 0.0043462096, -0.0011444904, 0.0117618321, -0.0366633423, 0.0070086289, -0.0203225277, -0.0489544235, -0.0045541637, 0.0114305606, -0.0044250949, 0.0233610850, 0.0017444532, 0.1975983381, 0.0209211782, 0.0060609784, 0.0066337138, 0.0017439006, -0.0034579148, -0.0056872601, 0.0161285959, 0.0010900821, -0.0019288824, 0.0194725543, -0.0135197127, -0.0064220005, 0.0284668244, -0.0189546421, 0.0149696982, 0.1135634705, -0.0128546758, 0.0209228098, -0.0073716389, 0.0053319270, -0.0073880199, -0.0111158127, 0.0030190533, -0.0059750327, -0.0270588901, -0.0010174453, -0.0282863081, -0.0575218387, 0.0116693173, 0.0027890999, 0.0150088966, 0.0003323149, 0.0020631177, 0.0004654895, -0.0200085193, 0.0369660072, 0.0083576282, 0.0126333870, -0.0257964712, 0.0119416267, 0.0016839835, 0.0040442604, -0.0009817398, 0.0143989716, -0.0513655543, -0.0045702015, 0.0069127250, 0.0071095172, 0.0028004765, 0.0260256063, -0.0229774546, 0.0045807962, -0.0117081748, 0.0237284005, -0.0455619767, 0.0727039427, -0.0013950617, -0.0196461361, -0.0001339917, 0.0024882860, -0.0265042335, 0.0241739415, 0.0061923466, 0.2248129994, 0.0232564118, 0.0139457574, -0.0114492038, -0.0004052305, 0.0109625263, 0.0000029400, 0.0088806767, 0.0051482674, -0.0677753389, 0.0018223992, 0.0238970555, -0.0001682196, -0.0446492471, 0.0184474792, 0.0224314276, 0.1882097274, 0.0023376904, -0.0186183937, 0.0105709974, 0.0020049170, -0.0534735061, -0.0052434979, 0.0211458113, -0.0248362236, 0.0043510781, 0.0069790743, -0.0182108227, -0.0067579080, -0.0212961342, 0.0026354166, 0.0127396267, 0.0174185112, 0.0038180484, 0.0172150936, -0.0222653337, -0.0119221536, 0.0174391251, 0.0134306997, -0.0272154249, 0.0341148525, 0.0083791073, -0.0046063918, -0.0286686048, 0.0169184562, -0.0100896042, 0.0057252776, -0.0014473019, 0.0019958024, 0.0222563837, -0.0552980825, 0.0240609609, -0.0032445339, -0.0120556038, 0.0111504057, 0.0160237923, 0.0422546268, -0.0336324796, 0.0054209782, -0.0123385517, 0.0044708359, -0.0393276177, 0.0072177439, 0.0096321069, 0.1234669238, 0.0019869399, -0.0047052414, -0.0151588973, -0.0032119288, 0.0020461634, 0.0210497901, 0.0159273185, 0.0093812905, 0.0318584815, 0.1569393426, -0.0294314455, 0.0066709626, 0.0415306613, -0.0134914583, 0.0177744962, 0.1538451612, -0.0157987848, 0.0030448011, 0.0003118484, -0.0038074339, 0.0189976878, 0.0000474387, 0.0001731524, -0.0076223561, 0.0193257071, 0.0131240189, 0.0156426020, 0.0263101812, 0.0074059679, 0.0004355841, 0.0147128589, 0.0006144351, -0.0004525042, -0.0029550446, -0.0299560633, 0.0094449921, -0.0092827594, 0.0037451498, 0.0128455823, 0.0319184475, 0.0032220359, 0.0009195366, 0.0286131483, -0.0008543583, -0.0512549095, 0.0054614488, -0.0003394306, 0.0085477820, 0.0083425222, -0.0111266831, 0.0148032401, 0.0075958660, 0.0023282610, 0.0073386170, -0.0243206080, 0.0066585923, -0.0203380398, -0.0346255600, -0.0014253653, 0.0121690556, 0.0022605623, 0.0300364196, -0.0004944230, 0.1776578724, 0.0339057893, 0.0073731928, 0.0068814801, 0.0037954792, -0.0028686060, -0.0072219828, 0.0341478027, -0.0015691839, -0.0145654613, -0.0072998265, 0.0241856780, -0.0064657936, 0.0127648823, -0.0147269648, 0.0050593172, 0.0960471332, -0.0000885266, 0.0187997855, -0.0052529145, 0.0008897269, -0.0284331925, -0.0161447208, 0.0002764087, 0.0033732888, -0.0153063405, -0.0050057536, -0.0249898005, -0.0428147689, 0.0037889506, 0.0009039196, 0.0344486833, -0.0075175450, -0.0060484200, 0.0238383953, -0.0212430470, 0.0526790433, 0.0130985286, 0.0259211250, -0.0243663192, 0.0221640747, 0.0054037087, -0.0032506725, -0.0025043879, 0.0183171052, -0.0039756931, -0.0074237147, 0.0023741624, 0.0125282360, 0.0112170354, -0.0080092857, -0.0256976280, 0.0064868839, -0.0055413023, 0.0149284443, -0.0053896336, 0.0621524155, -0.0096664540, -0.0099513158, -0.0020621817, 0.0022369006, -0.0238555875, 0.0287919994, 0.0085239140, 0.1948563755, 0.0263623856, 0.0043322737, -0.0036159989, -0.0007808544, 0.0071061263, -0.0046927789, 0.0034911435, -0.0000813418, -0.0506506525, 0.0143286195, -0.0278888699, -0.0012044408, -0.0347705372, -0.0140151419, 0.0258589815, 0.1493137479, -0.0240337662, 0.0176044255, 0.0104389926, -0.0077420757, -0.0340209045, -0.0087916944, 0.0118148094, 0.0008326998, 0.0046506892, 0.0059511159, -0.0091858953, -0.0029855401, -0.0182513651, 0.0053340113, 0.0382331386, 0.0039050854, -0.0031343345, 0.0183646027, -0.0215775296, -0.0504630469, 0.0167170651, 0.0287103746, -0.0062751737, 0.0247717090, 0.0103948331, -0.0015650650, -0.0260562208, 0.0242217816, -0.0021013515, 0.0025166855, -0.0005631500, 0.0039011717, 0.0159692299, -0.0708184838, 0.0026320319, -0.0008586271, -0.0240237247, 0.0091724880, 0.0162524916, 0.0275157038, -0.0180826038, -0.0124973282, -0.0080614546, -0.0016726182, -0.0346840546, -0.0108817993, 0.0131171867, 0.1035129577, -0.0004812509, 0.0070172632, -0.0116587188, -0.0016180474, -0.0011055090, 0.0096382499, -0.0047389232, 0.0043759239, 0.0192365702, 0.0950290039, -0.0550409630, -0.0013836691, 0.0053780675, -0.0288388059, 0.0152179189, 0.1336346865, -0.0374129973, 0.0143445795, 0.0057851495, -0.0089348415, 0.0218930133, -0.0009224291, -0.0035941598, -0.0181771591, 0.0081947045, 0.0137514463, -0.0056057754, 0.0354525074, 0.0012823757, 0.0008279862, -0.0116710449, -0.0082233185, -0.0052447058, -0.0111414324, -0.0206710901, -0.0290020611, -0.0093048159, 0.0050527998, 0.0186273716, 0.0133760599, 0.0026301232, 0.0039695185, -0.0287715346, -0.0055606170, 0.0349914953, 0.0380729251, 0.0078200297, -0.0067755850, 0.0103670778, -0.0194169749, 0.0225850102, -0.0209522638, -0.0072788340, 0.0142100994, 0.0468836538, 0.0245903023, -0.0191829707, -0.0376682132, -0.0001011154, -0.0076144561, -0.0171302296, -0.0214555673, 0.0187810883, 0.0312432628, 0.0108724879, 0.0055793365, -0.0195657797, -0.0010635329, -0.0072289906, 0.0122548612, 0.0139535507, -0.0005121404, 0.0156575032, 0.0199381858, 0.0057060989, 0.0015670444, 0.0102603231, 0.0079623247, 0.0266406443, 0.0419577286, -0.0171384867, -0.0191387758, 0.0058046500, 0.0230621416, 0.0283625070, -0.0315660574, 0.0211258996, -0.0126901893, -0.0101266718, 0.0203334466, 0.0001401891, 0.0580513440, 0.0018933958, -0.0004022733, 0.0277363136, 0.0186706148, 0.0163630154, 0.0244212672, 0.0083371634, 0.0050806426, 0.0250616856, 0.0191432387, 0.0088421628, 0.0376676880, 0.0107757943, 0.0175408348, 0.0074614240, -0.0352535211, 0.0267064590, 0.0309277270, -0.0094955089, -0.0053645978, 0.0128532164, -0.0210691877, 0.0204728208, -0.0246712975, -0.0235167891, -0.0135814780, -0.0069253002, -0.0114131626, -0.0438515134, -0.0621949397, -0.0103666941, -0.0009914770, -0.0269843396, -0.0174648799, -0.0002740049, 0.0579322726, 0.0165027529, -0.0252900571, -0.0342960842, -0.0073083127, -0.0132498601, 0.0333716422, 0.0110279573, 0.0006052468, 0.0360907093, -0.0089574791, 0.0167734586, 0.0018088575, 0.0027441876, 0.0378688015, 0.0454114713, 0.0407620296, 0.0114542814, -0.0129209971, -0.0214294661, 0.0180981569, 0.0277140476, -0.0025613438, -0.0001707341, -0.0211729985, -0.0373973548, 0.0120245526, -0.0322654583, 0.0089628752, -0.0488868840, -0.0034447799, 0.0162386931, 0.0082819071, -0.0054584038, -0.0090057962, 0.0040822970, 0.0187834725, 0.0231034681, 0.0227122586, -0.0150404386, 0.0476583727, 0.0077755894, 0.0031493385, 0.0450036265, -0.0519570932, 0.0253340192, 0.0100074662, -0.0154180722, 0.0062407777, 0.0559174158, 0.0490695089, 0.0156842880, -0.0197222736, -0.0244108699, -0.0118818786, 0.0148974182, 0.0328155421, 0.0121844979, 0.0310472623, -0.0118447626, 0.0063478579, -0.0055228188, 0.0095266160, 0.0027665589, 0.0424218774, 0.0345491059, -0.0194321722, -0.0228649247, -0.0164055787, -0.0074546272, 0.0467498749, -0.0086863348, 0.0084244255, 0.0470215827, 0.0488262437, 0.0495324358, 0.0221031960, 0.0251055900, 0.0055811978, 0.0445638634, 0.0494665056, 0.0073903119, 0.0174404979, -0.0146994451, 0.0049909074, 0.0273755603, 0.0250078868, -0.0059924470, 0.0109597500, 0.0183390062, 0.0146438479, 0.0097778328, 0.0390880257, -0.0086109368, 0.0029970261, 0.0147809703, 0.0291317105, -0.0043193358, -0.0188434031, -0.0154520981, 0.0351619273, -0.0070265075, 0.0372999310, 0.0250928979, 0.0374001786, 0.0203307271, 0.0011937056, 0.0553564504, -0.0302429926, 0.0127065927, 0.0515666120, 0.0214988701, -0.0025349266, 0.0012494351, -0.0415758267, -0.0014658938, -0.0110076787, -0.0154191134, 0.0202822778, -0.0028905293, 0.0295323003, -0.0341224037, -0.0845622569, 0.0036736850, -0.0087224068, -0.0338847004, -0.0618747510, 0.0238906089, -0.0016180732, 0.0144854300, 0.0059909206, -0.0206491593, 0.0079249255, 0.0044703260, -0.0036377427, -0.0029968116, 0.0055123572, 0.0003500272, -0.0135766240, -0.0069697574, -0.0145607600, 0.0306663942, 0.0235707071, 0.0010994283, 0.0373724699, -0.0396812558, -0.0451744013, 0.0185017586, 0.0343693756, 0.0014774885, -0.0780961215, 0.0384561680, -0.0143423416, -0.0425406322, 0.0263388474, -0.0333251990, 0.0351970196, 0.0154541824, 0.0027339109, 0.0027504447, 0.0180362053, 0.0259543080, -0.0056042853, 0.0200050138, 0.0095639145, 0.0348244570, 0.0528812557, -0.0357603170, 0.0389648974, 0.0114535214, 0.0245598275, -0.0183882099, -0.0276848860, 0.0189493820, 0.0466001518, -0.0010231910, 0.0130178863, 0.0183234047, -0.1116185337, 0.0445875823, -0.0128397681, -0.0454771034, -0.0150954109, 0.0023786449, -0.0509896018, -0.1379920244, -0.1557684690, -0.0217583831, 0.0042369086, -0.0539888740, -0.0509962775, -0.0106764808, 0.0406704694, -0.0323818550, -0.0593028255, -0.0395208299, 0.0079785679, -0.0058235978, 0.0311439596, -0.0557371527, 0.0159216058, 0.1047182977, -0.0357233360, -0.0738820285, -0.0109902639, 0.0269016512, 0.0356307402, 0.0609380044, -0.0002277258, -0.0133370813, -0.0084987199, -0.0347801410, 0.0200665053, 0.0410601795, -0.0509737656, 0.0078856396, 0.0237535741, -0.1132744774, 0.0117874090, -0.0704558492, -0.1007715911, -0.0565881208, 0.0070450264, -0.0096557299, -0.0123633714, -0.0053201918, -0.0903025270, 0.0280664135, -0.0464988388, -0.0369919725, 0.0687612072, -0.1124114692, 0.0116393659, 0.0032297978, 0.0154192410, -0.0112372367, -0.0305965040, -0.0333226770, -0.0129659371, -0.0094374958, 0.0253741592, 0.0657698214, 0.0167715121, 0.0616369992, -0.0011081554, -0.0180792585, 0.0123178307, 0.0741803870, 0.0491925813, -0.0523157939, 0.0161281265, -0.0100952508, 0.0158610810, -0.0000169311, 0.0231629591, -0.0058406689, 0.0238334648, -0.0373958275, -0.0308669750, -0.0199199598, 0.0029929879, 0.0086071901, 0.0465717502, -0.0325090289, 0.0250453837, 0.0545111448, 0.0167864542, 0.0138347317, 0.0303573459, -0.0499299876, -0.0301610734, 0.0441364683, 0.0313644446, 0.0305602532, 0.0017754221, -0.0044456348, -0.0074652629, -0.0119222822, 0.0153330676, 0.0127028618, 0.0608505532, 0.0093832333, 0.0161893945, 0.0244893767, 0.0551101379, -0.0370878950, 0.0153580233, 0.0384647101, 0.0148755452, -0.0047082948, -0.0069957688, 0.0003286387, -0.0516498573, -0.0702793300, 0.0876690596, -0.0361520499, 0.0277655870, 0.0356604457, -0.0006008102, 0.0230992790, 0.0224293899, -0.0170695130, 0.0312612429, 0.0210039187, -0.0188277941, -0.0128123304, -0.0179032702, -0.0097177401, -0.0101230973, -0.0281767193, 0.0057086055, -0.0167691652, 0.0283343382, -0.0165238958, -0.0718707964, 0.0134475064, -0.0127293607, -0.0244179331, -0.0469969101, 0.0205083825, -0.0130383912, 0.0351659097, 0.0148613481, -0.0162967294, 0.0040874188, 0.0061877086, -0.0268378053, -0.0118900873, -0.0105209108, -0.0443506315, -0.0167474113, 0.0378873087, -0.0271573532, 0.0330518633, 0.0497326218, -0.0365491547, 0.0318375304, -0.0537429601, -0.0167503264, 0.0292079207, 0.0323204286, -0.0285337828, -0.0733977705, 0.0430444777, -0.0111998087, -0.0125654228, 0.0034322448, -0.0405907892, 0.0208123978, 0.0269004628, -0.0150512634, 0.0025007925, 0.0240042564, 0.0203860421, 0.0064199702, 0.0069410736, 0.0352121964, 0.0581901670, 0.0408153646, -0.0555749834, 0.0095240455, -0.0040706978, 0.0025977069, -0.0198173113, 0.0429995582, -0.0471209176, 0.0085397325, 0.0007050295, -0.0190135241, -0.0204339642, -0.1239966154, 0.0737079233, -0.0108376015, -0.0646397248, -0.0070209512, -0.0206590798, -0.0463235453, -0.0874603093, -0.1721419990, 0.0017259835, -0.0059125507, -0.0294609014, -0.0969357938, -0.0061911750, 0.0136409448, 0.0145089356, -0.0332855955, -0.0262620524, 0.0144862067, -0.0059083933, 0.0127852960, 0.0259894226, -0.0014459988, 0.0228081569, -0.0325017162, -0.0029082522, -0.0349269398, 0.0508617163, 0.0586200804, -0.0368892960, -0.0085751461, -0.0374227390, -0.0339524671, 0.0012081788, 0.0192782804, -0.0142636411, -0.0647041574, 0.0212057866, -0.0369475670, -0.0597549565, -0.0088338461, -0.0597334243, -0.0442299247, -0.0411480851, -0.0198173635, -0.0341181159, -0.0288277660, -0.0029029374, 0.0166712757, 0.0080410661, 0.0296785943, 0.0524885133, -0.0121469619, -0.1182869896, 0.0269720610, -0.0082179466, -0.0194182824, -0.0609239042, 0.0610300265, 0.0171970259, -0.0344826989, -0.0066185812, -0.0024408419, 0.0165802371, -0.0314495787, 0.0350860022, -0.0028230899, -0.0442839488, 0.0346561000, -0.0159160327, 0.0566240624, 0.0297373123, -0.0454064421, 0.0195350684, 0.0002921922, 0.0209027305, -0.0335500911, -0.0019399234, 0.0196480304, 0.0365408920, 0.0151603492, -0.0051300060, 0.0016216617, 0.0089532370, 0.0201446488, 0.0471653827, 0.0071020345, -0.0213511679, -0.0002634439, -0.0071412334, -0.0005560092, -0.0209415238, -0.0092573175, -0.0529302023, 0.0261849016, -0.0093745096, -0.0235283710, 0.0457017608, -0.0052437005, -0.0460369401, 0.0061153746, 0.0250546262, -0.0184356552, 0.0375336111, -0.0060961777, 0.0275546852, 0.0532678813, -0.0311929937, -0.0157425851, -0.0172426216, -0.0094917798, -0.0030364085, 0.0924915969, -0.0168422721, -0.0284025688, 0.0720241517, 0.0059012808, -0.0074505722, 0.0482029729, 0.0162004251, -0.0236977413, -0.0068961512, 0.0880621821, -0.0223331656, 0.0239246134, -0.0064016310, -0.0075430879, 0.0211241823, 0.0869786143, -0.0344553702, -0.0106082615, -0.0013769310, -0.0250657815, -0.0673628673, 0.0095061827, 0.0127823530, 0.0496061742, -0.0127477944, 0.0019989733, -0.0282731317, 0.0269999448, 0.0044787005, 0.0131770652, 0.0117031317, -0.0324969031, -0.0150952246, -0.0204293113, -0.0005716411, 0.0086436775, -0.0121154282, 0.0031539178, -0.0019489846, 0.0325959250, 0.0523662157, 0.0044381893, 0.0283313021, 0.0205205735, 0.0285250302, 0.0262259021, 0.0067063733, 0.0261853337, -0.0149150873, 0.0161745045, 0.0019419718, 0.0411435477, 0.0025750329, -0.0179629270, 0.0162621923, 0.0051161437, -0.0305407066, -0.0006929353, 0.0183951221, -0.0020664074, -0.0339866690, 0.0441394001, 0.0041187820, -0.0349459834, -0.0242992528, 0.0398987383, -0.0075807991, -0.0452876724, 0.0243512001, -0.0038526466, 0.0019973035, -0.0108216992, 0.0380811952, -0.0318339020, 0.0752898008, 0.0554906577, 0.0021719476, 0.0128890825, 0.0291452818, 0.0611050241, 0.0167796817, -0.0031856182, -0.0175935421, -0.0148742897, -0.0098530650, -0.0186076723, -0.0041407738, -0.0373925082, -0.0081594363, 0.0116554135, -0.0063444190, 0.0398001112, 0.0087628020, 0.0572259724, 0.0690055490, -0.0353415832, -0.0114236185, -0.0132038323, 0.0049729506, 0.0289739016, 0.0196796022, 0.0179622211, 0.0746308863, 0.0298878960, 0.0566844419, -0.0037257622, 0.0454753675, 0.0472805128, 0.0760555565, 0.0497076027, 0.0032068966, 0.1075413674, -0.0211153515, 0.0266198348, 0.0910275653, -0.0040253480, 0.0024150549, -0.0025196895, -0.0096755102, 0.0170582216, -0.0287288334, -0.0199777316, 0.0077089639, 0.0085524200, -0.0378549099, 0.0284855440, 0.0121371206, 0.0044913823, -0.0261135995, 0.0765024275, 0.0289599784, -0.0453650318, -0.0074666762, 0.0116828326, 0.0074935309, 0.0062301410, 0.0092997532, 0.0280039702, 0.0183425881, 0.0109269703, -0.0038624306, 0.0134212328, 0.0283191688, -0.0007223220, 0.0288578197, 0.0015157094, -0.0168860834, 0.0083091334, 0.0301078819, -0.0057075974, -0.0000327179, -0.0036302158, 0.0002771715, 0.0119751506, -0.0168898385, 0.0241715033, 0.0055320761, 0.0010193068, 0.0252348501, -0.0066320086, -0.0199456271, -0.0031602078, 0.0073930505, 0.0260969028, 0.0475374646, 0.0171691421, 0.0325010605, 0.0191756822, 0.0075553097, 0.0077826278, 0.0030859970, 0.0118938657, 0.0263880473, 0.0139787989, 0.0020899712, 0.0642287135, -0.0038301218, 0.0034222386, 0.0516743921, 0.0080963178, 0.0065328907, 0.0044404301, 0.0007742510, 0.0131931677, 0.0263522025, 0.0384032950, -0.0178930331, 0.0095155602, 0.0150326481, 0.0113270534, 0.0097394744, 0.0608629212, -0.0263585858, 0.0072913170, 0.0356586725, -0.0275653135, 0.0228938889, -0.0090724509, 0.0180102922, -0.0004445884, 0.0064375903, 0.0299790855, -0.0226378851, -0.0002936917, -0.0184128601, 0.0077726059, 0.0283923652, 0.0212694649, -0.0072691566, -0.0082477508, -0.0362003148, -0.0340547413, -0.0304269288, -0.0075223856, -0.0643093586, 0.0418646634, -0.0245081689, 0.0078911250, -0.0218065977, 0.0648106113, -0.0089182230, 0.0270353202, -0.0569622107, -0.0298153386, -0.0052692168, -0.0109192906, -0.0074781007, 0.0101078022, -0.0443552099, -0.0001274193, 0.0452789553, 0.0054346826, -0.0102553777, 0.0206939764, 0.0285921544, 0.0059499294, 0.0573288165, 0.0263694171, 0.0030414164, 0.0175384860, -0.0281780921, 0.0003257231, 0.0121877342, 0.0065947790, -0.0071404581, 0.0232907739, -0.0191573352, -0.0028038400, -0.0099032586, -0.0664928481, 0.0112917628, 0.0024043301, 0.0060663056, 0.0192668308, -0.0130091831, -0.0634573698, -0.0148782199, 0.0183307659, -0.0753755122, -0.0243959483, -0.0143516352, -0.0943082646, -0.0037789966, -0.0031618644, 0.0425974801, -0.0332514904, -0.0565105379, -0.0124675548, -0.0098593226, 0.0169511512, 0.0327560939, 0.0005528111, 0.0779031515, -0.0007619467, -0.0141854929, -0.0062714391, 0.0589596294, -0.0048786271, -0.0595049597, 0.0492415838, -0.0214368962, 0.0175903011, -0.0368157476, 0.0872560591, -0.0012916531, 0.0264999457, -0.0768242553, -0.0314407311, -0.0130651565, 0.0014785521, 0.0010037748, 0.0311183929, 0.0221323650, 0.0153021077, 0.0581517369, 0.0486199223, -0.0074255825, 0.0335029997, 0.0112531940, -0.0543984808, 0.0909210667, 0.0070630871, 0.0097009996, 0.0338141806, -0.0188318733, -0.0077983174, 0.0289930366, 0.0213050358, -0.0089365216, 0.0394410864, 0.0114659946, 0.0093616573, 0.0476460047, 0.0107916323, -0.0041340603, 0.0159429833, 0.0634649917, 0.0120367995, 0.0006036854, 0.0064733718, -0.0247770641, -0.0028250748, -0.0879661962, 0.0074359528, -0.0059826849, -0.0842197388, 0.0151242409, 0.0045409049, 0.0461463891, -0.0231165141, -0.0227236673, -0.0135167083, -0.0053955140, 0.0101005333, 0.0051971613, 0.0012732525, 0.0256015770, 0.0019795694, -0.0297016446, 0.0242503881, -0.0011652396, -0.0003055580, -0.0021075059, 0.0197925959, 0.0020578327, 0.0061657182, -0.0194576196, 0.0498375259, 0.0013167871, 0.0049288059, -0.0153467609, 0.0139502427, -0.0174167026, 0.0016617122, 0.0009870295, 0.0108382860, 0.0543721840, 0.0091045629, -0.0125053851, -0.0281726290, 0.0035782696, 0.0126951458, -0.0301872715, -0.0303396620, 0.0305883922, 0.0096429018, -0.0065031932, -0.0023374045, 0.0035421555, -0.0051864088, -0.0157837681, 0.0087368786, 0.0000114300, 0.0098230969, 0.0012111284, 0.0061105457, 0.0311114490, 0.0143489260, -0.0270786565, 0.0077454280, 0.0415185355, 0.0039902702, 0.0004136183, 0.0461726822, -0.0225469787, -0.0224950425, 0.0062090261, 0.0042414735, 0.0158614777, -0.0560899936, 0.0144675188, -0.0025031301, 0.0134309409, -0.0106543489, -0.0707634091, -0.0228814166, -0.0127753727, -0.0099433903, -0.0049196482, -0.0099611161, -0.0091361608, -0.0093240328, -0.0295268744, 0.0053003486, -0.0667015836, 0.0130128441, 0.0135856466, 0.0240898095, -0.0009917702, -0.0042471709, -0.0132542308, -0.0407157838, 0.0020353626, 0.0197850596, -0.0733120516, 0.0136004277, -0.0012528040, 0.0027424814, -0.0064707221, 0.0000512391, 0.0054128608, -0.0057847570, -0.0443145186, 0.0160278454, 0.0139801893, -0.0006171089, 0.0256918017, 0.0130379060, -0.0477479212, 0.0140453465, -0.0092722047, -0.0758121833, 0.0098193688, -0.0014203769, -0.0339302123, 0.0187742990, 0.0053262655, -0.0403482951, 0.0179643463, -0.0091143157, 0.0215805601, -0.0385456197, 0.0253850147, -0.0125241475, -0.0450092554, -0.0031921454, -0.0022427472, -0.0326534584, 0.0015561734, 0.0178444069, -0.0187662281, -0.0703204349, 0.0115478849, -0.0712348968, -0.0092087174, -0.0143714771, 0.0004961321, -0.0226245876, -0.0912147239, -0.0453632735, 0.0015653343, -0.0169546772, -0.0217182506, -0.0247644596, -0.0053345640, -0.0060835378, -0.0443810038, 0.0428045318, -0.1099477410, 0.0358104855, 0.0631868616, -0.0119499648, 0.0165131036, -0.0041977903, -0.0305270273, -0.0759848505, 0.0179859940, -0.0043805009, -0.0720979273, 0.0514303856, -0.0110299280, 0.0116053205, 0.0004579595, -0.0004299450, 0.0668788701, 0.0025474594, -0.0957998261, -0.0064380174, 0.0214621685, -0.0056214286, 0.0030488332, -0.0090657715, -0.0997746885, 0.0087674968, 0.0033254186, -0.1360521019, 0.0369060189, -0.0032538138, -0.0883044451, 0.0159812141, 0.0122593548, -0.0854513943, 0.0383325517, 0.0052133962, 0.0347558632, -0.0359000042, 0.0110170152, -0.0083462493, -0.0917657614, -0.0038182272, 0.0102767814, 0.0128842955, 0.0019734947, 0.0268637985, 0.0132885324, -0.0727117285, 0.0211795084, -0.0678713545, 0.0030660590, -0.0201411378, -0.0147464611, -0.0273858029, -0.0377474837, -0.0319406912, 0.0057064211, -0.0148427123, -0.0381358229, -0.0446968488, 0.0118015613, -0.0048607914, -0.0304661021, 0.0448063463, -0.0585677400, 0.0120405937, 0.0316344723, -0.0636995062, 0.0208130293, -0.0028026144, -0.0292792805, -0.0567208640, 0.0157182626, 0.0111556686, -0.0536289997, 0.0414960124, -0.0132962270, 0.0169098638, -0.0018670651, -0.0074615483, 0.0877372697, -0.0004599023, -0.0455828272, -0.0227254499, 0.0007353018, -0.0174070522, 0.0115078436, 0.0259627160, -0.0644682497, -0.0084044896, 0.0162562933, -0.1127515063, 0.0378987454, -0.0009803243, -0.0595887788, -0.0007585654, 0.0173519142, -0.0507834740, 0.0030469212, 0.0031434658, 0.0140545480, -0.0586225018, -0.0237619430, -0.0078033926, -0.0409278870, -0.0106892949, 0.0137502579, 0.0470703840, 0.0016764399, 0.0426175296, 0.0417195931, -0.0493407659, -0.0241895635, -0.0581017919, -0.0035554969, -0.0161068309, 0.0162098426, 0.0038900147, -0.0512491539, -0.0341356061, -0.0176567920, 0.0038782400, 0.0523173884, -0.0389297679, 0.0323711522, -0.0120298341, 0.0025790329, 0.0210311506, 0.0052923942, -0.0004002854, -0.0163863283, 0.0147952838, -0.0029096494, 0.0006525682, -0.0280682947, -0.0280180592, -0.0021065618, 0.0177816264, -0.0434550680, -0.0008576575, -0.0053945147, 0.0036605704, -0.0151919285, 0.0637207255, 0.0376421623, 0.0094265770, -0.0248965882, 0.0163305420, 0.0004712404, 0.0348491110, 0.0128582502, -0.0182859525, -0.0139219882, -0.0040925960, 0.0062598973, -0.0522374846, -0.0127256801, -0.0225889850, -0.0105294539, 0.0286117811, -0.0269597154, -0.0107105672, 0.0039112102, 0.0075384327, 0.0794635341, 0.0156282689, 0.0024573780, 0.0050727222, 0.0153003111, -0.0348955654, 0.0012413675, 0.0235189907, -0.0131655736, 0.0163858607, -0.0185738578, 0.0210404657, 0.0080420803, -0.0002567307, 0.0101193329, -0.0016430219, 0.0236237962, -0.0232484508, -0.0592037216, -0.0543372966, -0.0106230127, -0.0000186658, 0.0413854718, -0.0244597308, 0.0095035052, -0.0050169812, 0.0071389982, 0.0384025909, -0.0124725038, 0.0283602662, 0.0328759663, 0.0362566970, 0.0102431234, 0.0041848645, -0.0190599691, -0.0268882774, 0.0039050898, 0.0156254880, -0.0461471789, 0.0339483097, -0.0100594899, -0.0003096269, -0.0058139609, 0.0509584360, 0.0513443500, 0.0130620105, -0.0623334311, -0.0017591224, 0.0079611624, 0.0349701531, -0.0318318680, -0.0351974070, -0.0340780877, 0.0011449060, 0.0158815403, -0.0710934252, 0.0068879789, -0.0251944121, -0.0470687710, 0.0721913949, -0.0171319619, -0.0240119565, 0.0604258701, 0.0109803872, 0.0879354253, 0.0313635804, -0.0318727493, 0.0050279559, 0.0225827638, -0.0202116109, 0.0035856271, 0.0703493431, -0.0244493186, -0.0167252943, -0.0063081998, 0.0220239200, 0.0688761771, 0.0042010942, 0.0194499996, -0.0131936595, 0.0383809879, -0.0101155844, -0.0212955195, -0.0181168616, -0.0038022837, 0.0007406251, 0.0158842281, 0.0063111242, -0.0033592703, -0.0043523805, 0.0064293537, 0.0196643881, -0.0353095941, 0.0074575068, 0.0186032727, 0.0212198775, 0.0072787125, 0.0037499743, 0.0008504476, -0.0029034619, 0.0012164033, 0.0288161878, -0.0207986310, 0.0358093567, -0.0013704282, -0.0003077884, -0.0055334060, 0.0236830786, 0.0381290391, 0.0053589139, -0.0427248850, -0.0132113555, 0.0334340595, 0.0165027585, -0.0066285296, 0.0037765941, -0.0110953599, 0.0225065891, 0.0137842353, -0.0432218425, 0.0000323125, -0.0085111931, -0.0238048397, 0.0355884694, -0.0091693150, -0.0170803759, 0.0213131253, 0.0020525365, 0.0286109261, -0.0172507931, -0.0044880756, 0.0003885767, 0.0208670981, -0.0055695926, 0.0023244738, 0.0366857760, -0.0217045024, 0.0354924947, 0.0102068475, 0.0254016221, 0.0412575416, 0.0160605256, 0.0072482941, -0.0065445593, 0.0473198667, -0.0199181940, -0.0566972457, -0.0364962220, -0.0114950063, -0.0087035382, 0.0275966171, -0.0452438667, 0.0024494936, -0.0095955124, -0.0139346207, 0.0353034921, -0.0303870756, 0.0111271283, 0.0287141297, -0.0063706818, 0.0103231212, -0.0011355337, -0.0251893196, -0.0600038841, 0.0016240227, 0.0092901718, -0.0265501253, 0.0207548477, -0.0054508992, 0.0094844270, -0.0052885269, 0.0364833884, 0.0563822724, 0.0058914591, -0.0555526838, 0.0090034185, 0.0166145768, 0.0058443239, 0.0030457270, -0.0296161156, -0.0525115766, -0.0016636261, -0.0243867431, -0.0597398095, 0.0076766484, -0.0135115646, -0.0389394835, 0.0233236291, -0.0081391810, -0.0440673120, 0.0338529088, 0.0054501048, 0.0562324375, 0.0093387915, 0.0025128396, -0.0006203359, -0.0117858723, -0.0259586964, 0.0005432206, 0.0407013558, -0.0161055978, 0.0212580934, 0.0133465556, -0.0242996365, 0.0298710279, -0.0184170939, 0.0124673117, -0.0170887280, 0.0078228489, 0.0033327341, -0.0211129505, -0.0402343273, 0.0003539342, -0.0067468863, 0.0080215065, -0.0261756796, -0.0377592742, -0.0029082515, -0.0313181728, 0.0446363501, -0.0694337040, 0.0259722639, 0.0655544847, -0.0254384000, 0.0205479078, -0.0001148596, -0.0142617654, -0.0575425401, 0.0091868518, 0.0183111932, -0.0128868716, 0.0520478822, -0.0127212526, 0.0018641561, 0.0051460518, 0.0157372933, 0.0384290479, 0.0090580825, -0.0813259706, -0.0344271362, 0.0157810003, -0.0021471805, -0.0293555073, -0.0259955302, -0.0575974174, 0.0130617870, -0.0223579668, -0.0633875877, 0.0232192855, -0.0088032335, -0.0508293882, 0.0275706574, 0.0027769760, -0.0637570769, 0.0342993177, 0.0106529640, 0.0404927395, -0.0158795323, -0.0261762664, 0.0011881277, -0.0312007274, -0.0078658285, 0.0053050793, 0.0465826541, -0.0190067180, -0.0077663301, 0.0280207954, -0.0124424109, 0.0637127087, -0.0142712621, 0.0165505074, -0.0167202633, 0.0109840762, -0.0071936105, -0.0146608967, -0.0163750481, 0.0065559992, -0.0028891587, -0.0053178933, -0.0016952154, -0.0278043319, 0.0010945250, -0.0189087018, 0.0214484110, -0.0452969298, 0.0120148044, 0.0316813439, -0.0154740699, 0.0135367336, 0.0026148045, -0.0053704660, -0.0333878882, 0.0054173581, 0.0318229757, -0.0072515518, 0.0285638962, -0.0096834889, -0.0001104827, 0.0064511891, -0.0020179779, 0.0152102960, 0.0052357162, -0.0588279441, -0.0110741202, 0.0350492112, -0.0090595679, -0.0151212132, 0.0065802466, -0.0436968505, 0.0175066516, -0.0003018224, -0.0443961769, 0.0149616832, 0.0007165357, -0.0346365869, 0.0200053118, 0.0070327087, -0.0459252335, 0.0167717822, 0.0023572256, 0.0017932423, -0.0335041173, -0.0190382916, -0.0003965734, -0.0275218803, 0.0038119981, 0.0057670325, 0.0079203201, -0.0144303842, 0.0278402194, 0.0146427900, 0.0017836755, 0.0072962451, -0.0076094642, 0.0076299594, -0.0111837815, 0.0201496407, -0.0137854982, -0.0107714422, -0.0041316608, -0.0018184540, -0.0026719298, 0.0168900341, 0.0068859193, -0.0152822509, -0.0050134207, -0.0027721827, 0.0223037545, -0.0208066907, 0.0089950645, 0.0280212592, 0.0208397638, 0.0115034068, 0.0037403130, -0.0005833345, -0.0210482497, 0.0051275450, 0.0104585756, 0.0209622569, 0.0098913750, 0.0030019351, 0.0014063605, 0.0028813321, 0.0074286931, 0.0253201332, 0.0023728556, -0.0328817591, 0.0054440578, 0.0429527014, -0.0039702025, 0.0083850613, -0.0097501939, -0.0320189372, 0.0096713267, -0.0099933716, -0.0229465533, 0.0091344602, 0.0015619317, -0.0172107518, 0.0210305937, 0.0072122561, -0.0121135293, 0.0229884181, 0.0025968659, 0.0165699329, -0.0072528170, 0.0100677684, -0.0012490717, 0.0022869038, 0.0017868516, 0.0038128716, 0.0153596122, -0.0143120214, 0.0351553224, 0.0191053580, 0.0210794955, 0.0222723205, -0.0103332819, 0.0085402280, -0.0058524106, 0.0340986326, -0.0060348450, 0.0006299142, -0.0060910452, 0.0111905960, 0.0005532231, 0.0035298406, 0.0128567657, -0.0196332261, 0.0034834088, -0.0164538492, 0.0219458491, -0.0154027445, 0.0104725901, 0.0344085172, -0.0047818907, 0.0191163551, 0.0074911113, -0.0014459047, -0.0269701425, 0.0140663050, 0.0266121496, 0.0228753071, 0.0212391522, -0.0025179603, 0.0014027586, 0.0136235058, -0.0085205669, 0.0113536585, 0.0080788573, -0.0497931950, -0.0198692922, 0.0460715704, -0.0079201702, -0.0084914220, -0.0058627818, -0.0394425169, 0.0170590915, -0.0152465468, -0.0311100893, 0.0213140249, 0.0062667183, -0.0253701098, 0.0000183001, 0.0183184948, -0.0180141684, 0.0065865563, 0.0097205257, 0.0035050262, -0.0197423194, -0.0078565301, 0.0031356274, 0.0084671974, 0.0105752172, 0.0126950238, 0.0279892311, -0.0110605881, 0.0298440643, 0.0231512226, 0.0256153792, 0.0074821166, -0.0017265293, 0.0120254960, -0.0030738751, 0.0247304719, -0.0036486117, 0.0055086571, -0.0032916034, 0.0128693087, 0.0003657866, -0.0108235562, 0.0084595084, -0.0166542549, 0.0087359818, -0.0050541800, 0.0030085191, -0.0111463591, 0.0093787126, 0.0214041173, -0.0076262667, 0.0128507027, 0.0089795291, 0.0020939219, -0.0218717866, 0.0083081853, 0.0333267823, 0.0105379196, 0.0081807990, -0.0018509590, -0.0015421846, 0.0152167743, -0.0200005509, -0.0060046576, 0.0041592061, -0.0404050946, -0.0041524852, 0.0309866201, -0.0135476412, -0.0092697339, 0.0069742072, -0.0348485820, 0.0216950569, -0.0016066086, -0.0279381517, 0.0157917067, 0.0062563336, -0.0241376590, 0.0055604237, 0.0179219227, -0.0166147426, 0.0123405959, 0.0012279011, -0.0111500528, -0.0101035070, -0.0155317141, 0.0017557325, 0.0064002289, 0.0137667172, 0.0098033547, 0.0089764055, -0.0099329231, 0.0175016019, 0.0126683973, 0.0185837988, -0.0083867824, 0.0044770124, 0.0089772865, -0.0062832860, 0.0238581635, -0.0024705087, 0.0112909069, 0.0044598305, -0.0086589530, -0.0076612402, -0.0292202886, -0.0103218434, -0.0294451900, -0.0024571777, -0.0000526934, 0.0031129401, -0.0131935831, -0.0058523840, 0.0180196315, 0.0197900869, 0.0027207343, -0.0085843913, -0.0083314218, 0.0105304262, 0.0023134814, -0.0252263937, -0.0337008685, 0.0072800135, 0.0016058158, -0.0104540475, -0.0146412300, -0.0212285705, 0.0039095245, -0.0227462482, -0.0072519905, 0.0304369722, -0.0347969867, -0.0100633847, 0.0128355892, -0.0053862305, -0.0001135662, -0.0113098864, -0.0175397024, 0.0182808004, 0.0018529174, -0.0006891960, 0.0218336619, 0.0193631183, -0.0050029205, -0.0247956812, 0.0312510319, 0.0049136733, -0.0006847034, 0.0102107050, 0.0247393828, -0.0007900880, -0.0542782098, -0.0025297299, -0.0040310263, -0.0173972771, -0.0271837283, -0.0219072439, -0.0135850748, -0.0643934608, 0.0480731875, -0.0475572273, -0.0044227210, -0.0028676905, -0.0335464701, -0.0150485625, 0.0253481828, 0.0176785514, 0.0001259885, -0.0013615787, -0.0239409227, 0.0154850027, -0.0553419404, 0.0016806929, -0.0182790086, 0.0005433772, -0.0342970751, 0.0052523096, 0.0283312015, -0.0038868790, 0.0066087442, -0.0077855070, -0.0101030739, -0.0038937989, 0.0113537004, -0.0020950083, -0.0531719215, 0.0184513610, -0.0065850806, -0.0151568698, -0.0050336840, -0.0225086175, -0.0307531133, -0.0126502719, -0.0007072688, 0.0091515305, -0.0455705859, -0.0142129483, -0.0074089835, 0.0171467550, 0.0125472955, -0.0057439222, -0.0102617024, 0.0245296750, 0.0101932650, 0.0084365895, 0.0366303436, 0.0167003255, 0.0045172814, -0.0433265679, 0.0248166453, 0.0138198854, -0.0224479940, -0.0157273989, 0.0128072621, 0.0039269640, -0.1050071269, 0.0134471636, 0.0024724789, -0.0419171900, -0.0195095390, -0.0455183983, -0.0335744806, -0.0810732096, 0.0408505723, -0.0670537800, -0.0040523694, 0.0041862256, -0.0698642731, -0.0296911653, 0.0091901254, 0.0114169260, 0.0042660059, 0.0036070198, -0.0269115139, -0.0054482175, -0.0212607123, 0.0061815470, -0.0159052871, 0.0008184808, -0.0157498773, -0.0028839516, 0.0104676867, -0.0177976377, 0.0062262043, 0.0041523520, -0.0148237282, -0.0074036368, 0.0164826084, 0.0112456148, -0.0619794689, 0.0148366028, -0.0090934886, -0.0056400332, -0.0005964749, -0.0190114137, -0.0149269579, -0.0068927985, 0.0242684912, 0.0318990685, -0.0296823271, -0.0168265197, 0.0081228567, 0.0220287945, 0.0016605157, -0.0014662974, 0.0070538437, 0.0075102742, 0.0101134600, 0.0052014845, 0.0326227546, 0.0141914571, 0.0049293856, -0.0283643119, 0.0164518505, 0.0140449386, -0.0241177827, -0.0157608744, -0.0036785228, 0.0063219410, -0.0766566694, 0.0048346249, 0.0066087772, -0.0258700792, -0.0161181185, -0.0098866140, -0.0259784795, -0.0692445561, 0.0146414163, -0.0622676350, -0.0018272952, 0.0042378874, -0.0241235737, -0.0257100202, 0.0026354787, 0.0021251200, -0.0099033257, 0.0035900124, -0.0156361219, -0.0060222121, -0.0163586531, 0.0025735267, -0.0055912258, -0.0048397994, -0.0064546508, -0.0189013220, -0.0088848155, 0.0273577180, -0.0053984416, 0.0017422532, -0.0171348900, 0.0360144414, -0.0054180692, -0.0268933699, -0.0650363341, 0.0045363507, -0.0002204328, -0.0071436493, -0.0100999996, -0.0110925231, -0.0017944486, -0.0093676122, 0.0282149855, 0.0156586990, -0.0326248296, -0.0106120640, 0.0290337298, 0.0021134687, 0.0228700768, -0.0067159687, -0.0168775506, 0.0195052922, -0.0106510976, -0.0053885346, 0.0370359160, 0.0089863352, -0.0106288157, -0.0045084734, 0.0162039399, -0.0032745481, 0.0004966313, -0.0209028050, 0.0325104930, -0.0006513905, -0.0341378599, -0.0076499037, -0.0053204601, -0.0279744081, -0.0327046290, -0.0045596743, -0.0330981351, -0.0783824176, 0.0374313034, -0.0965960026, -0.0061938814, -0.0017258789, -0.0151065523, -0.0083745420, -0.0006216904, -0.0047375648, -0.0031872399, 0.0086231604, -0.0004001549, -0.0096821617, -0.0232573301, 0.0094066635, -0.0194808263, -0.0068043065, 0.0158309694, -0.0035877300, -0.0105428863, 0.0332083702, -0.0058949525, 0.0059226118, -0.0247750096, 0.0260796323, 0.0023727112, -0.0086497450, -0.1042082459, -0.0021565557, -0.0092313644, -0.0123492014, 0.0043620807, -0.0072202506, -0.0384726338, 0.0052509923, 0.0323981158, 0.0300676413, -0.0846864656, -0.0009387373, -0.0038919393, -0.0239020064, 0.0310204308, -0.0235278495, -0.0225046799, 0.0364784114, -0.0005078651, -0.0064296550, 0.0344013348, 0.0314027481, -0.0024841833, 0.0031602641, 0.0270227473, 0.0029320999, 0.0053015701, -0.0008645813, 0.0096398704, 0.0051117959, -0.0516353250, 0.0050716856, 0.0024865137, -0.0445593856, -0.0266268626, -0.0788299665, -0.0627130792, -0.0919797271, 0.0270885304, -0.1200457290, -0.0007813417, -0.0008633091, -0.0470103696, 0.0009965266, 0.0140251378, -0.0009990140, 0.0054395190, 0.0130404960, -0.0110344812, 0.0066499012, -0.0233433209, 0.0142243765, -0.0278926641, -0.0017433071, 0.0096808290, -0.0022054075, 0.0178715661, 0.0125025520, 0.0039896015, 0.0075463280, -0.0096350787, 0.0113873659, 0.0099031851, 0.0065247691, -0.0690820515, 0.0249602571, -0.0092633599, -0.0086002033, 0.0100675365, -0.0151697723, -0.0291632731, 0.0059029418, 0.0095936703, 0.0088898968, -0.0380176753, -0.0075009204, -0.0199626349, 0.0042909412, 0.0140217980, 0.0087128710, -0.0100360513, 0.0240249075, 0.0108907185, -0.0022238456, 0.0305791143, 0.0213109571, 0.0011414401, -0.0139344465, 0.0310788676, 0.0033357919, -0.0182566717, 0.0120813958, -0.0030600554, 0.0025162857, -0.0667551979, 0.0034015561, 0.0053472258, -0.0230440758, -0.0204761773, -0.0453605279, -0.0226802435, -0.0787898898, 0.0240087640, -0.0936838463, 0.0014632192, -0.0008758872, -0.0547891371, 0.0033484418, 0.0002780216, -0.0117014684, 0.0026507345, 0.0181239154, -0.0011825092, 0.0185400322, 0.0248252489, 0.0194632914, -0.0036905308, 0.0090329060, 0.0197952706, -0.0152557064, 0.0178449880, 0.0420722440, 0.0023933395, 0.0131819081, 0.0044478606, 0.0540033877, 0.0077021378, -0.0319349170, 0.0173607115, 0.0133937011, 0.0049146474, 0.0035795579, 0.0070415610, 0.0032562029, 0.0514524356, 0.0089737736, 0.0139785595, -0.0013377675, 0.0360199548, -0.0017612764, 0.0237285402, 0.0195831191, 0.0063965917, -0.0079214498, 0.0042729685, 0.0298374239, 0.0002144549, -0.0095272241, 0.0193309113, 0.0114114946, -0.0055067469, 0.0177015606, 0.0348416232, 0.0045910538, 0.0161234662, 0.0135576613, 0.0225373078, 0.0057668267, 0.0079740016, -0.0222040787, 0.0070570251, 0.0413573496, -0.0392795093, 0.0380504355, 0.0231206864, -0.0505915731, 0.0495475307, -0.0540518798, 0.0090819662, 0.0013436852, -0.0016466943, 0.0404951237, 0.0406917408, -0.0095115127, 0.0089723039, 0.0266133938, 0.0099847093, -0.0144056184, 0.0320681743, 0.0276954882, -0.0019954862, 0.0107845832, 0.0332667418, -0.0066401111, 0.0221958328, 0.0180565380, 0.0055339066, 0.0249151066, 0.0089159869, 0.0355343372, 0.0165780466, -0.0032893957, 0.0134327421, 0.0070762932, 0.0111118024, 0.0043743569, 0.0180648360, 0.0104367668, 0.0542357638, 0.0257100165, 0.0391148552, 0.0186290201, -0.0180978589, 0.0022686014, 0.0302419923, 0.0048314612, 0.0108458130, -0.0181519017, 0.0004252021, 0.0424154885, 0.0089583434, -0.0104219113, 0.0345689915, 0.0239195619, -0.0002800805, 0.0239344928, 0.0242311880, 0.0124020902, 0.0318179354, 0.0390127338, 0.0143148620, 0.0122335972, 0.0071451035, -0.0161075536, 0.0170872286, 0.0492930226, -0.0341148116, 0.0213981420, 0.0332857966, -0.0712923035, 0.0531118587, -0.0579748601, 0.0185915511, 0.0060347510, 0.0025021583, 0.0562231243, 0.0517455116, -0.0034259190, 0.0167485271, 0.0310188513, 0.0066379150, 0.0197445340, 0.0047761896, 0.0296884719, -0.0084831379, 0.0063127247, 0.0330522060, -0.0011374600, 0.0319812261, 0.0299781635, 0.0042135594, 0.0250760689, 0.0025367260, 0.0497612394, 0.0193544384, -0.0026496903, 0.0103127155, 0.0177524630, 0.0016741828, -0.0007770697, 0.0249208938, -0.0015964616, 0.0184081197, 0.0261290446, 0.0148283718, 0.0066803452, -0.0155362068, 0.0016481389, 0.0063923104, 0.0079339156, 0.0145070488, -0.0001645121, -0.0056662187, 0.0476768203, 0.0111486204, -0.0088896947, 0.0249503478, 0.0223640092, -0.0019443202, 0.0266503952, 0.0225698985, 0.0095677208, 0.0117849214, 0.0253215451, 0.0049102427, 0.0123318210, 0.0016294135, 0.0005246536, 0.0185298063, 0.0216565635, -0.0237870775, -0.0112524088, 0.0301283076, -0.0430781692, 0.0368128531, -0.0550033748, 0.0191287361, 0.0079972772, -0.0052324333, 0.0389854349, 0.0599500462, 0.0451890454, -0.0031403257, 0.0126880733, -0.0045776353, -0.0380593948, 0.0342908949, -0.0018690814, 0.0007638974, 0.0132319983, 0.0361162052, -0.0127007375, -0.0117189372, -0.0561414845, 0.0039450508, -0.0030163738, 0.0010476975, -0.0227416325, 0.0128849568, -0.0431629159, 0.0024520468, 0.0133145927, 0.0014421014, 0.0049200649, -0.0018291043, 0.0153961116, 0.0356407911, 0.0053326227, 0.0521599241, -0.0201058239, -0.0477445312, -0.0046842359, 0.0435723066, 0.0394042581, 0.0184792653, -0.0110151488, -0.0048520658, -0.0194191597, -0.0024803469, 0.0175556615, 0.0768839493, -0.0348092057, 0.0073446338, -0.0240386222, 0.0002208684, 0.0148008158, -0.0002788463, 0.0417337604, 0.0199963991, 0.0027878110, -0.0039641107, 0.0022504202, 0.0132567836, 0.0267300736, -0.0176016148, -0.0108016375, 0.0382311456, 0.0107155992, 0.0233878475, 0.0202961247, 0.0061215912, 0.0208129957, -0.0445937850, -0.0101539632, 0.0268271752, 0.0153146535, -0.0097429492, 0.0185847972, 0.0132666873, -0.0553274974, 0.0460977368, 0.0013752696, 0.0053954106, 0.0114348065, 0.0401448794, -0.0155621618, -0.0325730518, -0.0562849268, -0.0088874502, 0.0065638972, -0.0046251677, -0.0091252774, 0.0053953393, -0.0380202197, 0.0118923998, -0.0239213705, -0.0025115649, 0.0012929728, -0.0016537727, 0.0353615284, 0.0406567529, 0.0113705955, 0.0447860435, -0.0215347968, -0.0529182144, 0.0127357561, 0.0121729001, -0.0068854769, 0.0172381215, -0.0545967221, 0.0128208278, -0.0009057632, -0.0202358756, -0.0025041725, 0.0514340736, -0.0181784295, -0.0126484111, -0.0099937720, -0.0215963777, 0.0138015719, 0.0214404929, 0.0274881311, -0.0189897977, 0.0118019236, -0.0049098996, -0.0132419942, 0.0080666346, 0.0179434773, -0.0080298185, -0.0492310300, 0.0152026275, 0.0231789146, -0.0013616993, 0.0193860549, 0.0156380013, 0.0169060398, -0.0323509164, -0.0180531107, 0.0446977168, -0.0054294178, -0.0108769303, 0.0267532971, 0.0266837515, 0.0050487686, 0.0359463468, 0.0056852410, 0.0257605370, 0.0144476648, 0.0428826176, 0.0172723383, 0.0020559486, -0.0073004276, -0.0048045306, 0.0145220095, 0.0280134603, 0.0142151862, 0.0106895603, 0.0158750042, 0.0249707941, 0.0063837664, 0.0141343791, -0.0038583600, -0.0035081531, 0.0510191992, 0.0430189706, 0.0134165371, 0.0415894687, 0.0035368246, -0.0075090933, 0.0234664548, -0.0158045180, 0.0103869913, 0.0274852179, -0.0118777053, 0.0455088727, 0.0132863484, -0.0189348161, -0.0163950901, 0.0353496559, 0.0305857752, -0.0267058220, 0.0127913924, 0.0215375740, 0.0147431772, 0.0290158782, 0.0428307243, -0.0157445855, 0.0127393715, 0.0142219206, -0.0133649521, 0.0097241588, 0.0356235430, -0.0169589780, -0.0033758511, 0.0147263939, 0.0356131904, 0.0340191014, 0.0240153261, 0.0224264450, 0.0123527665, 0.0114516467, 0.0069441460, 0.0292186756, 0.0455221198, 0.0052442313, -0.0033178413, -0.0292239469, -0.0842216909, 0.0311920438, -0.0094818529, -0.0267812926, 0.0152731193, 0.0047808904, -0.0256952718, -0.0272087958, -0.1154037341, 0.0114257345, -0.0170395765, -0.0251935720, -0.0580879636, 0.0169101413, -0.0710991547, -0.0173367020, 0.0231534522, -0.0136240683, 0.0173910055, -0.0005128440, -0.0028640830, 0.0424923524, 0.0012501731, 0.0244105533, -0.0695172921, -0.0609942637, -0.0272199139, 0.0548239499, 0.0607524216, -0.0097248284, -0.0243757032, -0.0289614089, -0.0465282872, 0.0159975272, 0.0314826779, 0.0531202592, -0.0743561909, 0.0261152964, -0.0628130659, -0.0277752783, 0.0134831425, -0.0272193588, 0.0118692592, 0.0177900046, -0.0068295794, -0.0360963903, -0.0000067263, 0.0202110950, 0.0210713390, -0.0134037752, -0.0030298175, 0.0583879277, -0.0417183563, -0.0055714562, -0.0135806119, -0.0080136200, 0.0138783325, -0.0862748548, -0.0115456395, -0.0174519494, -0.0047900993, -0.0056565953, 0.0011393391, -0.0052161035, -0.1287840158, 0.0517656468, -0.0058587724, -0.0286253262, 0.0175483376, 0.0162927862, -0.0254757106, -0.0607154928, -0.1129020900, -0.0017864734, -0.0062216851, -0.0389665887, -0.0612613186, 0.0036433544, -0.0728862658, -0.0476392396, -0.0433529429, -0.0188279189, 0.0181415118, -0.0001835297, 0.0168038737, 0.0382282920, 0.0090502538, 0.0300832037, -0.0600811504, -0.1191965565, -0.0055926801, 0.0159537587, -0.0173758026, -0.0186395608, -0.0867414325, -0.0280848462, -0.0468612686, 0.0052535166, 0.0012861640, 0.0121418787, -0.0493000261, 0.0100750308, -0.0373355485, -0.0496811755, 0.0089738667, -0.0019777825, 0.0002031854, -0.0315561816, 0.0036979110, -0.0388790034, -0.0248993207, 0.0115680657, 0.0091737835, 0.0010319033, -0.0918419510, 0.0110579953, -0.0382180884, -0.0494595133, -0.0190975852, 0.0029715239, 0.0012991687, -0.0864520818, 0.0021776904, 0.0335669443, -0.0166178197, -0.0070667439, 0.0157587267, 0.0131778605, -0.0393865369, 0.0369815268, 0.0014819384, 0.0090925070, 0.0237987153, 0.0385236554, 0.0192143451, -0.0105673233, -0.0543289073, 0.0074991644, 0.0050210524, 0.0110172760, -0.0293479543, 0.0066086352, 0.0060784984, -0.0229698494, 0.0087407818, 0.0038084914, 0.0078688599, 0.0007000056, 0.0342125297, 0.0327248164, 0.0117869489, 0.0371926613, -0.0280089229, -0.0533798113, 0.0086386492, -0.0303185880, 0.0173175912, 0.0015764753, -0.0245465096, 0.0238584839, -0.0203894302, 0.0092854621, -0.0123281516, 0.0262896083, 0.0063334596, -0.0027315090, -0.0123174656, 0.0045184093, 0.0089392597, 0.0087748794, 0.0361931399, -0.0346507505, 0.0063116006, -0.0181046519, -0.0241147541, 0.0107374424, 0.0409327336, -0.0079469336, -0.0436204597, 0.0177842863, -0.0185554978, -0.0017479244, -0.0048117498, 0.0154059073, 0.0007354555, -0.0402541868, 0.0271941163, 0.0262610894, 0.0500193015, 0.0111292405, -0.0109875407, -0.0252446774, -0.0361942425, 0.0027154472, -0.0106831295, -0.0220084600, 0.0095381457, 0.0218830910, -0.0233761296, -0.0111065833, -0.0868188217, 0.0167298093, -0.0197632574, -0.0129688960, -0.0165762566, 0.0196175259, -0.0709760115, 0.0424315184, 0.0164733808, -0.0085946256, 0.0110482108, 0.0025810080, -0.0248773340, 0.0215189680, -0.0045485776, 0.0092086922, -0.0668489933, -0.0068257563, -0.0397835076, 0.0204498693, 0.0470720567, -0.0021582064, -0.0231057387, -0.0363541842, 0.0215438977, 0.0234518759, 0.0375994742, 0.0392424315, -0.0708606541, 0.0338563658, -0.0085052205, -0.0115023619, 0.0068906876, -0.0502331555, -0.0047747227, 0.0191606060, -0.0143837361, -0.0071870955, 0.0227778163, 0.0222289413, 0.0190261193, -0.0169675797, 0.0074431077, 0.0605089776, 0.0020441352, -0.0175958499, -0.0215672795, -0.0182141531, 0.0078698089, -0.0677893683, 0.0334657170, 0.0014451583, 0.0022214709, 0.0009271448, -0.0092013413, -0.0085096564, -0.0948018357, 0.0261029527, -0.0081127584, -0.0257551689, 0.0153511083, 0.0305943377, -0.0257554557, -0.0300920047, -0.0965985060, 0.0123463599, -0.0130664129, -0.0123268263, -0.0351446345, 0.0081978496, -0.0638565049, 0.0304367039, -0.0304681063, -0.0070453044, 0.0155911399, 0.0007192717, -0.0032180117, 0.0471912548, 0.0024260844, 0.0227265507, -0.0562093109, -0.0610125549, -0.0285898242, 0.0096292812, -0.0050022667, -0.0217766725, -0.0638175681, -0.0330485702, 0.0061924630, 0.0205309857, 0.0129899252, 0.0198689587, -0.0484160520, 0.0243652575, -0.0053807739, -0.0304462239, 0.0014786617, -0.0314868540, 0.0003816892, -0.0278617200, -0.0094250133, -0.0166470520, -0.0043449500, 0.0158439502, 0.0372303389, -0.0098755173, -0.0489399806, 0.0503881462, -0.0212829355, -0.0534938313, -0.0171345286, -0.0075202133, -0.0054514441, -0.0797325969, 0.0427383073, 0.0490655228, 0.0001760971, -0.0018351644, 0.0056626876, 0.0103353532, -0.0254356302, 0.0212513525, -0.0022038827, 0.0091783628, 0.0218596905, 0.0524661355, 0.0117857512, 0.0044999309, -0.0457251295, 0.0128588090, -0.0021577803, 0.0173424073, -0.0151654994, 0.0061596078, 0.0084245615, 0.0258295368, 0.0059218681, 0.0088081490, 0.0067004720, 0.0021973157, 0.0140180374, 0.0340542495, 0.0076519637, 0.0313468948, -0.0145648001, -0.0427921042, -0.0105970334, -0.0092353420, 0.0167933386, -0.0039748200, 